<?xml version="1.0"?>
<MethodSetup Method="DL::DNN_CPU">
  <GeneralInfo>
    <Info name="TMVA Release" value="4.2.1 [262657]"/>
    <Info name="ROOT Release" value="6.24/04 [399364]"/>
    <Info name="Creator" value="danchepkwony"/>
    <Info name="Date" value="Fri Oct 15 01:00:42 2021"/>
    <Info name="Host" value="Darwin BigSur 20.4.0 Darwin Kernel Version 20.4.0: Thu Apr 22 21:46:47 PDT 2021; root:xnu-7195.101.2~1/RELEASE_X86_64 x86_64"/>
    <Info name="Dir" value="/Users/danchepkwony/Documents/Skoby"/>
    <Info name="Training events" value="2000"/>
    <Info name="TrainingTime" value="1.30688405e+00"/>
    <Info name="AnalysisType" value="Classification"/>
  </GeneralInfo>
  <Options>
    <Option name="V" modified="Yes">True</Option>
    <Option name="VerbosityLevel" modified="No">Verbose</Option>
    <Option name="VarTransform" modified="Yes">N</Option>
    <Option name="H" modified="Yes">False</Option>
    <Option name="CreateMVAPdfs" modified="No">False</Option>
    <Option name="IgnoreNegWeightsInTraining" modified="No">False</Option>
    <Option name="InputLayout" modified="No">0|0|0</Option>
    <Option name="BatchLayout" modified="No">0|0|0</Option>
    <Option name="Layout" modified="Yes">TANH|128,TANH|128,TANH|128,LINEAR</Option>
    <Option name="ErrorStrategy" modified="Yes">CROSSENTROPY</Option>
    <Option name="WeightInitialization" modified="Yes">XAVIERUNIFORM</Option>
    <Option name="RandomSeed" modified="No">0</Option>
    <Option name="ValidationSize" modified="No">20%</Option>
    <Option name="Architecture" modified="Yes">CPU</Option>
    <Option name="TrainingStrategy" modified="Yes">LearningRate=1e-2,Momentum=0.9,ConvergenceSteps=20,BatchSize=100,TestRepetitions=1,WeightDecay=1e-4,Regularization=None,DropConfig=0.0+0.5+0.5+0.5</Option>
  </Options>
  <Variables NVar="4">
    <Variable VarIndex="0" Expression="var1+var2" Label="myvar1" Title="myvar1" Unit="" Internal="myvar1" Type="F" Min="-9.31873512e+00" Max="7.53042316e+00"/>
    <Variable VarIndex="1" Expression="var1-var2" Label="myvar2" Title="Expression 2" Unit="" Internal="myvar2" Type="F" Min="-3.70671988e+00" Max="4.02912045e+00"/>
    <Variable VarIndex="2" Expression="var3" Label="var3" Title="Variable 3" Unit="units" Internal="var3" Type="F" Min="-5.05078554e+00" Max="4.33005810e+00"/>
    <Variable VarIndex="3" Expression="var4" Label="var4" Title="Variable 4" Unit="units" Internal="var4" Type="F" Min="-5.82962179e+00" Max="5.03067923e+00"/>
  </Variables>
  <Spectators NSpec="2">
    <Spectator SpecIndex="0" Expression="var1*2" Label="spec1" Title="Spectator 1" Unit="units" Internal="spec1" Type="F" Min="-9.14904976e+00" Max="9.52782059e+00"/>
    <Spectator SpecIndex="1" Expression="var1*3" Label="spec2" Title="Spectator 2" Unit="units" Internal="spec2" Type="F" Min="-1.37235746e+01" Max="1.42917309e+01"/>
  </Spectators>
  <Classes NClass="2">
    <Class Name="Signal" Index="0"/>
    <Class Name="Background" Index="1"/>
  </Classes>
  <Transformations NTransformations="1">
    <Transform Name="Normalize">
      <Selection>
        <Input NInputs="4">
          <Input Type="Variable" Label="myvar1" Expression="var1+var2"/>
          <Input Type="Variable" Label="myvar2" Expression="var1-var2"/>
          <Input Type="Variable" Label="var3" Expression="var3"/>
          <Input Type="Variable" Label="var4" Expression="var4"/>
        </Input>
        <Output NOutputs="4">
          <Output Type="Variable" Label="myvar1" Expression="var1+var2"/>
          <Output Type="Variable" Label="myvar2" Expression="var1-var2"/>
          <Output Type="Variable" Label="var3" Expression="var3"/>
          <Output Type="Variable" Label="var4" Expression="var4"/>
        </Output>
      </Selection>
      <Class ClassIndex="0">
        <Ranges>
          <Range Index="0" Min="-5.1623420715332031e+00" Max="5.5480084419250488e+00"/>
          <Range Index="1" Min="-3.7067198753356934e+00" Max="4.0291204452514648e+00"/>
          <Range Index="2" Min="-2.6928036212921143e+00" Max="3.8698983192443848e+00"/>
          <Range Index="3" Min="-2.9492409229278564e+00" Max="4.2669730186462402e+00"/>
        </Ranges>
      </Class>
      <Class ClassIndex="1">
        <Ranges>
          <Range Index="0" Min="-9.3187351226806641e+00" Max="7.5304231643676758e+00"/>
          <Range Index="1" Min="-3.4552407264709473e+00" Max="3.9897418022155762e+00"/>
          <Range Index="2" Min="-5.0507855415344238e+00" Max="4.3300580978393555e+00"/>
          <Range Index="3" Min="-5.8296217918395996e+00" Max="5.0306792259216309e+00"/>
        </Ranges>
      </Class>
      <Class ClassIndex="2">
        <Ranges>
          <Range Index="0" Min="-9.3187351226806641e+00" Max="7.5304231643676758e+00"/>
          <Range Index="1" Min="-3.7067198753356934e+00" Max="4.0291204452514648e+00"/>
          <Range Index="2" Min="-5.0507855415344238e+00" Max="4.3300580978393555e+00"/>
          <Range Index="3" Min="-5.8296217918395996e+00" Max="5.0306792259216309e+00"/>
        </Ranges>
      </Class>
    </Transform>
  </Transformations>
  <MVAPdfs/>
  <Weights NetDepth="4" InputDepth="1" InputHeight="1" InputWidth="4" BatchSize="1" BatchDepth="1" BatchHeight="100" BatchWidth="4" LossFunction="C" Initialization="F" Regularization="0" OutputFunction="S" WeightDecay="9.9999997473787516e-05">
    <DenseLayer Width="128" ActivationFunction="3">
      <Weights Rows="128" Columns="4">
        -6.655616e-02  1.126577e-02  1.902280e-02  8.362918e-02  1.816977e-01  1.191686e-02  2.792035e-02  -3.123312e-01  -1.907690e-01  7.694332e-03  1.755213e-01  -2.318346e-02  2.738674e-01  -1.025164e-01  6.044174e-02  -3.376010e-01  7.472990e-02  -1.470188e-02  4.291916e-02  -1.301634e-01  -1.681025e-02  -2.654252e-05  6.350990e-02  -1.920602e-02  -2.673136e-01  -3.678728e-02  -3.415518e-02  2.792057e-01  -8.735263e-02  -1.719860e-02  -1.182635e-01  2.247952e-01  3.401528e-01  1.660032e-02  -8.280758e-02  -3.536003e-01  1.134649e-01  2.156528e-02  1.069313e-01  -2.098657e-01  -1.802189e-01  -6.803566e-02  -1.696271e-01  3.553686e-01  -1.017143e-01  -1.479674e-03  -1.064128e-01  2.137503e-01  3.381737e-01  2.543552e-02  6.730854e-02  -3.761338e-01  1.474158e-01  4.425342e-02  2.591890e-01  -2.878391e-01  -1.973297e-01  1.437299e-02  -9.020548e-03  1.530861e-01  1.996425e-01  1.763949e-02  1.287855e-02  -2.545433e-01  -2.476002e-01  -1.438208e-02  -1.800405e-01  4.298023e-01  -2.368447e-01  6.765269e-02  2.725811e-02  3.396353e-01  1.056999e-01  3.166035e-02  -3.856799e-02  -1.525964e-01  -2.432524e-01  -9.028818e-02  -2.092783e-01  4.368576e-01  4.146015e-01  7.373936e-02  -2.677404e-03  -5.043732e-01  3.368359e-01  -1.139674e-02  8.758426e-02  -4.327236e-01  -2.481114e-01  2.511902e-02  -1.444701e-01  2.284444e-01  1.119906e-01  -4.560963e-02  2.081202e-01  -3.231066e-01  -2.657630e-01  6.310741e-03  1.326902e-01  2.261114e-01  2.898111e-01  2.089820e-02  4.762744e-02  -3.936728e-01  2.162961e-02  3.308883e-02  -1.056715e-01  2.437832e-02  -4.444734e-03  -2.752823e-02  -4.088631e-02  -8.890340e-02  3.449880e-01  6.205388e-02  -1.050644e-01  -1.270983e-01  1.777111e-01  4.538418e-02  1.459018e-01  -3.402567e-01  -1.872318e-01  -7.627396e-02  -7.055015e-02  2.558782e-01  2.851959e-01  2.042590e-02  1.303757e-01  -4.428698e-01  1.349503e-01  3.345564e-02  1.590837e-01  -2.482059e-01  -2.759187e-01  1.409215e-02  -1.726431e-01  3.382382e-01  -2.025552e-01  -8.953819e-02  -2.915453e-01  4.325678e-01  7.214385e-02  -3.332033e-02  -9.633635e-02  -1.351168e-01  2.451997e-01  1.505116e-02  1.994561e-01  -4.509107e-01  1.772134e-01  8.780851e-02  1.405596e-01  -4.484643e-01  -1.816151e-01  -4.915446e-03  2.771658e-02  1.394251e-01  1.291624e-01  1.157238e-01  1.829139e-01  -4.530914e-01  -4.061684e-02  -8.809830e-04  2.023488e-02  1.938304e-02  3.286317e-01  3.906186e-04  -5.930416e-02  -3.478754e-01  4.146635e-01  -9.434579e-02  8.086444e-03  -3.674715e-01  -2.177480e-01  9.339798e-02  -1.187683e-01  4.196051e-01  1.418009e-01  3.013627e-02  2.218937e-02  -2.888984e-01  -1.899805e-01  -4.287074e-02  -1.478536e-01  2.873337e-01  6.919504e-02  3.072561e-02  9.061591e-02  -1.609369e-01  3.341749e-01  1.073037e-01  5.688640e-02  -4.368994e-01  -2.273152e-01  -1.169029e-02  3.538357e-02  1.962442e-01  2.594017e-01  -2.063339e-02  5.965516e-02  -2.965260e-01  -2.873378e-01  -1.008263e-01  -2.217072e-01  4.552570e-01  -2.043350e-01  2.912098e-03  -2.064933e-02  3.507479e-01  3.759823e-01  -6.755619e-02  2.458723e-01  -4.087014e-01  -4.975298e-02  6.987923e-03  -1.572730e-01  4.227690e-01  2.578986e-01  6.475811e-02  1.712415e-01  -4.691334e-01  3.774720e-01  3.160030e-02  8.547547e-02  -5.024315e-01  2.916579e-01  1.153424e-01  1.860759e-01  -4.769881e-01  -4.324319e-01  -4.415471e-02  6.839158e-02  4.517795e-01  1.472913e-01  2.737136e-02  7.331534e-02  -3.074250e-01  5.785700e-02  -2.781772e-02  -1.375579e-01  -5.852480e-04  2.250267e-02  2.243674e-03  1.499293e-01  -1.671386e-01  -2.605440e-01  -7.513101e-02  -9.896921e-02  3.878627e-01  3.071794e-01  2.545099e-02  -6.547810e-02  -3.164561e-01  5.967300e-02  -3.568983e-02  -7.154684e-02  2.010972e-02  -2.608473e-01  -1.968670e-03  8.007546e-04  3.408560e-01  2.029987e-01  7.873283e-03  -5.842936e-03  -2.073203e-01  -2.956684e-01  1.926020e-02  -2.079232e-01  4.504351e-01  7.811454e-02  -8.746149e-02  -3.402510e-02  5.106839e-02  -3.608324e-01  3.069313e-02  1.472046e-02  3.257724e-01  -3.176699e-01  -6.874166e-02  -3.382884e-02  4.497804e-01  1.832987e-01  4.767437e-02  -4.801129e-02  -2.012539e-01  -3.474413e-01  2.042193e-03  8.307154e-02  4.297360e-01  3.287409e-01  3.583613e-02  1.423528e-01  -4.244351e-01  3.076219e-03  -2.656869e-03  -1.888492e-01  2.356210e-01  2.521113e-01  5.777300e-02  5.239168e-02  -4.606478e-01  -2.648925e-01  -3.875573e-02  -2.116847e-02  3.348737e-01  2.567060e-01  1.328970e-01  8.793624e-02  -4.746480e-01  5.529195e-02  3.003853e-03  1.801083e-02  -4.047811e-02  3.007178e-01  -3.918761e-02  -6.110722e-02  -3.476382e-01  -1.668242e-03  -3.520567e-03  -1.796068e-02  1.559537e-01  -3.077264e-01  -7.624911e-03  6.742917e-02  3.401955e-01  4.087406e-02  6.196628e-03  -1.263664e-01  2.870978e-02  1.574600e-01  2.776739e-02  1.110815e-01  -2.575834e-01  2.359084e-01  -5.354162e-02  8.438228e-03  -2.941550e-01  2.923436e-02  -7.523313e-04  -7.252681e-02  -2.734127e-01  1.877382e-01  1.317659e-01  5.666465e-02  -4.550733e-01  1.806272e-01  3.547170e-02  -2.428581e-03  -3.423229e-01  9.386491e-02  1.102332e-02  7.710047e-02  -2.810844e-01  1.403083e-01  1.346674e-02  1.204386e-02  -2.067865e-01  -1.600896e-01  -6.344120e-02  -2.341366e-01  4.296401e-01  1.369473e-01  1.242748e-02  1.955648e-03  -1.433788e-01  -7.831703e-02  -6.170820e-02  6.993194e-02  -5.166874e-02  -4.519715e-02  4.135657e-04  -3.835733e-02  1.417565e-02  -1.759566e-01  -7.369393e-02  -1.602340e-01  4.251765e-01  1.611664e-01  4.616399e-02  1.251145e-01  -3.065477e-01  1.761772e-01  1.085156e-01  -1.314682e-03  -2.352765e-01  -2.652317e-01  3.894197e-02  -1.326440e-01  3.696307e-01  -3.692663e-01  -1.040161e-01  -1.754693e-01  5.550846e-01  3.123462e-01  4.096202e-02  -1.298719e-01  -2.315087e-01  -1.750804e-01  -3.143657e-02  -6.496093e-02  2.854741e-01  -2.406059e-01  1.818620e-02  -2.387206e-01  4.670162e-01  8.998030e-02  -2.066341e-03  2.196155e-02  -1.181292e-01  -2.621635e-01  -2.385910e-02  -1.238766e-01  4.720125e-01  -3.458002e-02  1.265825e-02  4.930666e-02  -2.454080e-02  -1.370762e-01  -5.909438e-02  -1.771045e-01  4.098911e-01  -2.792587e-01  2.946069e-02  -2.847549e-03  4.631212e-01  -2.495638e-01  -4.356417e-02  -5.016709e-02  4.439318e-01  -2.769210e-01  7.813006e-03  -1.706561e-01  4.544044e-01  2.070600e-01  2.666898e-02  1.564320e-01  -4.347475e-01  -1.509218e-01  -7.187847e-02  6.639500e-02  2.585330e-01  4.200706e-02  1.249985e-02  1.173637e-01  -1.638895e-01  -1.427991e-01  -2.760410e-02  -1.074517e-01  2.538088e-01  3.803323e-01  -5.851568e-02  5.542034e-02  -4.142477e-01  1.906795e-03  4.620598e-04  9.934466e-02  -7.082798e-02  -3.125342e-01  -2.323491e-02  6.195205e-02  3.363680e-01  1.570141e-01  3.083591e-02  1.002429e-01  -3.546292e-01  -1.002907e-02  -1.274560e-02  2.690409e-02  -1.359857e-02  2.454260e-01  5.757911e-02  7.568935e-02  -3.865053e-01  9.374521e-02  -3.937540e-03  5.660686e-02  -1.499542e-01  4.156478e-01  1.210973e-01  -4.245390e-03  -4.603157e-01  2.572601e-01  -4.148284e-03  2.373002e-01  -4.392292e-01  3.049712e-01  -1.198491e-02  2.495632e-02  -4.929202e-01  3.221228e-01  1.256882e-01  1.932061e-01  -4.663419e-01  2.802539e-01  4.454255e-02  8.752467e-02  -4.405142e-01  3.976440e-03  1.822584e-02  1.762691e-03  -1.233224e-01  -3.855698e-01  -6.461073e-02  -3.714302e-02  5.174074e-01  -1.194828e-01  -1.656781e-02  -3.603145e-03  1.878605e-01  1.771783e-01  3.935634e-02  1.307865e-01  -3.416133e-01  
      </Weights>
      <Biases Rows="128" Columns="1">
        5.665993e-04  7.608915e-03  1.650639e-02  -9.473658e-03  -2.587477e-02  8.171386e-03  -1.230229e-03  -2.035805e-02  9.634262e-03  2.387377e-03  -1.234014e-02  -8.791770e-03  -1.363909e-03  8.370778e-03  9.814478e-03  9.944809e-03  -4.143127e-03  -3.977635e-03  1.402401e-02  -1.743876e-02  1.311944e-02  1.402828e-03  1.847785e-02  5.322629e-03  4.377667e-04  5.873357e-03  3.483822e-03  1.929087e-02  -1.136512e-02  9.204352e-03  -4.414525e-03  7.256182e-03  7.207133e-03  1.361425e-02  -1.204755e-03  -3.134103e-03  3.354979e-05  2.463903e-02  -5.265323e-03  3.750615e-02  1.115100e-02  5.961315e-03  -1.613376e-02  -7.088175e-04  8.860771e-03  2.843002e-04  6.240077e-03  1.643307e-02  -4.931128e-03  -1.038888e-02  -6.108038e-03  -1.351217e-02  -2.728152e-02  -2.796325e-02  1.312562e-02  5.502842e-03  1.662182e-02  -1.335208e-02  1.140571e-02  -1.394265e-02  2.759391e-03  -7.916347e-03  8.336117e-03  -1.407092e-02  -8.154252e-03  6.142340e-03  9.871874e-03  -8.291776e-03  9.874901e-03  -1.497333e-02  6.539478e-03  -1.618047e-02  -1.636172e-03  -9.659035e-03  2.128432e-02  -4.845888e-03  2.085947e-02  -1.717387e-02  4.392345e-03  -2.101128e-02  -1.287801e-02  -1.282942e-02  6.915763e-03  -1.143259e-03  3.233331e-02  4.134451e-02  1.579771e-02  1.306690e-02  1.825236e-03  -1.115309e-02  2.940201e-03  5.684489e-03  7.074906e-03  -2.400264e-02  1.034201e-02  1.054401e-02  8.699560e-03  -1.843929e-02  -9.242179e-04  -1.114870e-02  9.794435e-03  -3.260435e-03  -1.263837e-02  2.101139e-02  -2.111497e-02  -2.529463e-02  -1.948163e-02  -3.742102e-03  1.707132e-02  -2.348649e-02  -5.618754e-03  -1.597133e-02  7.498579e-05  2.906305e-03  7.895082e-04  1.776811e-02  -3.191942e-04  1.115247e-02  1.206358e-02  1.720764e-02  2.405671e-03  1.532054e-02  1.034938e-02  1.446205e-02  9.419775e-03  -1.515700e-02  -1.438639e-02  1.214570e-02  
      </Biases>
    </DenseLayer>
    <DenseLayer Width="128" ActivationFunction="3">
      <Weights Rows="128" Columns="128">
        -1.296730e-01  -9.198231e-02  -1.232688e-01  1.466438e-01  1.261528e-01  -7.762662e-02  1.596917e-01  6.315900e-02  5.045513e-02  1.321007e-01  -7.030740e-02  1.202413e-02  9.309448e-02  4.584426e-02  1.516799e-01  -9.080300e-02  9.157582e-02  5.387041e-02  5.024035e-02  5.818680e-02  -1.884259e-02  2.725979e-02  2.911214e-02  -1.822322e-01  -2.843370e-02  1.751673e-01  -1.650915e-02  -4.190665e-02  2.252323e-02  -8.329324e-02  -9.065290e-03  -1.055666e-01  -1.285431e-01  1.188800e-01  1.431286e-01  -8.113963e-02  1.703393e-01  8.378728e-02  -4.105596e-02  -6.822430e-02  1.177764e-02  1.368972e-01  -2.147944e-02  1.552324e-01  -6.025250e-02  1.272873e-01  -3.120783e-02  -1.795669e-02  4.124916e-02  1.128913e-01  5.169088e-02  1.330473e-01  1.105688e-01  -1.160004e-02  1.176838e-01  7.259241e-03  8.989793e-02  -1.006166e-01  7.653498e-02  9.829178e-02  2.402770e-01  -1.948184e-01  3.477298e-02  -1.696464e-02  -1.738123e-01  -9.676482e-02  -3.338234e-02  7.062373e-02  -6.506250e-02  -1.019579e-01  -2.303009e-02  5.407364e-02  1.542068e-01  -4.799668e-02  -1.268792e-01  -1.210863e-01  1.248421e-01  -1.326840e-01  -2.109310e-02  8.227900e-02  -2.201131e-02  7.835507e-02  -2.393498e-02  1.627354e-02  -9.586323e-02  -4.544269e-02  -4.368649e-03  -3.684216e-02  4.819991e-02  1.592034e-01  2.985362e-02  1.190420e-01  2.113380e-01  -6.665692e-03  9.315530e-03  1.142404e-02  -4.289754e-02  -1.719604e-02  -1.838296e-01  -1.065963e-01  7.479204e-02  2.202630e-01  -6.766283e-02  -1.287368e-02  -2.028525e-03  -2.787494e-02  1.104383e-02  -1.464347e-01  1.596190e-01  -1.281548e-01  3.336456e-02  8.006277e-03  5.465219e-02  -3.651876e-02  1.963067e-02  2.742870e-02  9.821437e-02  3.720311e-02  3.872053e-02  -3.371286e-02  -1.154445e-01  1.617807e-01  -2.707677e-02  1.794496e-01  1.320402e-01  -1.843546e-01  -1.285790e-01  -1.051404e-01  -6.569020e-02  -1.023977e-01  -3.560740e-02  5.383664e-02  5.314202e-02  5.178569e-02  -7.012069e-02  5.382395e-02  2.887057e-03  -3.144184e-02  1.841251e-02  -7.426886e-02  -1.114268e-01  1.615542e-01  4.169447e-02  5.137538e-03  1.204273e-02  1.375583e-02  6.661125e-02  -1.762690e-01  5.167270e-02  7.438351e-02  9.162471e-02  -6.451175e-02  -1.636270e-01  2.586966e-02  -8.262311e-02  1.398645e-01  -3.914776e-02  1.414140e-01  3.409181e-02  1.228573e-03  -8.276847e-02  1.777050e-02  -7.172265e-02  1.455698e-01  -3.322574e-02  -3.557147e-02  2.949380e-02  1.290515e-01  6.989276e-02  -8.175726e-02  -5.466710e-02  5.602479e-02  1.300247e-01  8.477181e-02  -4.141501e-02  -2.689567e-02  9.037179e-02  -1.152501e-01  1.039775e-01  -1.156081e-01  -4.348368e-02  1.295418e-01  1.202049e-01  -6.038840e-02  8.742160e-02  1.073893e-02  -1.926390e-02  4.940619e-02  -8.201010e-02  -2.759894e-02  -1.011696e-01  2.396256e-02  6.742561e-02  -3.147959e-03  -1.782813e-01  4.022037e-02  -4.520956e-02  8.905283e-02  -1.273264e-01  8.350977e-02  -3.256246e-03  7.442284e-03  -7.432894e-02  1.520617e-01  -2.638146e-02  -7.697252e-02  9.772401e-02  8.350621e-02  7.344963e-02  5.097846e-02  -9.415536e-02  5.150243e-02  9.492143e-02  -6.257119e-02  7.919415e-03  -1.209415e-01  1.207559e-01  -6.701797e-02  -1.033793e-02  -4.080431e-02  6.929739e-02  -2.981298e-02  -6.088938e-03  -1.357064e-01  1.284458e-01  1.220832e-01  -1.035297e-01  -1.162978e-01  4.351327e-02  -9.147972e-02  -1.341884e-02  2.385333e-02  -3.909499e-02  -1.846349e-01  8.817504e-02  2.576116e-01  -1.481913e-01  -2.359348e-02  8.582512e-02  4.980606e-02  -1.138335e-01  -1.627889e-02  1.074669e-01  -6.481665e-02  2.210756e-01  -1.236830e-01  3.115271e-02  -1.521871e-01  -1.386690e-01  7.948123e-02  -1.316093e-01  1.004133e-01  7.296475e-02  5.225324e-02  4.589763e-02  8.472148e-02  -6.477505e-02  6.305608e-03  7.241154e-03  -3.411488e-02  6.428593e-02  1.302928e-01  -2.011044e-01  5.592429e-02  2.116648e-01  -8.362462e-02  -4.071928e-02  -3.746975e-02  2.507304e-01  -8.154032e-02  1.340164e-01  1.898710e-01  -1.798362e-03  -1.068515e-01  1.362735e-01  -1.770540e-01  2.405423e-01  1.737008e-01  3.656012e-02  -9.126277e-03  -1.527620e-01  1.805950e-01  1.605355e-02  4.350082e-02  1.311398e-01  1.240712e-01  -1.823402e-01  1.430160e-01  -1.275786e-01  9.121574e-02  -1.748612e-01  -6.164991e-02  1.858013e-01  2.104593e-01  -3.942283e-02  6.114148e-02  7.344758e-02  2.020766e-01  2.563927e-01  1.166530e-02  4.027228e-02  1.030237e-01  -5.778915e-02  4.592019e-02  -3.617759e-02  -2.210985e-02  -1.716127e-01  -1.071927e-01  -1.139418e-02  -1.436878e-01  1.668721e-01  2.433056e-01  3.256241e-01  -3.639698e-01  1.638627e-03  5.416129e-02  7.692323e-02  -5.016863e-02  2.651884e-01  -5.986328e-02  -3.728062e-02  -8.796897e-02  -1.891704e-01  -9.539530e-02  -2.005831e-01  -1.956080e-01  8.636842e-03  -8.836272e-02  1.949163e-01  3.715735e-02  2.349371e-01  -5.105457e-02  1.427928e-01  -1.102364e-02  1.311339e-01  5.451785e-02  -1.810043e-01  -9.637086e-02  1.284382e-01  2.105885e-01  1.386857e-01  1.837478e-01  1.634639e-01  8.118739e-02  -1.295820e-02  -1.386361e-01  -1.348664e-01  1.560217e-01  1.706820e-01  -1.251254e-01  1.930843e-01  -7.838432e-02  3.054831e-02  -3.550601e-01  2.959481e-02  -1.315064e-01  -1.893084e-01  -1.172778e-01  -2.600396e-01  -9.582989e-02  -2.364947e-01  -2.066123e-01  -1.220461e-01  -1.257357e-01  1.062038e-01  -2.149113e-02  -1.150069e-01  -1.895806e-02  2.241357e-01  -5.401852e-02  -4.609427e-02  1.302022e-01  -1.270870e-01  3.619207e-02  -9.815954e-02  2.053063e-01  8.904427e-02  2.383778e-01  6.803345e-02  1.313843e-01  -9.578235e-02  -2.361141e-01  -1.051879e-01  1.405426e-01  4.803991e-02  -4.855578e-02  3.351526e-03  1.981854e-01  5.726407e-02  -5.836143e-02  -6.488256e-02  4.307907e-02  1.465126e-02  1.232654e-02  7.143939e-02  5.820885e-02  -8.407649e-02  -2.866568e-02  4.315434e-02  -2.192095e-01  -6.263083e-02  -9.612435e-02  -1.183474e-01  3.205061e-02  2.078010e-01  -8.979589e-02  1.487879e-01  -1.280515e-01  7.589270e-02  4.563843e-02  2.277569e-01  3.624049e-02  -6.673323e-02  7.620287e-02  -1.263655e-01  -4.031529e-03  1.108944e-01  -8.062403e-04  2.834808e-02  -2.164652e-01  4.129964e-02  -2.370102e-02  -1.872134e-01  -2.712090e-03  -7.899259e-02  1.176251e-01  2.108016e-02  -1.483885e-01  4.898493e-03  6.659108e-02  -6.100834e-02  3.646766e-02  -2.208338e-02  6.757171e-02  -2.073988e-02  -1.254558e-01  1.520272e-01  -2.663836e-02  2.658879e-01  1.148475e-01  -7.665963e-03  -5.262312e-02  4.487687e-02  -5.302356e-02  1.893676e-01  -2.026786e-01  1.489719e-01  -1.071942e-02  -2.087759e-01  -1.174484e-01  -1.195767e-01  1.058647e-02  9.376652e-02  8.559752e-03  -2.405906e-02  -1.471049e-01  1.645332e-01  1.087909e-01  -1.154465e-01  -8.262780e-02  -7.807352e-02  -1.066351e-01  2.142835e-01  -1.155136e-01  -1.589386e-01  -9.196379e-02  1.081655e-01  5.411907e-02  8.242319e-02  1.754178e-01  7.983810e-02  -1.107028e-01  1.607268e-01  -7.758213e-02  -3.925715e-02  -1.234494e-02  1.641434e-02  -1.814799e-01  -2.521562e-02  6.102938e-02  -1.968198e-01  -1.270037e-01  -1.455609e-01  8.010228e-02  -1.433513e-01  5.212156e-02  -3.488202e-02  -1.377149e-01  -1.686187e-01  1.965164e-02  -1.372075e-02  -8.880043e-02  -1.043147e-01  -5.981817e-02  8.195776e-02  1.842056e-01  2.730951e-01  -3.026251e-02  -2.395560e-02  5.931896e-02  -4.324217e-02  -5.730442e-03  -1.614159e-01  4.195778e-02  1.288943e-02  7.896113e-02  -4.245809e-02  1.581665e-01  7.521083e-02  -2.172906e-01  -1.384659e-01  -5.398627e-02  -3.761624e-02  1.527964e-01  2.041746e-02  1.277652e-02  -3.118427e-02  -1.575962e-01  1.334295e-01  -2.841283e-02  -1.341216e-01  6.812272e-02  1.031869e-01  -2.699164e-02  -4.959725e-03  -6.119487e-02  8.940547e-02  2.966533e-02  1.085618e-01  1.191467e-01  1.232616e-02  1.445361e-01  -1.889679e-01  -4.841172e-02  9.260447e-02  -7.092223e-03  8.065731e-03  -8.879022e-02  5.117295e-02  -9.323674e-02  8.454171e-02  1.281257e-01  -1.625615e-03  -1.085993e-01  -6.166875e-02  -1.588222e-02  1.511689e-01  6.874099e-02  -2.234446e-01  4.559554e-02  -3.357135e-02  3.598295e-02  5.661569e-02  5.416181e-02  -1.679516e-01  -2.282073e-02  7.169173e-02  1.356065e-01  5.361892e-02  -1.151362e-01  -3.197233e-02  -9.612811e-02  2.413479e-01  2.763474e-02  -3.566002e-02  1.533064e-01  -1.718629e-01  -4.318296e-01  -1.438494e-01  1.610427e-01  1.348915e-01  5.865274e-02  7.607062e-02  1.441661e-01  6.760623e-02  4.456300e-02  -5.484796e-02  3.590605e-02  3.108938e-01  9.751164e-02  -8.034354e-02  9.750266e-02  2.187495e-02  -1.108105e-01  -1.437235e-01  2.632239e-03  -1.435731e-01  -4.240581e-03  -5.056797e-02  -1.368476e-01  8.820320e-02  -9.076863e-02  1.351018e-01  -1.733844e-01  -4.782914e-02  -8.504353e-02  -6.008203e-02  -4.546261e-03  -1.350377e-01  -6.352473e-03  4.034191e-02  1.392865e-02  1.843181e-02  6.332231e-02  1.067154e-01  -8.659025e-02  -3.326686e-02  -1.550120e-01  -1.037185e-01  4.915012e-02  -2.638967e-02  6.445025e-02  2.003638e-01  7.179406e-02  1.462786e-01  -1.068162e-01  7.434291e-02  1.437018e-01  -4.243103e-02  1.718690e-01  -8.601817e-02  1.368117e-01  -1.038539e-01  -1.809631e-01  -1.414308e-01  -1.075907e-01  9.020673e-02  1.270787e-01  5.626054e-02  -1.201968e-01  -5.523369e-03  2.489570e-02  2.260083e-02  -6.833740e-02  -8.364015e-02  -2.618201e-01  1.001420e-01  1.310448e-01  -2.056638e-01  2.852359e-02  -6.863626e-02  2.267030e-02  -1.621180e-01  -9.592634e-02  3.845673e-02  -1.570277e-02  4.687078e-02  -9.109146e-02  3.110315e-02  -8.096965e-02  9.100081e-03  2.800178e-02  -2.784036e-01  -4.959187e-02  2.312129e-02  -1.956780e-03  1.892926e-01  3.498519e-02  -8.126272e-02  4.058608e-02  -3.122990e-01  -1.117518e-01  -3.493346e-02  2.801310e-02  2.337827e-02  2.971749e-02  -1.951745e-01  -3.067293e-02  -1.386512e-01  9.927618e-02  -6.346670e-02  -3.637252e-01  5.263039e-02  -1.444513e-02  1.109821e-01  6.428382e-02  -1.169756e-01  6.061128e-02  6.585892e-02  4.704908e-02  -8.355962e-02  -1.125367e-01  -1.634487e-01  1.849673e-02  6.898093e-04  5.102137e-02  7.500923e-02  -8.902552e-02  -4.181992e-02  3.753896e-03  5.984270e-02  -1.328654e-01  -2.084746e-01  1.857238e-01  -2.492861e-01  -3.515177e-01  5.610895e-03  7.478208e-02  -3.907045e-02  -5.135892e-02  -1.076113e-01  1.447566e-01  -1.733989e-01  -1.462137e-03  5.640203e-02  -8.872256e-03  1.558371e-01  1.675501e-02  4.473205e-02  1.575571e-01  -5.677877e-02  -1.746284e-02  -1.303801e-01  -3.986654e-03  -1.514954e-01  1.297088e-02  3.923885e-02  8.546495e-02  6.020417e-02  5.547363e-02  -1.142555e-01  -8.834584e-02  -5.488810e-02  4.211443e-02  -5.782492e-03  9.113498e-02  -8.783050e-02  -8.076801e-02  -1.157901e-01  1.015964e-01  1.152957e-01  -5.859373e-02  -3.527040e-02  -4.654779e-02  -8.794867e-02  -1.833416e-02  1.413157e-01  1.777520e-01  -2.960467e-02  1.293266e-01  3.250037e-01  -1.083743e-01  2.345946e-02  1.056938e-01  2.278290e-01  -3.492487e-02  -2.065379e-02  -3.814399e-02  -4.378452e-02  -5.811088e-02  -7.902794e-02  -1.138167e-01  1.771920e-02  6.201532e-02  1.946770e-02  -1.517212e-01  -8.984280e-02  -6.092548e-02  1.102485e-01  -2.566738e-01  -2.245572e-01  -6.784900e-02  -1.812634e-01  -2.883213e-01  -1.847527e-01  2.096559e-01  -5.635521e-02  -6.154222e-02  -1.984018e-01  3.567081e-02  -1.139572e-02  -2.488790e-02  -3.649263e-02  1.342951e-01  1.603444e-01  1.119919e-01  -5.700465e-02  -9.127554e-02  1.149645e-02  1.060906e-01  -7.024575e-02  5.044590e-02  -1.344442e-03  -2.833597e-01  4.076215e-02  4.298871e-02  7.291498e-02  1.041746e-01  9.939726e-02  -3.146373e-02  -7.196371e-02  -7.382686e-02  -5.563953e-02  1.369134e-01  -1.728192e-01  3.600277e-02  1.051337e-01  2.683498e-03  5.036965e-02  -2.780964e-03  2.141591e-02  -7.594495e-02  5.801146e-02  -1.717346e-02  4.111248e-02  1.608888e-02  -9.719374e-02  -5.956053e-02  1.515265e-02  2.353206e-01  -9.520086e-02  -1.054000e-01  -1.094276e-01  -1.355348e-01  -6.814200e-02  -1.071238e-01  1.898476e-02  2.030416e-01  1.045159e-01  -6.638957e-02  1.461004e-01  1.830091e-02  -1.129113e-01  -7.702189e-02  -2.630934e-01  -3.272902e-02  4.577828e-02  1.171071e-01  5.339284e-02  -9.383197e-02  -1.863019e-01  1.728773e-01  1.177408e-01  1.131270e-01  -7.211202e-02  6.181274e-03  2.029425e-02  -2.309019e-02  4.531281e-02  1.727838e-01  7.066061e-02  -1.562693e-01  -1.022163e-01  -5.198714e-02  6.205085e-02  -3.850716e-02  2.339530e-01  1.147318e-01  1.579197e-01  1.743250e-02  -1.193183e-01  -2.340410e-02  1.051959e-02  -1.202404e-01  -7.078932e-03  3.771927e-02  -6.958521e-02  5.678438e-02  -2.027173e-02  -6.371626e-02  4.186626e-02  4.017826e-02  -1.160858e-01  -7.913453e-03  -1.872177e-01  9.433834e-02  1.513049e-02  1.558850e-01  -6.447494e-02  2.116740e-01  1.255195e-01  -4.718026e-02  -7.900984e-02  1.472678e-01  -1.262844e-01  -4.464159e-02  -1.420846e-01  -1.441501e-01  1.242750e-01  -1.078645e-01  -7.812760e-02  -7.322577e-02  -1.032259e-01  5.363384e-02  -1.057564e-01  -1.044551e-01  3.002403e-02  3.317874e-02  -4.436109e-02  -1.144993e-01  -1.216237e-01  -9.306847e-02  1.192134e-01  -1.527613e-01  1.481819e-01  -5.739747e-02  3.554060e-02  4.860825e-02  7.689244e-04  1.017722e-01  -7.655353e-02  -6.260997e-02  -1.996934e-01  -3.340339e-02  -8.859145e-02  -8.718624e-02  3.901474e-02  -9.621642e-02  -6.269413e-02  -2.278194e-02  1.040355e-01  6.837853e-02  -9.987457e-02  -7.364229e-02  -1.371775e-01  -2.713029e-02  1.027469e-01  2.488085e-02  4.085108e-02  -1.485888e-01  -6.865031e-02  2.525104e-01  -8.309498e-02  4.997698e-03  -1.797072e-01  2.676894e-01  -6.521553e-02  -2.506930e-02  7.220809e-02  5.514199e-02  -2.389085e-01  -3.738867e-02  2.399271e-01  4.460794e-02  -1.106870e-01  -8.326752e-02  -2.178580e-02  -1.516564e-01  1.610893e-01  -3.595719e-02  9.320164e-02  -1.316537e-01  3.582765e-02  2.010787e-01  7.198422e-02  -3.116792e-02  -2.905722e-01  1.109255e-01  1.002704e-01  -1.060582e-02  2.218720e-01  3.363760e-01  1.636766e-01  -2.513376e-02  -1.279556e-01  -1.253334e-01  1.107605e-01  -2.016859e-01  5.563176e-02  1.115529e-01  4.869668e-02  1.218161e-01  -3.718674e-01  -1.636545e-01  -4.652700e-02  -7.286305e-02  -2.623567e-02  -1.442248e-01  1.969599e-01  -1.110751e-01  -1.449298e-02  9.893675e-02  1.069597e-01  1.095532e-01  -1.433545e-01  1.256934e-01  2.962853e-02  -1.449310e-01  1.700345e-01  1.224511e-01  -1.842348e-02  9.354587e-02  1.485750e-02  -1.321643e-01  2.017740e-01  -1.486067e-01  -1.114461e-01  -1.199300e-01  -2.375413e-01  1.195091e-01  -3.319676e-02  -2.391503e-02  -8.212881e-03  -2.963142e-01  1.649007e-01  -1.347538e-02  -9.247985e-02  -1.598551e-01  1.744385e-03  6.057639e-02  3.717869e-03  -1.698897e-01  -1.156316e-01  -1.000131e-01  4.184500e-02  1.667059e-01  1.607314e-01  -1.056306e-01  -2.320599e-02  -3.010027e-02  -1.169397e-01  -1.500805e-01  -7.909220e-02  1.352856e-01  -9.147800e-02  9.838428e-02  7.091346e-02  1.846219e-01  2.472048e-02  -1.072265e-02  2.211303e-02  -1.939692e-01  3.864905e-02  1.760369e-01  -8.203534e-02  1.988723e-02  3.418041e-02  -6.359279e-02  1.143009e-01  -9.249597e-03  4.086592e-03  6.865082e-02  -5.121835e-02  1.062697e-01  7.044839e-02  1.139434e-01  1.633581e-01  1.136441e-01  2.985540e-02  3.708838e-02  3.234761e-03  -9.244373e-02  9.712787e-02  -7.507167e-02  2.585510e-02  1.734599e-01  1.140582e-01  1.151178e-01  1.427067e-01  -1.060094e-02  2.578961e-02  -3.334219e-02  2.347033e-01  -1.073160e-01  7.020730e-02  -4.545294e-02  -1.350951e-01  -1.890447e-01  -1.264655e-01  -1.292170e-01  1.126430e-01  -1.537655e-02  -1.074996e-01  1.493448e-01  7.944536e-02  3.889349e-02  1.959094e-01  -3.631386e-02  5.752005e-02  6.227256e-03  1.868988e-02  5.210551e-02  1.390218e-01  9.466229e-02  -2.747820e-02  3.000308e-02  2.653005e-01  -3.131396e-02  2.773517e-01  2.720824e-01  5.987093e-03  -2.545547e-01  2.984270e-02  1.135907e-01  1.050149e-01  -6.144529e-02  3.708780e-04  4.059963e-02  -7.035087e-02  -1.326233e-01  -1.740154e-01  4.145889e-02  -1.955258e-01  -7.418103e-02  3.477954e-02  6.286177e-02  -3.394162e-02  -5.518171e-02  3.469398e-02  -1.979205e-01  -1.362900e-02  4.258703e-02  4.194979e-02  -2.185202e-02  6.297258e-02  -2.572200e-02  2.703090e-02  -2.705462e-02  6.645556e-02  -5.450751e-02  -7.220756e-02  -5.491447e-02  3.582260e-02  -1.575272e-01  4.566836e-02  1.240583e-01  1.314829e-01  7.326738e-02  1.551836e-01  8.519005e-02  5.330685e-02  -1.372676e-01  7.747179e-02  -4.527950e-02  -2.027784e-01  1.418601e-01  1.281362e-01  -7.081367e-02  1.637486e-01  -1.154357e-01  -1.838506e-02  1.489605e-02  -1.273313e-02  -6.753812e-02  -1.452863e-02  -7.811993e-02  -5.166817e-03  3.192522e-02  1.410917e-02  1.118922e-01  -1.110872e-01  1.109593e-01  2.415129e-02  -9.826577e-02  7.797377e-02  7.805735e-02  2.783493e-01  1.011289e-01  9.097134e-02  -1.500499e-01  -2.822698e-02  -2.198636e-02  9.730297e-02  1.973982e-02  2.329879e-01  2.512743e-02  6.493813e-02  -6.092935e-02  1.436615e-01  -1.832254e-02  -7.400179e-02  1.237278e-02  9.312243e-02  1.840968e-01  -4.389212e-02  -1.079986e-01  4.068419e-02  -1.627383e-01  9.121248e-02  1.538185e-01  1.144347e-01  1.266862e-01  -2.424978e-01  -1.190298e-01  2.146004e-02  -1.818144e-01  -1.223943e-02  -1.702417e-01  9.295315e-02  1.058583e-01  -1.092791e-01  1.206267e-01  4.405692e-02  -2.608380e-01  -2.188436e-01  -4.825124e-02  1.406696e-01  -6.905825e-02  -1.357963e-01  -1.556660e-01  1.099535e-01  -1.267063e-01  -3.250524e-02  -2.666026e-01  -1.402750e-01  1.331155e-01  1.285884e-01  1.254805e-01  5.807139e-02  -1.187046e-01  -8.536074e-02  -1.664185e-01  3.049661e-01  1.045681e-01  -2.004568e-01  5.186784e-02  -7.249060e-02  -3.743480e-01  -1.101051e-01  1.461594e-01  -6.305323e-03  1.722927e-02  -2.155833e-01  9.258796e-02  -1.323400e-01  -1.907605e-01  -3.720130e-02  -3.825386e-02  2.014044e-01  -1.458149e-01  1.125888e-01  4.267895e-02  1.328180e-02  -9.949341e-02  4.171891e-02  1.832355e-02  -1.816611e-01  9.775479e-02  -1.926962e-01  -5.496063e-03  -5.594292e-02  1.980449e-02  1.283863e-01  4.807586e-03  1.360679e-01  -1.394621e-01  1.605081e-02  8.787075e-02  1.855964e-02  6.028589e-02  1.058211e-01  -5.996308e-02  2.023029e-01  2.085571e-02  -7.065242e-02  1.073238e-01  8.735451e-02  -1.292193e-01  -2.569674e-02  3.255253e-02  1.271870e-01  1.821885e-02  1.219155e-01  5.202861e-02  2.727170e-01  4.532267e-02  2.915386e-02  2.012163e-01  8.406324e-02  1.630143e-01  5.076357e-02  8.343651e-02  1.700277e-01  -1.019808e-01  -1.215484e-01  -1.521332e-02  -1.449416e-01  -3.524561e-02  4.767431e-02  8.347258e-02  1.369693e-02  -8.307602e-02  -1.714301e-01  -2.786933e-01  -1.444492e-01  -2.188964e-01  -8.428784e-02  2.294483e-01  5.939340e-02  1.526176e-01  -1.356097e-01  1.150113e-01  7.073516e-02  2.156536e-01  -1.270457e-01  2.389177e-01  5.763174e-02  -8.579906e-02  9.843366e-04  4.483141e-02  2.909024e-02  -1.993842e-02  -1.279913e-01  -7.190951e-02  -1.567571e-02  -4.822338e-02  8.116707e-03  -1.653595e-01  -1.575225e-01  -8.873716e-02  1.290667e-01  -1.242903e-02  -1.360936e-02  -1.492352e-01  5.112303e-02  2.129206e-01  -2.180674e-01  -8.338030e-02  -2.940544e-02  -3.011542e-02  -1.934832e-01  -8.414846e-02  1.925607e-02  -1.284778e-01  -7.664947e-02  1.310633e-01  2.037286e-01  7.383621e-02  -1.093751e-01  -1.663644e-02  -9.189215e-03  -4.886210e-02  6.792374e-02  5.059006e-02  -4.093844e-02  -6.933478e-02  -1.472718e-02  2.406581e-02  -3.479208e-02  -1.316981e-02  -6.409131e-02  -6.121370e-03  1.867304e-02  4.563550e-03  4.341771e-02  -2.742523e-03  9.397063e-02  -1.812294e-01  6.099874e-02  -2.787856e-02  1.916607e-02  -1.732141e-01  7.885930e-02  -2.239674e-02  6.903297e-02  5.261728e-02  -1.904906e-01  -1.013897e-01  9.659106e-02  4.994964e-04  1.737614e-02  1.023075e-01  1.301874e-01  6.015123e-02  1.473671e-02  5.304354e-02  1.510476e-01  7.813765e-02  1.887624e-02  6.699299e-02  1.119457e-02  -1.699170e-01  8.692923e-02  -2.023094e-01  2.184576e-02  1.204464e-01  -1.614191e-01  -1.119521e-01  3.694113e-02  -6.638982e-02  1.080419e-01  -1.039779e-01  -1.288527e-01  3.248974e-02  -2.411283e-02  3.908791e-02  -1.930137e-01  2.556621e-02  6.284263e-02  -1.019542e-01  -7.581096e-02  1.144365e-01  1.183178e-01  5.901229e-03  6.911366e-02  -4.363177e-02  5.933695e-02  5.814572e-02  5.512847e-03  -6.112526e-03  -1.264541e-01  1.527554e-01  9.872294e-03  1.201468e-01  6.134313e-02  -1.119643e-01  -5.191111e-02  8.594701e-02  -6.107957e-02  -1.792201e-01  -1.773219e-02  2.844934e-02  1.232305e-01  1.601477e-01  9.062550e-02  7.525004e-02  1.439567e-01  -3.083262e-03  2.579037e-02  -1.932946e-02  3.855752e-02  -7.958331e-02  1.683311e-02  -7.317488e-03  8.273898e-02  -1.308218e-01  -8.294623e-02  2.350151e-02  1.560289e-02  -3.754923e-02  -8.041584e-02  -1.178096e-01  1.782819e-01  -1.283654e-01  2.411160e-01  1.959345e-01  -9.156848e-02  -8.542159e-04  -1.409376e-01  -2.947672e-01  1.311593e-01  1.102774e-01  -7.185443e-02  -1.182307e-01  1.419896e-01  2.487715e-02  -9.191997e-02  5.963043e-02  1.660354e-01  -1.804446e-02  1.304660e-01  1.317345e-01  9.892210e-02  -4.793311e-02  -1.408713e-01  -2.380486e-01  -2.165563e-02  -6.628130e-02  -8.303966e-02  -2.992113e-01  -5.713373e-02  7.530376e-03  9.697577e-02  -5.868867e-02  -7.107793e-02  -2.017705e-01  3.444012e-02  -1.027051e-01  2.133902e-02  -1.011266e-01  -5.676439e-02  -2.486645e-02  -1.543008e-01  -1.959287e-01  3.190738e-02  2.078329e-01  1.040219e-02  -1.795708e-01  -1.286318e-01  -2.131215e-02  -4.469655e-03  1.160218e-01  2.890541e-03  -2.138308e-02  1.192996e-01  -1.018128e-03  4.776492e-02  2.108192e-02  3.799874e-02  1.400631e-01  -2.913400e-01  1.857610e-01  -2.027066e-01  1.349253e-02  -1.054074e-01  9.945779e-02  -3.759058e-02  -8.712329e-02  4.439500e-02  8.333520e-02  -1.791737e-01  6.671220e-02  -1.144216e-01  -6.459287e-02  1.109477e-01  -9.189716e-02  -9.253763e-02  1.563898e-01  -3.938727e-02  -6.243790e-02  -2.073083e-02  2.147263e-01  -1.239729e-01  3.666026e-03  1.510042e-01  2.373183e-01  -1.767161e-01  4.756815e-02  2.613977e-01  1.681644e-02  3.184283e-01  1.009891e-01  2.511356e-01  -7.399923e-02  2.291588e-01  4.993427e-02  -1.283283e-03  1.264700e-02  -1.255608e-01  2.057346e-02  -2.250867e-01  -7.361022e-02  9.250385e-02  -2.002765e-02  -8.674417e-02  3.356245e-03  -4.095120e-02  -1.880668e-01  -1.943241e-01  -2.038486e-01  -4.308068e-02  -4.426664e-02  -1.346235e-01  1.856423e-01  1.170593e-01  -1.502118e-01  -6.386156e-03  -1.589183e-01  2.070152e-01  1.036891e-01  -3.289694e-02  -2.677735e-02  -8.095825e-02  2.696012e-02  5.073821e-02  8.410862e-02  -1.151769e-01  5.373941e-02  -2.509338e-01  -1.296176e-01  -2.111620e-02  -1.385074e-01  -5.527279e-02  4.575789e-02  9.044695e-02  3.392747e-02  6.878275e-03  -8.026250e-02  1.225328e-01  -2.390950e-02  -1.255488e-01  -1.128998e-02  -5.099777e-03  5.295680e-02  -7.504463e-02  -3.178421e-02  1.395677e-01  -2.671633e-01  -3.827263e-03  -6.360825e-02  -4.154389e-02  -1.271490e-01  1.044796e-01  -6.890913e-02  3.905248e-02  -2.159189e-01  -1.712954e-01  1.335829e-02  1.206872e-01  1.017375e-02  1.143597e-01  4.873126e-02  2.295097e-02  -1.994836e-02  3.144750e-02  1.477938e-02  -2.076324e-02  6.664637e-02  -8.283516e-02  1.672840e-02  -4.150363e-02  1.625173e-01  8.148361e-02  -9.995189e-02  -5.518050e-02  -6.204177e-02  1.752312e-01  -2.812989e-01  1.826169e-02  4.671539e-02  1.636153e-01  -2.246305e-02  -1.517870e-01  7.728505e-02  9.006689e-02  1.129488e-01  -5.055012e-03  -1.284969e-02  5.055517e-02  -1.713170e-02  -1.205220e-01  1.302964e-01  1.024726e-01  -9.320599e-02  1.484756e-02  -1.202016e-02  5.343294e-02  9.437384e-02  5.577056e-02  -6.664626e-02  9.676726e-02  2.343571e-02  -5.153533e-02  7.096508e-02  1.453139e-01  -1.892313e-01  1.308542e-02  -1.774122e-01  -1.251497e-01  -8.677052e-02  -1.043776e-01  -2.744596e-02  -2.425517e-02  6.975866e-03  6.795962e-02  9.045323e-02  -1.734852e-01  1.256897e-01  9.477599e-03  1.372514e-01  -5.075798e-03  -2.101309e-02  -5.268739e-02  -1.033488e-01  -1.429342e-01  -1.221322e-01  1.719588e-01  1.974499e-02  -8.541394e-02  1.426182e-01  -1.134111e-01  1.281321e-01  -6.052273e-02  -7.654970e-02  -8.148445e-02  6.978530e-02  -1.943561e-01  1.016922e-01  -8.121528e-02  -7.544560e-03  9.062666e-02  1.241212e-02  9.204736e-02  -9.799665e-02  -1.065663e-01  1.832122e-01  -1.540210e-02  1.041498e-01  -6.924699e-02  8.612829e-04  -1.797651e-01  1.633337e-01  1.564917e-01  9.279796e-02  4.194026e-02  -2.025814e-02  9.129917e-02  -2.906555e-02  1.222792e-02  -1.052480e-02  -4.417847e-03  -3.408222e-02  -2.266776e-02  -1.845529e-01  1.308587e-01  2.063131e-01  5.402028e-02  -1.183842e-01  1.201722e-01  -2.397427e-02  -2.389354e-02  5.635781e-03  -2.560455e-02  1.212707e-01  -6.970112e-02  2.777803e-02  8.390990e-02  2.998426e-02  -3.013120e-01  6.900860e-02  -2.466990e-02  1.157978e-01  -3.683395e-02  1.570852e-01  7.869190e-02  1.367382e-01  3.361932e-01  1.109579e-01  1.325065e-01  6.242577e-02  2.241368e-02  2.372958e-01  1.876277e-02  1.811289e-02  -2.265849e-01  -1.226000e-01  -9.392953e-02  7.628376e-02  3.151084e-01  1.099952e-01  3.578233e-02  -5.381995e-02  4.380855e-02  5.162916e-02  1.130539e-01  -5.656308e-02  -1.209107e-02  -9.947798e-02  -1.517001e-01  -4.429432e-02  -5.935921e-02  1.220335e-01  -2.264405e-02  -2.583947e-01  1.182028e-01  -6.136762e-02  -1.207349e-02  -2.833148e-02  8.524978e-02  2.294168e-02  2.638375e-01  -1.918055e-01  -2.358884e-02  1.724884e-03  -1.007219e-01  1.291097e-01  -5.969664e-02  1.282370e-01  -1.396109e-01  6.141504e-02  -6.476666e-02  -1.100767e-01  -8.433840e-02  -1.477043e-01  6.478552e-02  8.568425e-02  3.375556e-02  -1.283607e-01  -4.984407e-02  1.492865e-01  7.807546e-02  -2.383924e-01  -4.406279e-02  -5.274452e-02  -7.054415e-02  9.142519e-02  -2.878059e-02  -7.760228e-02  -1.111526e-01  -1.649434e-01  -1.754296e-01  -6.931951e-02  -1.461763e-02  -2.127198e-02  3.184071e-02  -5.100211e-02  2.012065e-02  8.708832e-02  -1.835511e-01  -5.751817e-03  7.243524e-03  -5.123153e-02  1.503686e-01  7.911143e-02  -1.963232e-02  1.259467e-01  1.156615e-01  2.340280e-01  -1.021594e-01  -2.083145e-01  -5.861238e-02  2.764496e-02  7.346475e-02  2.809133e-02  -1.683683e-01  -1.112331e-02  2.322760e-01  -7.856510e-02  -1.118862e-01  2.526441e-02  -3.118336e-01  -1.147751e-01  -1.703099e-01  1.428950e-01  5.158422e-02  8.616545e-02  8.497882e-02  1.491954e-01  4.585278e-02  1.724255e-01  -2.053546e-02  -1.439299e-01  1.018624e-01  2.859735e-01  2.166383e-02  5.834850e-02  -2.578607e-01  -4.493736e-02  -7.420065e-02  -8.373230e-02  -6.428819e-03  9.512091e-02  -5.677436e-02  2.101316e-02  -6.360419e-02  7.602466e-02  -2.769983e-02  7.246591e-02  2.052043e-01  1.357382e-01  1.673690e-01  -1.048669e-01  1.185525e-01  -6.447237e-02  -1.038352e-01  7.287754e-03  -1.064768e-01  -5.145405e-02  1.084253e-02  1.395216e-01  1.399208e-01  1.605852e-01  -1.231440e-01  1.036350e-01  -1.386162e-01  -8.291463e-02  1.672983e-01  1.441559e-02  4.939142e-02  -1.343531e-01  -1.806070e-01  1.272251e-01  9.230964e-02  -1.209275e-01  -1.812983e-01  -9.372660e-02  4.061048e-02  9.209636e-02  -2.467275e-01  -1.507425e-01  -3.771056e-02  -1.685207e-01  4.979518e-03  8.256140e-02  6.335590e-02  -1.874221e-01  8.113324e-02  4.329546e-02  -2.194575e-01  4.755830e-02  -6.013343e-02  -7.045168e-03  5.204372e-02  1.365964e-01  2.183546e-01  6.447969e-02  4.369134e-02  5.333222e-02  9.178138e-02  1.792353e-02  1.535847e-01  1.333495e-02  1.012437e-01  -8.767633e-02  1.094403e-01  -4.820982e-02  3.003802e-02  -2.122492e-01  6.850081e-02  -7.531735e-02  -1.499796e-01  1.046916e-01  1.171096e-02  1.631042e-01  3.851552e-02  1.164462e-01  -8.079181e-02  4.416410e-02  1.860498e-01  -8.857781e-02  5.668196e-02  8.497651e-02  -8.545124e-02  1.019622e-02  2.119588e-01  -1.658985e-01  -1.010271e-01  4.054368e-02  -1.367466e-01  -1.600041e-01  -4.702820e-02  6.044618e-02  9.180529e-02  -3.710516e-02  -4.045559e-02  -1.001733e-03  -1.245099e-02  2.652179e-02  -8.508535e-03  1.365901e-01  4.455818e-02  1.554889e-01  -1.028911e-01  1.004360e-01  1.245492e-01  1.219418e-01  -2.507106e-02  -1.446254e-01  1.504566e-01  8.707867e-02  4.347685e-02  -1.588373e-01  3.592676e-02  1.708860e-01  -4.962560e-02  -8.318078e-02  -1.458656e-01  -2.082900e-01  1.384050e-01  6.697799e-02  1.841031e-01  1.716605e-01  1.912675e-02  4.786357e-02  1.447940e-01  1.873080e-01  7.988111e-02  6.722921e-02  7.219199e-02  1.052500e-01  1.365456e-02  2.889157e-01  5.573498e-02  -2.496323e-03  -1.666256e-01  -2.530154e-02  5.611748e-02  1.004075e-01  8.002710e-02  1.720413e-01  -9.356578e-02  2.346981e-01  1.801010e-02  -1.524858e-01  5.931256e-02  8.379797e-02  1.784632e-01  2.248423e-01  -7.703906e-02  2.487323e-02  -2.610649e-01  1.192930e-02  2.883985e-02  2.788259e-02  2.770904e-01  4.109854e-01  1.351643e-01  -9.088286e-02  1.769774e-01  9.539066e-02  -6.492449e-02  -2.356598e-01  1.006479e-01  -7.783525e-02  -7.447828e-02  -1.048599e-01  -1.606818e-01  7.902872e-02  -1.424364e-02  -2.486490e-01  5.075470e-02  -2.088147e-01  6.259576e-02  1.791978e-02  1.799824e-01  -1.224382e-01  -1.153292e-02  -1.248470e-01  -9.024686e-02  -6.560643e-02  -9.843637e-02  -4.606422e-02  1.315494e-01  1.895687e-01  -6.719063e-02  -7.520245e-03  -7.119895e-03  -6.955864e-02  -9.974331e-02  -7.661361e-02  -1.353043e-01  1.322587e-01  -9.277169e-02  -2.894286e-02  1.628200e-01  1.724601e-01  -6.354677e-02  -1.617875e-01  1.387793e-01  9.380489e-02  -3.204782e-01  1.136398e-01  -3.283572e-01  7.968678e-02  -2.602476e-01  -1.446981e-01  -8.960751e-02  -1.508313e-01  8.934186e-02  -1.228206e-01  -1.011150e-01  5.882901e-02  1.200209e-01  8.542936e-02  -9.481741e-02  1.226288e-01  -5.823686e-02  7.626448e-02  -5.080529e-02  1.835503e-01  -1.200097e-01  2.764042e-01  1.245684e-01  1.285366e-01  7.154555e-02  -4.701190e-01  -1.016721e-01  -1.471591e-02  1.272048e-01  -1.113953e-01  -6.007985e-02  5.584100e-02  -2.483205e-02  -1.313868e-01  8.878507e-02  -7.870929e-02  -1.345962e-01  6.681678e-02  1.467791e-01  3.779301e-02  -2.025542e-01  -2.015423e-01  1.198340e-01  8.060888e-02  2.202705e-01  2.522152e-02  1.103156e-01  2.299072e-01  -1.311105e-01  -2.335441e-01  1.988149e-01  1.343922e-01  -4.432208e-02  -5.741084e-02  -9.210637e-02  1.251605e-01  -1.331348e-01  4.505905e-02  -6.859751e-02  -3.026337e-01  2.833980e-02  7.493334e-02  2.324741e-01  -4.446278e-02  -2.535284e-01  -5.679208e-03  -8.085106e-02  4.171854e-02  1.394421e-01  -5.065047e-02  -2.016460e-01  -1.145647e-01  -2.962989e-04  1.173331e-02  1.542857e-01  -1.868863e-01  -4.311344e-03  -1.535572e-02  2.485358e-01  4.019732e-02  -1.539823e-01  -1.002290e-01  -2.568583e-01  -7.267880e-02  -1.409075e-01  2.926807e-01  -3.228629e-02  1.902810e-01  1.158113e-02  1.760809e-01  -4.691364e-02  -4.481146e-02  -8.326470e-03  -1.383821e-02  3.468080e-01  6.125541e-02  -5.540384e-02  -5.600701e-02  9.917595e-02  2.048246e-02  -2.045562e-01  5.861826e-02  4.910603e-02  2.326884e-01  -5.366762e-03  -5.170516e-02  2.345531e-02  9.734842e-02  8.250333e-02  -1.008503e-01  -7.176253e-02  -8.597117e-02  2.598326e-01  6.974320e-03  -8.156435e-02  8.423816e-02  -2.018964e-02  9.182709e-02  3.269234e-02  1.434309e-01  -6.988730e-02  -8.548338e-02  2.406951e-02  -1.374983e-01  1.483706e-01  2.410594e-01  5.760292e-02  4.698143e-02  7.870109e-02  -1.416929e-01  2.014553e-01  1.337619e-01  -1.087522e-01  9.424899e-02  2.272650e-02  1.710493e-02  -1.876572e-01  2.535223e-02  -1.279848e-01  1.261736e-01  -1.618320e-01  6.005138e-02  -8.572792e-02  3.954183e-03  7.113420e-02  8.146106e-02  1.215558e-02  1.619633e-02  -2.396733e-01  -1.784369e-01  -2.472928e-01  -8.909889e-02  3.040134e-02  1.112693e-01  7.061221e-02  1.036027e-01  -2.131747e-02  9.365968e-02  -4.989105e-02  5.225792e-02  -1.010550e-01  8.718328e-02  4.175616e-02  -4.003251e-02  -9.279916e-02  5.698806e-02  -3.664706e-02  5.416667e-03  -7.012248e-02  7.691852e-02  2.370138e-02  2.205652e-01  1.130103e-01  1.369990e-01  -2.764363e-02  -2.500023e-02  -1.080086e-01  -2.349158e-01  -2.729733e-02  4.456591e-02  -1.903382e-01  -1.628456e-01  7.564139e-02  -1.156857e-01  -8.469456e-02  7.557919e-02  1.960375e-02  4.515712e-02  6.954402e-02  -4.685766e-03  -2.790543e-02  -9.353810e-02  -1.736728e-01  1.204616e-01  4.051664e-02  9.771713e-02  -9.992880e-02  -3.358363e-02  -1.010669e-01  9.958643e-02  2.159151e-02  6.948230e-03  4.900219e-02  -3.832824e-02  3.206548e-02  -2.278143e-01  7.082776e-02  1.099262e-02  -8.034088e-02  4.676870e-02  -8.981530e-02  -9.571125e-02  1.339303e-01  4.163776e-02  1.535920e-01  4.515139e-02  -1.460185e-01  2.227677e-01  -2.255665e-02  -9.326717e-03  5.220544e-02  -8.565591e-02  5.716988e-02  7.436891e-02  -9.304220e-02  -4.902621e-02  -2.154613e-02  -2.703792e-02  -1.746921e-01  -2.859312e-02  -9.401717e-02  8.105279e-02  4.130194e-02  -4.400579e-02  -4.671128e-04  5.974182e-02  1.534757e-01  1.014656e-01  1.031037e-01  -7.822289e-03  -1.240105e-01  1.209377e-01  -1.320064e-02  1.627321e-01  -8.780600e-02  2.421076e-01  1.278300e-01  1.734925e-01  5.520577e-02  -3.423590e-02  -1.043441e-02  2.935139e-02  -6.322065e-02  -1.805730e-02  3.137544e-03  -2.785681e-03  1.131660e-01  8.912615e-03  1.094855e-01  -5.165527e-02  1.488407e-01  -1.367488e-01  -5.240004e-03  9.032761e-02  1.217810e-01  2.366671e-02  -1.547047e-01  6.339103e-03  9.361635e-02  -2.108633e-02  -4.411375e-02  -4.031755e-02  1.297672e-01  -6.749306e-02  -3.324565e-02  1.457636e-01  -2.497447e-02  1.089097e-01  1.284650e-01  -8.800388e-02  -5.046935e-02  -2.463626e-02  -1.356613e-01  7.878311e-02  9.027113e-02  -9.390721e-02  -4.534261e-02  8.325836e-02  -1.465301e-01  2.785456e-01  -1.043675e-01  -3.372717e-03  -6.662506e-02  -6.958863e-02  7.439115e-02  -1.738507e-02  4.475162e-02  -5.874657e-03  -1.280559e-01  -9.509233e-02  -6.906331e-02  -8.162396e-02  -1.692821e-01  -3.315093e-02  -6.756758e-02  6.123906e-03  5.966401e-02  -6.296276e-02  6.114583e-02  -8.333775e-02  2.897322e-02  1.790072e-02  -1.945183e-01  5.501373e-02  2.602641e-02  -2.897705e-02  4.908374e-02  -1.423283e-01  -1.947137e-02  -4.544913e-02  4.709301e-03  2.765409e-02  -8.043072e-02  5.511203e-02  -1.178670e-02  9.640180e-03  -2.221951e-01  -4.558801e-02  7.720871e-02  7.509076e-02  -3.476732e-02  2.573442e-02  -8.953170e-02  -5.534859e-02  -1.161803e-01  2.222574e-01  -7.993508e-02  1.025187e-01  -3.202183e-01  -1.587448e-02  7.534071e-02  1.333152e-01  -1.084447e-01  3.446368e-02  -3.368611e-02  1.030917e-01  7.511251e-02  -2.045334e-01  -9.007909e-02  -1.765909e-02  2.597841e-01  2.388372e-01  -8.635242e-02  1.981130e-01  -8.525421e-02  -4.290882e-02  1.108177e-01  -1.861208e-01  -8.411209e-02  4.571117e-02  2.461032e-01  8.329500e-02  2.099014e-02  -9.189993e-02  4.776223e-02  4.539626e-02  -7.700116e-02  -1.063592e-01  -1.398998e-01  -6.119937e-02  -1.794626e-01  3.108953e-02  1.977571e-02  7.756942e-02  -8.245466e-02  -4.795492e-02  -8.806658e-02  -1.731697e-02  -9.609812e-02  2.439575e-01  -1.772814e-01  2.033925e-01  1.220225e-01  -2.971636e-03  -3.323408e-01  1.127460e-02  1.252981e-01  4.532412e-02  7.464716e-03  7.505195e-02  -1.731708e-01  -2.293181e-01  1.053438e-01  -6.057919e-02  4.069046e-02  4.594524e-02  -9.983247e-02  5.356260e-02  4.963777e-02  -1.159957e-01  3.592637e-02  -1.546288e-01  -1.282234e-01  1.303864e-01  5.862030e-02  -1.212734e-01  -4.065539e-02  -1.784568e-01  -6.610173e-02  -2.447404e-02  -1.372835e-01  4.832360e-04  -9.329695e-03  -8.938939e-02  -7.933873e-02  1.218490e-02  -9.124497e-02  1.079644e-01  -1.285051e-01  -1.628411e-01  -1.435503e-02  1.591463e-01  -2.042597e-01  -2.366929e-01  9.082121e-03  -8.810689e-02  -8.782477e-02  1.861165e-01  -6.477084e-02  6.890734e-03  6.391794e-02  -1.536841e-01  2.788926e-01  1.360931e-01  -9.189898e-02  7.574239e-02  8.854764e-02  1.619922e-01  -7.091298e-02  1.986477e-01  2.502746e-02  -1.853001e-02  -1.497082e-01  3.478505e-01  -1.055032e-01  -5.621975e-02  -1.589305e-01  8.556643e-03  2.102305e-01  -5.899711e-02  -8.121251e-02  6.052363e-02  3.087606e-02  6.722715e-02  1.039657e-02  1.237018e-01  2.746157e-02  -1.427249e-01  2.070188e-01  -2.776069e-03  -3.807369e-02  2.427143e-01  -2.309190e-01  1.298743e-01  -4.715637e-02  -2.514004e-01  1.582885e-01  2.450374e-01  1.638774e-01  -2.562825e-01  1.357075e-01  -4.815726e-02  1.336758e-01  -8.723459e-02  1.620247e-01  -7.245179e-02  -9.325480e-02  -9.360611e-02  -2.709033e-02  -7.608040e-02  -3.208808e-02  -7.327735e-02  -1.145553e-01  -8.303981e-02  1.850023e-01  5.894938e-02  2.041319e-01  -4.811968e-02  1.911991e-01  1.516995e-01  8.977246e-02  -7.328316e-02  -1.932874e-01  3.843586e-02  2.247878e-01  2.257798e-01  -5.027123e-02  1.744437e-01  2.525946e-02  -3.024500e-02  2.120706e-02  -1.339125e-01  -5.152498e-02  -1.185629e-01  6.081823e-02  -1.300793e-01  6.959763e-02  -3.236521e-02  6.315701e-02  -2.522979e-01  2.207386e-01  1.182976e-01  4.786748e-02  2.331106e-02  -1.704651e-01  1.039337e-01  -6.048052e-02  -2.786634e-02  -6.959084e-02  -1.052540e-01  2.247372e-01  -8.236757e-02  7.243802e-02  8.800942e-02  1.025871e-01  6.651362e-02  -8.212343e-02  2.590065e-02  3.636606e-02  -9.384277e-02  3.301850e-02  3.738855e-02  2.040482e-01  2.362808e-01  -1.545501e-02  2.050434e-01  1.229543e-01  -1.704854e-01  2.578182e-02  1.911281e-01  -1.106157e-01  3.308934e-02  1.507181e-01  -3.437226e-02  7.820041e-02  3.210003e-02  2.715762e-02  -9.547040e-02  -2.339544e-02  1.562007e-01  -1.657335e-01  -1.909831e-01  1.462230e-02  -5.433343e-02  6.134425e-02  1.066243e-02  -1.049677e-01  -1.522795e-01  -4.824835e-02  -1.968357e-01  2.880740e-01  4.416124e-03  -4.453956e-02  4.974683e-02  8.119095e-02  1.296780e-01  2.605474e-01  1.007102e-01  1.658984e-01  5.260604e-02  -4.463919e-02  2.502163e-01  6.664420e-02  -4.574627e-02  -1.584317e-01  -1.135281e-01  -8.415577e-02  3.156654e-02  1.509845e-01  -3.165319e-02  1.660345e-01  5.959513e-02  2.117141e-01  7.413113e-03  1.965113e-01  -2.463451e-02  7.731969e-02  1.284711e-01  1.802229e-01  4.227815e-03  -2.119321e-01  -4.041339e-02  9.765363e-02  -7.196734e-02  2.150773e-01  2.602888e-01  9.630612e-02  5.595407e-02  1.576602e-01  1.655097e-01  1.041831e-01  -6.441042e-02  1.266711e-01  -7.119019e-02  -1.895807e-01  -9.403867e-02  1.262415e-01  2.448760e-01  1.220020e-02  -1.998609e-01  -3.739221e-02  -2.177047e-01  -4.340948e-03  7.918853e-04  2.861560e-02  3.635338e-02  1.029970e-01  -5.142497e-02  5.860160e-02  -7.459936e-02  -1.011728e-01  1.549804e-01  -2.069948e-01  1.079325e-01  -5.333178e-02  1.837119e-01  1.517678e-01  5.747164e-02  7.231162e-02  -1.718581e-02  -1.463280e-01  -8.538941e-02  3.455854e-02  5.335999e-02  -5.528447e-02  6.249285e-02  -8.478019e-02  -3.072960e-01  7.919054e-02  7.122919e-03  -7.131298e-02  -1.128538e-01  -2.969813e-01  1.336254e-02  -2.389157e-01  9.367201e-02  -2.262004e-01  -2.145667e-01  -2.607739e-02  2.414974e-01  -1.995822e-01  4.040259e-02  -4.038188e-02  1.150204e-01  1.231196e-01  1.559559e-01  2.543830e-02  1.712071e-01  4.666397e-02  2.383348e-01  -1.961369e-02  1.135821e-01  1.525336e-01  2.025741e-01  5.171180e-02  -2.267086e-01  -1.170142e-01  2.279438e-02  -1.092699e-01  -1.302161e-02  5.373458e-02  1.217337e-01  -1.456413e-02  -1.499232e-01  -6.392304e-02  -8.270354e-02  1.197659e-01  -8.688145e-03  -1.130218e-01  1.360821e-01  -1.402545e-01  4.919885e-02  1.587868e-02  9.173727e-02  -7.149632e-02  -2.430534e-03  -4.137544e-02  -1.775798e-01  4.494023e-02  1.590196e-01  3.218472e-02  -3.622838e-02  2.782643e-02  3.975496e-02  -3.499627e-02  5.583778e-02  -1.116311e-01  1.173389e-01  1.688518e-01  2.649062e-01  1.253349e-01  6.666163e-02  -4.311066e-02  -3.754400e-02  6.123828e-02  4.251322e-02  8.627372e-03  -1.271171e-02  -1.270056e-01  8.179153e-02  3.118993e-02  -1.335837e-01  -1.514341e-01  1.699128e-01  -2.676382e-01  9.501007e-02  -7.842189e-02  2.883082e-02  -1.507119e-01  -7.278654e-02  1.103399e-01  -8.724903e-02  2.816983e-01  2.878118e-01  2.685970e-01  -1.228004e-02  -9.847318e-02  7.738157e-02  -1.271006e-01  -1.092070e-01  1.130898e-01  -7.482699e-02  -8.187964e-02  -6.245482e-02  -1.806589e-01  -1.138366e-01  -6.138706e-03  -7.641596e-02  -1.359947e-03  1.569484e-01  -8.987851e-03  9.082524e-02  2.196326e-01  -1.254310e-01  -1.058270e-01  -1.036802e-02  -2.192950e-01  -1.078307e-02  -1.028481e-01  7.139783e-02  9.002291e-02  7.525182e-02  -3.615948e-02  1.161459e-02  -8.812176e-02  1.651498e-01  -2.440475e-01  -9.774652e-02  -8.475720e-02  -4.973584e-02  -1.133017e-02  -6.177156e-02  -1.285649e-01  -2.383937e-02  1.798129e-02  1.087124e-01  4.896429e-02  8.157072e-02  -1.249265e-01  2.519370e-02  -6.400160e-02  -8.897210e-02  -4.803870e-02  -1.072251e-01  -1.647794e-01  1.795824e-01  1.157715e-01  -4.271710e-02  -4.469040e-02  1.515701e-02  -9.463642e-02  5.494897e-02  -6.348965e-02  6.491232e-02  1.594578e-01  1.308020e-02  1.903018e-01  6.496879e-02  2.654923e-01  1.261576e-01  1.561899e-01  7.169402e-02  7.151724e-02  -3.028252e-02  1.476436e-01  -2.875580e-03  9.707940e-02  -1.106669e-02  -2.437857e-03  -4.409157e-02  -2.234393e-02  4.572579e-03  -1.478156e-01  1.033125e-01  -1.833477e-01  -1.070238e-01  1.823427e-01  -2.437623e-01  6.744930e-02  -2.699580e-02  -4.992002e-02  6.750251e-02  7.114626e-02  9.285104e-02  7.751645e-02  -1.782526e-01  -4.059496e-02  -8.183227e-02  -9.388346e-02  1.543463e-01  1.096653e-01  -1.924756e-01  2.179781e-02  -1.017214e-01  -3.563463e-02  -3.300856e-02  1.704200e-02  7.669420e-02  -1.368324e-01  9.353438e-02  1.948669e-01  -8.636069e-02  -2.395582e-01  -1.043169e-01  -8.551696e-02  -4.158102e-02  9.020255e-03  2.950006e-02  -2.781380e-01  -1.393986e-01  1.396682e-01  1.875323e-01  9.544688e-02  -8.919581e-02  1.010280e-01  -4.094430e-02  -7.735262e-02  -1.302645e-01  -2.838106e-02  7.024491e-02  -1.655885e-01  -2.417638e-01  -3.687446e-03  -5.003295e-02  -5.270248e-02  1.754254e-02  4.724292e-02  9.636813e-02  2.163106e-02  6.701745e-03  -1.385193e-01  -5.644579e-02  2.001122e-01  -7.766129e-02  2.219542e-02  -1.872070e-03  -1.179463e-02  6.365219e-02  -1.172551e-01  -6.225290e-02  -2.502053e-01  -8.170466e-03  -8.052088e-02  8.660293e-02  1.534012e-01  -3.898807e-03  -6.705177e-02  -1.140861e-01  -5.824552e-02  1.475534e-01  -6.374314e-02  -6.687570e-02  -8.348394e-02  -1.003912e-01  -1.061490e-01  -8.717776e-03  -9.919588e-03  -2.783985e-02  -6.773023e-02  -5.253926e-02  9.452969e-03  5.184867e-02  1.480336e-01  2.718852e-02  1.371524e-02  -7.903510e-02  2.194101e-01  -3.811606e-02  1.314825e-01  5.101179e-02  -5.657567e-02  -1.029624e-01  -1.021596e-01  1.386018e-01  -1.194717e-02  -1.582856e-01  -2.611832e-02  -1.154998e-01  -9.057812e-02  -4.722004e-02  -6.164011e-03  8.772488e-03  -1.989555e-02  -8.330493e-02  -5.345733e-02  7.914982e-02  2.790369e-03  -1.519931e-02  -9.126822e-02  -3.156502e-02  5.676488e-02  1.598224e-01  -6.402533e-02  1.115530e-01  8.540540e-02  4.127791e-02  1.058713e-01  1.528761e-01  -1.462823e-01  -2.674951e-02  5.527001e-02  3.844293e-02  1.739122e-01  1.157314e-01  1.123239e-01  7.375133e-02  -1.809219e-01  1.571675e-02  2.369183e-02  -6.146784e-03  2.964048e-03  -7.213704e-02  -1.365403e-02  -6.149150e-02  4.492428e-03  -3.199480e-02  -5.272292e-02  -9.589816e-02  4.167335e-02  1.617584e-01  8.630183e-02  4.905712e-02  -2.030462e-01  -2.784600e-02  -2.832991e-02  1.064262e-02  1.001495e-01  1.006705e-01  5.551567e-02  3.518971e-02  -3.301600e-02  1.091611e-01  1.227777e-02  -1.072284e-02  -1.205127e-01  1.649849e-01  1.520104e-02  2.027091e-02  7.052069e-02  5.700109e-02  9.148017e-02  1.911337e-02  7.306071e-02  1.265244e-01  3.779542e-02  -7.378059e-03  -1.195682e-01  6.802918e-02  2.713114e-01  1.833225e-01  -2.875103e-02  -2.435216e-01  7.547545e-02  1.567741e-02  1.252366e-01  -2.445740e-01  1.312036e-01  8.544661e-02  2.158021e-02  -4.207599e-02  -1.496756e-01  7.807276e-02  -8.124935e-02  -1.348542e-01  2.346697e-02  5.875156e-02  1.817765e-01  2.005709e-02  -7.246807e-02  1.904827e-02  1.255422e-01  -7.974895e-03  6.761838e-02  -5.671181e-02  -1.832072e-01  -1.235542e-01  -7.790315e-03  1.354139e-01  -1.333094e-02  -5.913195e-03  1.775209e-01  -6.613433e-02  2.204685e-03  -1.194648e-01  -2.428699e-02  1.178639e-01  1.663303e-02  8.147196e-02  -7.760559e-02  -6.330316e-02  8.000427e-02  -2.879798e-01  6.028259e-02  4.826315e-02  -2.587054e-04  5.258664e-02  -2.137508e-01  1.909900e-01  5.969352e-02  3.776506e-02  -1.372079e-01  2.267438e-02  -9.924558e-02  1.554665e-01  1.662744e-01  -8.075205e-03  1.028678e-01  -3.232909e-02  -7.074946e-02  -8.489846e-03  -7.153519e-02  1.364945e-01  6.762530e-02  8.927912e-02  -1.526311e-01  -7.436543e-03  -1.075486e-01  2.533196e-02  -4.221487e-02  -2.482789e-01  7.648305e-02  1.083893e-01  -8.799066e-02  -8.598567e-02  -6.035873e-02  -1.543470e-01  -1.071528e-01  1.165659e-01  -8.900501e-02  7.199785e-03  1.098005e-01  -3.878776e-02  -7.186086e-02  4.751772e-02  -3.089100e-02  7.420293e-02  9.014369e-02  6.222917e-02  1.485055e-01  1.192402e-01  -2.298663e-02  -4.924084e-02  -2.555650e-01  -2.275490e-02  6.185362e-02  4.775836e-02  -1.000644e-02  -2.264897e-01  -1.109440e-01  -4.027868e-02  2.656155e-02  -1.583427e-01  1.399724e-01  -5.629984e-02  5.779661e-03  9.948484e-02  1.243077e-01  -6.016184e-02  -1.758769e-01  -3.954269e-02  -9.096234e-02  -1.226497e-01  -1.806580e-02  -4.496869e-02  -1.491967e-02  -1.614710e-01  -8.946384e-02  -4.042544e-02  -6.389096e-03  -8.782973e-02  -3.091094e-02  -9.440681e-03  3.372142e-02  4.946964e-02  -1.897394e-01  2.133245e-01  -2.943729e-01  -3.079807e-01  -1.049824e-01  1.545435e-01  7.021615e-02  3.464020e-03  -1.366683e-02  2.800346e-01  -5.030039e-02  -5.051503e-02  -4.753572e-02  1.859236e-01  1.664421e-01  8.551495e-02  -1.596962e-01  -4.805036e-02  -8.260834e-02  -1.162258e-01  -1.483279e-01  -2.433718e-01  -8.697230e-03  -8.722780e-02  -1.087837e-01  -7.633583e-02  1.521770e-02  -1.947587e-01  -1.240520e-01  4.556306e-03  -9.620933e-02  -1.113327e-01  -7.471738e-02  1.356095e-01  -4.934488e-02  -1.540863e-01  -6.548990e-03  3.108996e-03  -9.669425e-02  -3.761192e-02  4.957238e-02  7.681717e-05  8.944642e-02  7.037921e-02  3.866898e-02  7.016123e-03  -2.779974e-02  2.635665e-02  -4.472663e-02  -9.978186e-02  -3.567103e-02  6.291800e-03  9.252260e-02  5.853308e-02  6.968686e-02  8.840663e-03  -5.920810e-02  -2.955193e-02  -6.646393e-02  -2.575760e-03  9.323507e-02  5.616183e-03  2.087933e-01  -6.424175e-02  7.974828e-02  -7.553160e-02  4.305292e-02  -1.746629e-01  -1.210722e-01  -1.097064e-01  -2.862689e-01  -1.753416e-01  1.062613e-02  1.524123e-01  3.664134e-02  -8.856159e-02  -5.261729e-02  2.889518e-02  -1.637698e-02  1.504256e-01  -4.053226e-02  -1.135651e-01  7.191093e-02  -1.436085e-01  1.298477e-01  -1.032465e-01  -1.162521e-01  1.739312e-02  -2.159222e-02  8.005130e-03  1.251142e-01  4.765983e-02  2.588965e-02  -9.985538e-02  -1.025980e-01  4.114538e-02  -8.870559e-04  1.199744e-01  -1.568094e-01  -9.276745e-02  -1.300426e-01  1.072747e-01  -9.889365e-02  -2.812065e-02  -1.213984e-01  1.819361e-01  -6.298797e-02  2.920168e-01  7.505218e-02  -1.860654e-01  -1.637030e-02  -5.400135e-02  1.584308e-01  -6.692656e-02  1.694143e-01  -6.810071e-02  -6.630484e-02  -8.016989e-02  2.259191e-01  1.947094e-01  1.169478e-01  -1.585227e-01  -3.368324e-02  1.711541e-01  9.049336e-04  2.148815e-01  -2.310187e-01  4.910034e-02  2.101230e-01  -8.383720e-02  3.607859e-01  4.064682e-01  -5.877334e-02  -9.972326e-02  -4.049397e-03  4.983978e-03  8.235079e-02  -1.378538e-01  1.250218e-01  -2.318769e-02  8.321846e-02  -1.251996e-01  -3.292317e-01  -5.928189e-02  1.105305e-01  -1.382660e-01  -1.128675e-02  -1.132024e-01  1.756807e-01  2.358027e-01  1.692180e-01  -8.259398e-02  -3.745315e-02  1.047162e-01  6.434374e-02  -4.644939e-02  -9.289446e-02  -1.018780e-01  -5.375529e-02  3.104013e-02  -9.004259e-03  9.402275e-02  -1.817395e-01  -1.639548e-01  7.977795e-02  -2.223825e-01  -2.873170e-02  -1.240863e-02  1.599030e-02  -1.387364e-01  -3.109428e-02  -7.409034e-02  -1.679500e-01  -3.491234e-01  -1.625003e-02  9.125647e-02  -7.876480e-02  -1.165152e-01  -2.606493e-01  -9.126072e-02  7.931158e-02  1.291512e-02  -1.228968e-01  -2.280390e-01  1.063802e-01  -5.518194e-02  1.224336e-01  -1.734226e-02  1.451135e-01  7.834241e-02  7.092243e-02  1.153035e-01  9.198080e-02  7.162277e-02  -8.469446e-02  1.668743e-01  4.771709e-02  7.776655e-02  1.602503e-01  1.550905e-01  -4.560392e-02  -3.305340e-01  1.559812e-01  1.387452e-01  2.947738e-02  9.813824e-02  -8.817121e-02  2.510490e-01  -1.123261e-01  1.303281e-01  -4.315182e-02  -1.243332e-01  -8.114979e-02  -8.323725e-02  -9.055829e-02  1.611095e-01  1.017381e-01  -4.504708e-02  -8.643916e-02  -2.476090e-01  -4.907497e-02  -9.603523e-02  8.690840e-02  -8.046374e-02  1.718810e-01  1.043357e-01  -1.228905e-01  -1.127609e-01  -9.684753e-02  5.520682e-04  -5.644588e-03  -4.367332e-03  -2.964493e-02  -1.634174e-01  1.186024e-01  -6.438789e-02  -8.334018e-02  1.395824e-01  -4.610229e-02  -6.621394e-02  -3.476978e-02  1.548346e-01  6.321991e-02  3.008131e-02  -1.050154e-01  1.297102e-01  4.179754e-02  1.581705e-01  1.251903e-01  2.303869e-03  1.313633e-01  1.902203e-01  3.160985e-02  3.897422e-02  -8.947815e-02  5.932733e-02  3.038383e-02  6.720477e-02  1.883087e-01  6.697707e-02  2.135860e-02  -1.467479e-01  -7.347783e-02  -1.087173e-01  -1.137727e-02  -4.348686e-02  -2.827076e-02  8.603689e-02  4.849481e-02  5.418934e-02  -1.139908e-02  3.306184e-02  1.577030e-02  -1.200392e-01  -1.630208e-01  5.131366e-02  -8.197853e-02  5.514452e-02  1.121798e-01  7.658080e-02  6.839418e-02  1.514877e-01  8.625387e-02  -9.319450e-02  3.857440e-02  1.099641e-01  -6.974687e-02  5.082880e-03  7.000586e-02  -2.165185e-02  1.465117e-01  -9.096539e-02  -2.220962e-04  -1.062519e-01  3.674987e-02  1.228341e-01  1.584246e-01  -7.021595e-02  8.531695e-02  1.726977e-01  -1.490830e-01  -1.124335e-01  -2.019309e-02  1.105039e-01  8.711868e-03  2.621096e-02  -5.989726e-02  -4.154331e-02  2.486952e-01  -2.350911e-02  -2.097787e-02  -8.438322e-04  1.454198e-01  5.714620e-02  7.830752e-02  -9.837628e-02  1.571406e-01  1.639913e-01  2.130815e-02  -9.452119e-02  6.095813e-02  7.230241e-02  -1.590125e-03  -5.165537e-02  -9.994181e-02  2.515897e-01  -7.148455e-02  1.743020e-02  -3.843939e-02  -1.594981e-01  -1.298091e-02  -8.326865e-02  -9.030996e-02  -1.370659e-01  -1.016078e-01  -8.447908e-02  -5.781372e-02  1.237430e-02  1.326045e-01  -5.266177e-02  -4.507135e-02  -2.389812e-02  2.199806e-01  1.213895e-01  -1.938292e-01  -3.321040e-02  1.197693e-01  8.085901e-02  1.105599e-02  -9.384508e-02  -4.025855e-02  1.827681e-01  -1.560441e-01  -2.251791e-01  1.890461e-01  -6.018579e-03  1.305565e-01  -1.624615e-01  1.172495e-01  1.545137e-02  -1.509291e-02  -1.713269e-01  -1.153509e-02  -2.696182e-01  -2.374965e-02  1.671531e-01  1.290845e-01  -5.912911e-02  -6.222752e-02  8.889298e-02  -1.495475e-01  1.298422e-01  1.047304e-01  -1.429776e-01  -2.498937e-01  8.263678e-02  -3.320210e-02  2.061228e-01  -9.396783e-02  -1.202160e-01  7.482851e-02  -1.166462e-01  3.040012e-01  -3.665434e-04  -5.817132e-02  1.336940e-01  -4.042878e-01  -4.379317e-01  -2.539384e-01  1.354340e-01  -6.242285e-02  -8.674541e-02  8.206789e-02  1.542467e-01  -1.538775e-01  -1.210958e-01  1.333168e-01  -1.175053e-01  3.911263e-01  1.435874e-01  1.189261e-01  6.127766e-02  1.335139e-01  1.124858e-01  -1.797230e-01  -3.881397e-02  -1.697311e-01  7.925228e-03  -1.195182e-01  -1.445217e-01  -1.025986e-02  -1.843782e-01  2.104217e-01  -7.652700e-03  -1.866166e-01  -2.362175e-01  1.796853e-01  -1.291089e-01  -1.071759e-01  -4.141487e-02  3.774524e-02  5.995914e-02  6.031631e-02  2.736012e-02  -3.810422e-02  7.995146e-02  -1.314506e-03  -1.019217e-01  6.763434e-02  4.559207e-01  -6.142676e-02  1.049479e-01  2.547121e-01  -9.499186e-03  2.129792e-01  4.963894e-02  1.934231e-01  7.039910e-02  1.426042e-01  2.796654e-01  6.836423e-02  -9.700846e-02  -1.554997e-01  -1.713342e-01  -7.290612e-03  1.014767e-01  6.523565e-02  1.280829e-01  5.641520e-02  1.514870e-02  -1.033189e-01  -5.665671e-02  4.489020e-02  -1.331946e-01  -1.852487e-01  -2.879360e-01  -7.554963e-02  1.752051e-01  -8.181712e-02  -5.954030e-02  1.197692e-01  6.696789e-03  -1.151339e-01  1.020410e-01  -1.015425e-01  5.529963e-02  -6.976022e-02  -9.556503e-02  1.374772e-01  -1.183267e-01  -1.072726e-01  -5.791921e-02  -1.597372e-01  1.120918e-01  -1.866552e-01  -9.776087e-02  -4.712433e-02  -4.311514e-02  -1.254813e-01  -1.758735e-02  8.087268e-02  7.215663e-02  6.106356e-03  -6.548806e-02  1.643170e-01  -7.344393e-02  -4.922647e-02  -1.410857e-01  2.272769e-04  5.318715e-02  -3.108858e-02  1.024958e-01  -6.056119e-02  4.784665e-02  -1.729831e-02  -1.330946e-01  2.791955e-01  4.527965e-02  1.270141e-02  3.963138e-02  -3.297902e-02  -1.098226e-01  -2.571751e-02  1.074554e-01  -8.629318e-02  1.933245e-02  -1.078281e-01  5.483459e-03  -2.420709e-02  3.263036e-01  -5.363531e-02  1.212551e-02  3.124343e-01  2.016803e-02  -1.629517e-02  3.275048e-01  -2.109551e-01  -1.290932e-01  -2.661393e-02  -1.048151e-01  1.111030e-01  4.403242e-02  2.105677e-02  1.616249e-01  -4.252887e-02  -1.315846e-01  -1.514426e-01  2.127303e-02  -1.676654e-01  5.900481e-02  3.838088e-02  1.270635e-01  -4.510683e-02  1.669495e-01  8.691698e-02  -1.896998e-02  -3.336607e-02  1.697394e-01  -8.117059e-02  -1.024018e-01  8.739115e-02  -5.792169e-02  8.488078e-02  -1.010338e-01  1.066895e-02  -8.168975e-02  -1.800352e-01  -1.072720e-02  1.518997e-01  1.654374e-03  2.778681e-02  5.228663e-02  -1.048499e-01  -7.515130e-03  5.736314e-02  1.340363e-01  -3.454771e-02  -8.314380e-03  7.931028e-02  -9.240192e-02  -8.423772e-02  -3.293195e-02  6.885958e-02  -3.596458e-02  -3.516351e-02  1.150124e-01  -1.265858e-01  -2.407400e-01  5.018202e-02  7.559619e-02  1.793321e-02  -9.954377e-02  1.439070e-01  3.629860e-02  -5.158052e-02  1.035275e-01  4.503106e-02  -5.898178e-02  8.431037e-02  -1.306671e-01  1.370142e-01  -6.800389e-02  1.431496e-01  2.985507e-02  2.836415e-02  2.076101e-02  1.850221e-01  -7.545143e-02  5.546362e-02  1.109772e-01  -6.636827e-02  -1.926533e-01  -1.252785e-01  -7.072087e-02  1.859483e-01  2.795109e-02  2.001021e-02  -9.161783e-03  5.534657e-02  1.757769e-01  -8.164565e-02  5.364738e-02  -1.301045e-02  -3.642590e-03  1.500127e-02  1.107843e-02  7.287662e-02  -1.717666e-02  -2.083005e-01  -1.846550e-01  6.887840e-02  -8.462276e-02  1.097633e-01  -8.898152e-02  5.383217e-02  1.357474e-01  -5.114667e-02  4.963978e-02  4.318149e-02  -3.761223e-01  -8.012275e-02  6.450957e-02  2.342414e-01  -1.074657e-01  -2.378443e-02  -5.049451e-03  -5.685339e-02  -7.154690e-03  -1.202525e-01  -3.774917e-02  -2.082679e-01  3.426662e-02  2.196692e-02  -3.873350e-02  -8.760856e-03  -2.384237e-01  7.738593e-02  9.680185e-02  1.677989e-01  1.486889e-01  -8.104922e-02  3.336561e-03  -1.922106e-01  -1.221974e-01  -3.343666e-01  1.849514e-01  -7.779874e-02  -9.759538e-02  6.748861e-02  1.392239e-01  -1.451675e-01  1.396100e-01  1.701754e-01  -1.261639e-01  3.211068e-01  1.112532e-01  2.379406e-02  1.520167e-01  1.546426e-01  1.861515e-01  -6.346311e-02  1.008313e-01  -1.173437e-01  1.614759e-01  -2.368039e-01  4.816075e-04  -1.768058e-01  -1.263242e-02  7.432429e-02  9.642487e-02  -1.428639e-01  -5.631125e-02  -9.673962e-02  -1.642462e-01  -1.217651e-02  -7.909469e-02  1.202801e-01  5.004674e-02  -1.103206e-01  -6.472657e-03  1.190582e-03  1.188885e-01  -4.484150e-02  -9.222977e-02  1.642242e-01  2.668773e-01  -2.063420e-02  1.130096e-01  1.368365e-01  -8.522993e-02  1.138783e-01  8.803774e-02  -3.794703e-02  1.121858e-03  -7.180795e-03  6.637755e-02  -7.173488e-02  -1.167895e-01  -2.502366e-02  -1.435921e-01  1.342476e-02  -1.061166e-01  -7.966918e-02  3.797948e-02  8.308310e-03  -1.088980e-01  1.003982e-01  -2.252550e-01  -7.605208e-02  -1.150069e-01  -7.513654e-02  -3.160565e-01  7.228823e-02  2.435847e-01  -7.240431e-02  8.324047e-02  -3.550979e-02  1.367754e-01  -9.640911e-02  1.925087e-01  1.292939e-01  -1.140655e-01  2.356008e-02  1.564483e-01  1.894996e-01  1.280960e-02  -8.401795e-02  7.114617e-02  6.902778e-02  5.617400e-02  7.331620e-02  1.847585e-02  -1.287882e-01  -5.593102e-02  -3.240268e-02  -2.640139e-01  3.242543e-01  1.922933e-01  5.447204e-02  1.004308e-01  -5.078554e-02  1.477282e-01  -2.441715e-02  6.674725e-02  -1.105548e-01  2.602440e-01  -1.291718e-01  2.612438e-01  -3.082705e-02  -7.793900e-02  -1.388345e-01  -2.035759e-01  1.707605e-01  1.073554e-01  2.837858e-02  1.674400e-01  1.448964e-02  2.011904e-01  2.272574e-01  -1.271291e-01  -6.580113e-02  -7.859576e-02  6.186590e-02  5.255901e-02  1.736323e-01  -1.113854e-01  -3.585488e-01  1.185471e-01  1.938714e-01  -1.620236e-01  2.625087e-01  4.134143e-01  1.525437e-01  -2.100310e-01  -1.161796e-01  -6.126837e-02  2.033936e-02  -1.515414e-01  2.709532e-01  -9.534945e-02  -2.586552e-01  2.246121e-02  -1.372685e-01  -3.130317e-02  -2.776471e-03  -6.584648e-02  8.282088e-02  -9.919080e-02  9.762559e-03  6.438539e-03  2.580771e-01  -3.690207e-02  1.836797e-01  -1.051434e-02  -5.809059e-02  7.151896e-02  -1.411031e-01  2.402097e-02  -7.919966e-02  1.212903e-01  4.373180e-02  1.218627e-01  -4.661852e-02  9.833885e-03  7.606507e-02  -2.552711e-01  1.261700e-01  3.773886e-02  -4.657761e-02  1.424870e-02  -4.495381e-02  8.633903e-02  -1.439401e-02  -4.174092e-01  -7.332632e-02  1.000326e-01  -8.025313e-02  5.703075e-02  -2.752726e-01  -1.182155e-01  -1.616592e-03  -1.543193e-01  -1.493857e-01  -1.112773e-01  -1.303982e-02  3.460759e-02  -1.639444e-01  -4.291107e-02  2.505502e-01  5.370787e-02  3.847009e-02  -5.462562e-02  -7.369633e-02  1.255430e-01  -5.959822e-02  1.335423e-02  4.587228e-02  3.801269e-02  3.137707e-01  2.492770e-01  1.187081e-01  -2.641257e-01  1.331872e-01  1.456321e-01  -9.077198e-02  -2.191614e-02  7.762075e-02  1.899531e-01  -1.274097e-01  -6.498838e-02  -8.533541e-02  -2.442552e-02  -9.461711e-02  6.144728e-03  -1.969449e-01  -1.430035e-01  1.091443e-01  2.310021e-02  3.621753e-02  -1.199834e-01  -2.543377e-02  -2.936506e-02  -1.221690e-01  -1.489986e-01  1.458024e-01  1.751169e-01  -1.272072e-01  -4.007760e-02  1.343029e-02  4.532726e-02  -1.229401e-01  1.946193e-02  -2.135701e-02  -9.891088e-02  -1.135936e-01  2.256532e-01  8.610371e-02  4.208186e-02  -1.468815e-02  4.598060e-02  1.605957e-01  2.620038e-02  1.266045e-01  8.719996e-02  -1.376485e-02  6.439237e-02  1.646814e-01  -7.485867e-02  -2.372036e-02  7.822491e-02  1.306102e-02  1.234290e-01  7.037496e-03  6.513331e-03  -6.176802e-02  -6.553970e-02  -4.102945e-02  3.511872e-02  3.556200e-01  2.349368e-01  1.183950e-01  -1.353454e-01  -1.131501e-01  8.618081e-02  7.554210e-02  -1.767162e-01  9.223963e-02  2.412709e-02  3.699578e-02  6.574357e-02  -7.977214e-02  -8.723874e-02  1.483160e-01  -4.309103e-02  -4.047146e-03  -6.710708e-03  1.325533e-01  4.114660e-02  9.472234e-02  -6.380396e-03  1.119384e-01  1.375378e-01  -7.252376e-03  -1.074102e-01  -1.207225e-01  -5.074482e-03  -1.949715e-02  4.604586e-02  -6.607273e-03  -7.138399e-02  1.744299e-02  1.122860e-02  1.088975e-01  1.751377e-03  1.430539e-01  -1.310429e-01  -1.075944e-01  1.124764e-01  4.595137e-02  -5.840632e-02  2.348092e-02  -1.545613e-01  2.368059e-02  -4.988137e-02  -1.632031e-01  -3.096903e-03  -1.009701e-01  -1.010040e-01  1.094140e-01  -1.072986e-01  -6.009251e-02  -2.803099e-01  -4.023276e-02  -7.189128e-02  3.855918e-03  2.437242e-02  1.614689e-01  -2.091439e-02  3.341505e-02  -1.294739e-01  1.158972e-01  -5.331954e-03  -9.036539e-02  9.898055e-02  -5.964729e-02  1.832170e-01  2.456517e-01  2.559515e-01  -3.119767e-02  -2.357913e-01  3.761307e-02  -8.465733e-02  5.047759e-02  4.672557e-02  -1.370192e-01  1.234920e-01  -5.093839e-02  1.890268e-02  -6.480731e-02  1.197303e-02  1.635377e-01  -8.241351e-02  -4.741100e-02  -1.188475e-01  -5.909014e-02  -7.089474e-02  7.315668e-02  -6.565671e-02  -2.435268e-01  -9.452455e-02  -6.444415e-02  -1.152022e-01  -1.357821e-02  9.704655e-02  -1.657572e-01  6.864476e-03  6.287593e-02  1.744252e-01  -1.116493e-01  -9.154952e-02  -2.673308e-02  4.676577e-02  3.265927e-05  1.191283e-01  -4.882780e-02  7.926825e-02  -1.145956e-01  -1.031136e-01  1.001059e-01  5.079865e-02  -2.425942e-02  8.960416e-02  -7.506486e-02  -1.111477e-01  8.383539e-02  1.289443e-02  -1.874978e-01  -9.297617e-02  2.272293e-03  -7.297246e-02  -3.003530e-02  2.103055e-02  -7.744452e-02  -2.320703e-02  1.336465e-01  -3.119536e-02  1.505434e-01  3.247017e-01  -7.722302e-02  -5.830143e-02  -9.704926e-03  3.771905e-04  -2.971948e-02  -2.660556e-01  1.041904e-01  -1.283836e-01  -3.692997e-02  -1.329965e-02  -1.197032e-01  -2.877788e-02  5.405870e-02  -1.977465e-02  -9.543034e-02  2.029054e-01  1.301295e-01  7.519943e-02  1.232633e-01  -7.290398e-02  -1.072517e-01  5.243625e-02  -1.470011e-01  5.374751e-02  1.290211e-01  -8.656336e-02  -2.096505e-02  -1.073461e-01  -1.538276e-02  9.160896e-02  -2.629935e-02  -7.482789e-02  -1.156978e-02  -3.326974e-02  7.001977e-02  -4.228084e-02  -1.512108e-01  -7.160525e-02  5.900567e-02  -1.246468e-01  -1.088614e-01  9.389350e-02  2.544548e-01  8.352377e-02  -2.508053e-01  -1.100193e-01  -6.147544e-02  1.866900e-01  -1.565579e-02  -1.083404e-01  4.755181e-02  -1.083334e-01  1.276653e-01  1.168135e-02  1.777004e-01  1.050553e-01  -1.545287e-01  1.048697e-01  1.824503e-02  -8.060195e-02  -1.825920e-01  -5.721247e-02  -3.235728e-03  5.339423e-02  1.016664e-01  8.252431e-02  -5.015269e-02  1.496751e-01  8.968422e-02  -2.173433e-01  -1.982769e-02  1.651439e-01  -9.211960e-02  -1.653291e-01  -3.534316e-02  -8.034004e-02  5.472432e-02  5.120986e-02  1.315294e-01  7.771564e-02  -1.470539e-01  -9.576800e-02  3.844211e-02  1.277232e-01  -1.395469e-01  1.969094e-02  -9.284158e-02  -3.738293e-02  7.585207e-02  2.048556e-01  -1.012580e-01  1.286901e-01  -2.889669e-01  -1.502559e-01  -8.225410e-02  1.470103e-01  1.552104e-01  -3.064247e-01  3.303139e-02  -1.544861e-01  9.352662e-02  -7.816078e-03  -1.402684e-02  -3.029067e-01  -1.333822e-01  1.857740e-01  3.664099e-01  1.461227e-01  -9.749310e-02  -1.199582e-01  1.641793e-01  -4.635324e-02  6.412595e-03  3.906123e-02  -2.342924e-01  3.115898e-02  9.319613e-02  3.981630e-02  1.311911e-01  -1.665736e-01  -1.166834e-02  1.771791e-02  2.777844e-01  1.127539e-01  -1.390578e-01  -6.762640e-02  -1.869215e-01  -2.872507e-01  -2.041191e-01  6.319488e-02  -1.404712e-01  -3.848024e-02  -1.327636e-01  1.680208e-01  -2.164287e-01  1.103566e-02  7.927848e-02  7.348807e-03  1.941691e-01  -1.002158e-01  1.293853e-01  1.506888e-01  -1.180158e-01  1.879804e-01  -2.040269e-01  -5.866224e-02  -6.280986e-02  2.860747e-02  -1.327368e-01  5.990700e-02  8.189480e-02  -1.104668e-01  1.994885e-01  -1.835553e-02  -9.666491e-02  -1.191186e-01  8.480760e-02  -1.126122e-01  -4.749243e-02  -5.609099e-02  6.370023e-02  3.001926e-02  1.363643e-01  7.528061e-02  -9.026431e-03  3.065142e-03  -1.440928e-01  1.946194e-02  7.142236e-02  2.675550e-01  9.111828e-02  1.081057e-04  2.994410e-01  -4.360833e-03  1.557951e-01  4.574369e-02  2.041633e-01  1.516565e-01  1.047944e-01  3.943542e-02  -1.047155e-01  1.331216e-01  1.105858e-01  -8.468979e-02  -1.671834e-01  1.312976e-01  4.587156e-02  -6.033389e-02  -1.038668e-01  -1.622195e-01  -2.811326e-02  -1.358366e-01  1.007122e-02  -9.688880e-02  -2.973157e-01  -2.587876e-01  1.075838e-01  3.446725e-01  -4.428530e-02  -1.279283e-02  4.771515e-02  -1.422231e-01  1.166601e-01  2.486010e-02  4.706767e-02  -8.498335e-02  7.997286e-02  -1.903752e-02  -3.246585e-02  8.914079e-02  -8.190441e-02  -7.454658e-02  1.382708e-01  -1.817118e-01  4.278105e-03  -8.442790e-02  -1.789314e-01  3.581262e-02  3.699591e-02  7.118932e-02  -5.791119e-02  1.207665e-01  -1.104152e-01  2.994958e-02  5.331485e-02  7.154541e-02  -3.169914e-02  -8.744567e-02  5.591542e-02  1.034249e-01  -4.396673e-02  -5.090705e-02  -3.300975e-02  8.363821e-02  2.583191e-02  6.356657e-02  1.242339e-01  -1.208754e-01  -4.590538e-02  8.395098e-02  9.604542e-02  -5.893594e-02  4.775050e-02  2.473197e-02  2.232567e-02  5.745510e-02  3.899913e-02  -1.273191e-02  9.582957e-02  2.477212e-01  9.737658e-02  -2.793839e-02  2.067117e-01  4.988659e-02  1.549395e-02  1.775698e-01  -2.395323e-01  -8.535846e-02  -1.675414e-01  -1.056150e-01  -1.134113e-01  4.475503e-02  -6.537954e-02  -1.153572e-01  -1.098278e-01  -1.033370e-01  -1.584088e-01  2.018933e-02  2.980898e-02  -5.604373e-02  -1.638922e-01  9.951916e-02  -2.205301e-02  6.616882e-02  -7.533727e-03  -8.434653e-02  1.126020e-01  2.744395e-02  7.715961e-02  1.186853e-01  -1.380588e-01  -9.908614e-02  3.653036e-02  -9.695994e-02  -1.879536e-01  -2.285766e-02  -1.956535e-01  1.214132e-01  -1.016777e-03  -3.830225e-02  -8.128488e-02  -1.296997e-01  -1.404310e-02  1.120211e-01  -1.409201e-01  2.837721e-02  -1.007600e-02  -5.138972e-02  1.801459e-01  -6.517854e-02  -2.135943e-01  6.086510e-02  6.719156e-02  -5.959421e-02  -1.244829e-01  9.618033e-02  -5.509168e-02  -7.141730e-02  -1.093365e-02  7.926174e-02  -8.492154e-03  3.834157e-02  -2.760137e-02  5.638046e-02  2.834606e-03  4.346013e-02  -4.404121e-02  1.193935e-03  5.680980e-02  1.005773e-01  2.459030e-02  -1.463104e-01  -4.015070e-02  1.063229e-01  -1.068216e-01  1.065410e-01  -1.286720e-01  1.976313e-01  8.758521e-02  8.797225e-02  -4.571646e-02  4.564974e-02  -8.291290e-02  -1.064595e-01  8.440930e-02  -2.365441e-02  -2.496657e-02  4.546643e-02  5.397173e-02  -1.686239e-02  -3.639587e-02  -1.783770e-03  4.844871e-02  8.002803e-03  8.519588e-02  1.035668e-01  8.527017e-02  -4.870626e-02  -1.820032e-01  -1.745964e-01  3.807973e-02  2.711212e-02  -6.103563e-02  -1.801902e-01  2.751390e-02  4.205962e-02  1.061117e-02  -1.119397e-01  7.187254e-02  -2.089695e-01  -5.066544e-02  2.329295e-02  2.372669e-01  -8.305441e-02  -8.810753e-02  1.001920e-01  1.515275e-01  -9.161409e-02  -1.782719e-02  -1.114277e-01  -1.191309e-02  3.947216e-03  4.494968e-02  -8.908888e-02  2.323384e-03  -1.575217e-01  -1.058593e-01  9.547881e-02  9.189453e-02  -1.257595e-01  -1.295939e-02  3.170808e-02  -3.079379e-01  -3.050783e-01  -1.599634e-01  1.046331e-01  6.418577e-02  -1.099511e-01  2.964139e-02  2.192710e-01  -1.489190e-01  5.542386e-02  7.084565e-02  5.008692e-02  1.690726e-01  1.915028e-02  1.602280e-01  1.816466e-01  -6.164051e-02  1.136959e-01  -3.010146e-02  1.418093e-01  -2.282882e-01  1.686436e-01  -2.302301e-01  3.997420e-02  -6.709266e-02  1.043620e-01  2.219839e-01  2.693371e-02  -9.382931e-02  -2.324310e-01  -1.697135e-01  -7.366527e-02  -1.155114e-01  -1.395810e-01  -7.034669e-02  2.860961e-01  -6.323668e-02  8.534815e-02  -1.388839e-01  3.316312e-02  -6.944083e-02  -1.590282e-01  1.222760e-01  3.946051e-01  -1.026908e-01  -5.434973e-02  1.872843e-01  -9.365709e-02  2.522334e-01  -3.095680e-02  2.797636e-01  -3.213451e-02  2.002870e-01  -3.154644e-02  -2.222327e-01  1.059784e-01  -5.833305e-02  1.297939e-03  -1.117422e-01  6.116159e-02  1.441327e-01  -1.347088e-01  1.030031e-01  -2.900867e-02  -1.185691e-01  -2.024819e-01  2.241934e-02  -2.316719e-01  -2.300717e-01  -1.403441e-01  -1.587485e-01  4.457778e-01  1.225880e-01  6.671742e-02  -1.101420e-01  -1.556707e-01  1.664445e-01  -7.441849e-02  7.144728e-02  -1.214994e-01  -2.740504e-02  5.466431e-02  9.287951e-02  5.504140e-02  2.387691e-02  -1.235375e-01  8.599195e-02  -1.054390e-01  1.545784e-01  1.297547e-01  2.807010e-02  1.479895e-01  -8.584206e-02  2.354694e-02  -3.817544e-02  -1.465021e-01  2.041971e-02  -1.138486e-02  1.048843e-01  -4.021101e-02  -9.778908e-02  -1.287128e-01  -6.585650e-02  1.499326e-01  1.460573e-01  9.422840e-04  -1.770502e-01  1.584228e-01  3.001758e-01  5.745207e-02  -2.066858e-02  4.575888e-02  -9.145713e-02  -1.110830e-01  -8.368193e-02  -6.393055e-03  -1.922621e-01  2.033881e-02  -6.330363e-02  1.936594e-01  -1.375065e-01  -9.226491e-02  1.072509e-01  3.513548e-02  2.345922e-01  8.722606e-02  -1.187167e-01  1.556223e-01  -6.445764e-02  -3.295879e-01  -1.894111e-01  1.064760e-01  -6.343655e-02  1.804993e-01  -1.095753e-01  1.508997e-01  1.119019e-01  3.286299e-02  1.857041e-01  -5.598379e-03  2.281116e-01  1.283418e-01  -5.567808e-02  5.605862e-02  1.219589e-01  1.100898e-01  -5.498281e-02  8.020417e-02  1.311238e-02  3.417679e-02  -2.038038e-01  6.375667e-02  1.173598e-01  1.505415e-01  -1.313834e-01  5.049269e-02  -1.450282e-01  -9.193169e-02  -1.527855e-02  7.041320e-02  -8.663584e-02  -1.221766e-01  -2.735308e-02  6.435028e-03  5.987527e-02  7.676174e-02  -3.955949e-03  1.041137e-01  -1.844922e-02  -8.251246e-02  1.430472e-01  1.289331e-01  -2.020348e-01  -2.196177e-02  5.779425e-02  -1.181377e-01  1.672916e-01  -1.450609e-01  -1.023478e-01  1.676872e-01  9.943023e-02  1.315208e-02  1.112218e-02  1.199192e-01  -6.495918e-03  -9.452184e-02  -1.281861e-01  5.766569e-02  7.944845e-03  1.259579e-01  -2.314904e-02  5.565083e-02  -4.822549e-02  3.553241e-02  -1.131585e-01  -4.848152e-02  -1.121408e-01  8.643869e-02  3.482585e-02  -2.038329e-02  8.762666e-02  -3.830142e-02  -1.427851e-01  1.703827e-01  1.732513e-01  -6.566463e-02  -1.241614e-01  -9.614773e-02  2.203149e-02  -1.616234e-02  1.446624e-01  1.685221e-02  -5.114581e-02  -3.545306e-02  1.282968e-01  -5.723522e-02  -9.797302e-02  9.854887e-02  -2.591722e-01  -1.243093e-01  -8.694980e-02  -1.096256e-01  1.313131e-01  3.797158e-02  -1.232154e-01  1.150385e-02  2.045373e-02  6.163527e-02  -1.628475e-02  -8.359186e-02  1.787738e-01  -3.030104e-02  1.461972e-02  3.334997e-01  1.105575e-01  -1.393177e-01  -3.594516e-01  6.292805e-02  2.379577e-01  4.620769e-02  4.879759e-02  1.429487e-01  5.930621e-02  2.281585e-01  1.604364e-01  -6.052782e-02  1.269438e-01  -3.452086e-02  -3.089968e-02  1.057303e-01  -1.364966e-01  1.044404e-02  -4.849942e-02  -1.460623e-01  1.187245e-01  -1.360418e-01  2.282993e-01  3.303170e-01  6.109410e-02  -4.942979e-02  2.270286e-02  1.583346e-02  -6.531959e-03  -1.238296e-01  1.882511e-01  8.134914e-02  2.986361e-02  5.162748e-02  -1.777152e-01  1.498064e-01  7.431242e-02  -2.699746e-01  1.969537e-01  3.776828e-02  1.506869e-01  -1.745976e-01  1.064506e-01  7.043875e-02  1.247413e-01  9.383377e-02  1.395173e-01  -1.710230e-01  2.769814e-02  4.130780e-02  -5.013764e-02  2.674520e-01  1.170086e-01  1.640178e-01  -6.752832e-03  7.153550e-02  -1.452044e-02  -2.985133e-01  7.476226e-03  -5.980497e-02  9.658576e-02  -1.935895e-01  -9.473000e-02  3.757431e-02  7.980060e-02  -4.003832e-01  1.635775e-01  -8.567046e-02  -2.256517e-01  -3.524457e-02  -3.357956e-01  -8.150519e-02  -1.291866e-01  3.719803e-02  -4.987211e-02  -1.918241e-01  1.623648e-01  1.205764e-01  -1.599395e-01  -7.411243e-02  2.590180e-01  -2.011626e-02  -4.625158e-02  1.883223e-01  8.049674e-02  1.356027e-01  -3.497846e-02  2.499498e-01  7.009884e-02  1.232119e-01  3.378208e-02  1.807857e-01  1.005575e-01  -3.319738e-01  -1.275926e-01  1.225410e-02  7.153728e-02  2.542124e-02  -4.917145e-02  -1.016942e-01  1.374414e-01  -7.501360e-03  1.595455e-01  5.560186e-02  -1.043249e-01  1.512281e-01  8.908796e-02  7.485840e-02  -2.908777e-02  -6.223583e-02  5.932935e-02  5.932407e-03  2.830004e-02  -9.857599e-02  8.469364e-04  1.137486e-01  -1.953817e-01  -8.946052e-02  4.195937e-02  7.459038e-03  4.912518e-02  -3.830820e-01  -3.298655e-02  -1.804782e-01  5.692075e-02  5.580791e-03  -6.616701e-02  -1.401218e-01  -7.567612e-02  9.342023e-02  1.468443e-01  1.143597e-01  -1.153896e-01  -1.203618e-01  -1.494781e-02  -2.497622e-02  -2.338829e-02  -1.447652e-01  -1.021410e-01  -2.658859e-02  -8.858823e-02  -9.182914e-02  7.029613e-02  9.883520e-03  2.519155e-02  6.492306e-02  -6.506417e-02  7.069942e-02  -3.476228e-02  -2.427495e-02  -1.096953e-01  -4.094930e-01  8.121467e-02  -2.613418e-02  -6.272709e-02  4.472068e-02  1.053726e-01  3.060422e-01  -1.419505e-01  2.503968e-02  2.795807e-02  -1.556243e-02  1.746085e-01  -6.931486e-02  -1.133487e-01  1.506741e-01  1.361859e-01  -8.503930e-02  -5.227037e-02  -2.366961e-01  -1.433810e-01  -3.063649e-02  -7.452710e-03  1.211403e-01  -9.720044e-03  6.588504e-02  2.235987e-01  1.705924e-01  -9.204928e-02  1.303523e-01  1.056006e-01  -1.134816e-01  1.636928e-02  -3.711974e-03  7.806414e-02  3.201211e-02  3.790284e-02  -5.296740e-02  2.040433e-01  5.375542e-02  4.994927e-02  7.809418e-02  5.964913e-02  1.483397e-01  -1.726385e-01  1.132253e-01  1.696647e-01  -1.091468e-02  3.117716e-01  -4.467212e-02  6.154722e-02  5.315180e-02  1.486456e-01  2.363922e-01  1.276309e-01  -1.113620e-01  -6.477231e-02  6.865963e-02  -6.893601e-02  -1.113285e-01  1.120396e-01  -7.946067e-02  -2.529662e-02  -2.301638e-03  8.656560e-03  -1.272114e-01  1.225510e-01  5.144127e-02  8.460110e-02  -1.950014e-01  2.022484e-02  8.900285e-02  7.361487e-02  -1.269157e-01  -2.635480e-02  1.760556e-02  -8.541913e-02  1.472448e-01  9.990332e-03  2.844927e-02  1.213066e-01  3.911037e-02  1.584691e-01  1.047106e-01  -4.741852e-02  -7.129620e-02  9.320156e-02  3.073403e-02  1.979936e-03  2.287058e-01  -3.846517e-03  -7.730178e-02  3.841881e-02  3.523402e-02  1.868425e-01  1.598523e-01  -8.055993e-02  -3.903383e-02  1.670986e-01  1.282220e-03  -5.958547e-02  -6.846111e-02  7.730298e-02  1.256137e-01  -2.806751e-01  1.755503e-01  7.447717e-02  -1.411658e-01  -1.136727e-01  -1.586075e-01  3.154644e-01  -6.392699e-02  7.065196e-02  -6.146957e-02  -8.473785e-02  -4.975678e-02  -1.632256e-01  3.737705e-02  -1.092808e-01  1.633628e-02  1.315006e-01  4.691668e-02  1.081351e-01  1.759650e-01  -1.902357e-01  1.190733e-01  5.719106e-02  -5.178187e-02  -1.003002e-01  1.305638e-01  7.754285e-02  1.467389e-02  6.780695e-02  -6.934518e-02  -4.065925e-03  -9.941479e-02  6.947846e-02  9.952512e-04  -5.195589e-02  -2.771811e-02  -6.827027e-02  5.534010e-02  -1.276380e-01  -1.233997e-02  1.247576e-01  -1.437226e-01  1.818114e-01  5.522466e-02  3.101985e-02  -6.755500e-02  6.016022e-02  8.532561e-03  3.647426e-02  -9.390339e-02  -4.231170e-02  -1.595964e-01  1.648944e-02  -7.995433e-02  -1.085703e-01  5.536008e-02  -1.327534e-01  -3.496447e-02  9.907177e-02  -3.223663e-01  1.047758e-01  2.217217e-02  -8.665504e-02  7.934811e-02  1.119855e-02  -6.403153e-02  6.116363e-03  -1.631956e-01  5.354051e-02  2.155315e-02  -2.846335e-01  8.675425e-02  -9.557796e-02  1.803265e-01  8.320647e-02  4.353509e-02  4.367815e-02  -1.408832e-02  1.333447e-01  -6.259176e-02  -3.157549e-02  -2.743070e-02  -1.366057e-01  -7.645177e-02  7.965359e-02  -5.303423e-02  -2.320977e-01  -4.369413e-02  -1.523867e-01  7.634681e-02  2.253206e-01  3.501023e-02  -4.023880e-02  4.085002e-02  3.950009e-02  -5.483213e-02  1.496286e-02  -1.226876e-02  -5.161138e-02  1.480159e-01  -1.174355e-01  2.052296e-01  -1.537618e-01  5.431620e-02  -9.828483e-02  -1.109382e-01  2.241313e-01  -1.988550e-03  -1.822990e-01  1.824718e-02  1.575750e-01  -4.814566e-02  -7.238692e-02  1.270755e-01  -1.021351e-01  -7.367211e-02  5.398886e-02  9.489053e-02  1.808703e-01  1.191769e-01  1.501596e-02  -7.804073e-02  1.074614e-01  3.237593e-01  1.978593e-02  8.353189e-03  -1.211717e-02  1.509859e-01  4.885548e-03  2.480243e-01  -9.451930e-02  7.492410e-02  -3.016677e-01  -9.475964e-02  2.209408e-02  7.829719e-02  -8.722734e-02  7.666022e-02  4.595310e-02  1.080325e-01  6.213480e-02  -1.246961e-01  1.700823e-01  -1.636867e-01  1.138358e-01  1.791400e-01  7.695586e-02  -9.386829e-02  -2.671064e-01  -4.088850e-02  3.079280e-02  1.100262e-02  1.591879e-01  3.498188e-01  1.386711e-01  -3.332644e-01  -7.838416e-02  7.185923e-02  1.155379e-01  -7.410289e-02  1.396831e-01  1.903565e-02  -2.335483e-01  -7.950891e-02  -3.378793e-01  -1.292724e-01  -4.969046e-02  -2.055984e-01  -4.389758e-02  -1.436982e-01  2.428276e-01  1.017637e-01  2.191937e-01  -8.132015e-02  2.477779e-01  -9.523083e-02  4.769471e-02  4.584437e-02  4.017228e-02  -4.986661e-02  1.442068e-01  1.119225e-01  7.337176e-02  -7.353567e-02  6.086424e-02  1.456856e-01  7.852227e-03  -2.984084e-01  -6.035069e-05  -1.002861e-02  4.675059e-02  6.492142e-02  1.875739e-01  7.480849e-02  -1.758544e-01  -3.320259e-01  -1.317270e-01  4.273738e-03  1.433629e-02  -3.722667e-02  -3.211773e-01  -1.149718e-01  -2.703848e-01  2.111922e-02  -1.264186e-02  -7.974508e-02  6.350569e-02  5.341675e-02  -3.703351e-02  1.004250e-01  5.795294e-02  2.216718e-02  -9.174379e-02  1.699409e-01  8.040985e-02  7.559440e-02  -7.797476e-02  6.338134e-02  1.433084e-01  -8.936618e-04  -7.970754e-03  3.382913e-01  1.224306e-01  -3.914674e-01  -7.637015e-02  3.527644e-02  1.237267e-01  1.551351e-01  1.377421e-01  2.306785e-01  -1.126069e-01  -1.173816e-01  -1.395253e-01  -5.681409e-02  -6.929812e-02  -1.001649e-01  -8.672694e-02  9.866626e-02  8.099762e-02  -1.263275e-01  -9.858268e-02  -4.174412e-02  -1.763733e-01  -6.797877e-02  6.975931e-02  -1.444072e-01  2.677217e-01  2.545869e-01  -1.560962e-01  -1.796719e-02  -1.152888e-01  1.181216e-01  -2.453563e-02  6.620502e-02  -1.102084e-01  5.805563e-02  -1.601492e-01  1.955629e-01  -1.208913e-01  -1.606690e-01  -1.546807e-01  1.534521e-01  1.856827e-01  1.113002e-01  -4.614156e-03  6.107850e-02  -4.595758e-02  2.147271e-01  7.860062e-02  -2.647581e-02  1.381390e-01  4.545748e-02  1.844238e-01  7.647241e-02  -1.900748e-01  6.962943e-02  -2.369598e-01  8.019160e-02  1.555641e-01  -4.930107e-02  2.544335e-01  3.148905e-01  2.133520e-01  -1.002329e-01  1.510029e-01  1.360148e-01  1.627315e-01  -7.502560e-02  1.106288e-01  -9.683826e-02  3.554335e-02  1.126661e-01  -7.239829e-02  -1.663348e-01  -5.490601e-02  -3.885281e-03  1.750116e-01  -8.300256e-02  1.314403e-01  -7.527608e-02  -3.611768e-02  -9.983842e-02  1.698248e-01  1.912925e-01  -3.939872e-02  -2.022024e-02  -1.250647e-01  -1.298632e-01  1.352907e-01  2.083615e-02  -2.177875e-03  8.907767e-02  1.326739e-01  3.200461e-02  1.262456e-01  -1.754908e-01  1.606389e-01  1.026415e-01  -1.794913e-01  3.477836e-02  -4.418110e-03  1.191037e-01  8.574332e-02  -2.566679e-01  1.096820e-01  -1.216349e-01  -1.834114e-01  6.271827e-02  -8.014256e-02  -1.009918e-01  -8.634166e-02  -7.888229e-02  2.907922e-02  -6.057027e-02  1.732955e-01  1.654412e-01  -6.046293e-02  -7.650017e-02  1.069429e-01  -1.662087e-01  3.177995e-02  -8.949349e-02  -1.134615e-01  -1.196277e-01  -1.990534e-01  5.334569e-02  1.773472e-01  1.715350e-01  1.513593e-01  1.612003e-01  5.255135e-02  -2.599722e-01  -3.376292e-02  3.508951e-02  8.913941e-02  1.637306e-01  7.886895e-02  3.594347e-02  -6.397822e-02  -3.083911e-02  4.970220e-02  2.098029e-02  6.182012e-02  7.562541e-03  -5.628553e-02  -1.740925e-03  9.256674e-02  -9.021177e-02  9.622352e-02  4.698623e-02  -1.848584e-01  -1.722846e-01  1.664442e-01  -6.832455e-02  3.825189e-01  8.447898e-02  8.978160e-02  1.219204e-01  8.562994e-03  2.832199e-01  9.471847e-02  -1.808926e-02  -1.066866e-02  2.601732e-02  -1.182102e-01  8.464564e-02  1.714401e-01  1.017451e-01  -1.160973e-01  -3.718471e-02  1.899861e-01  -5.084759e-02  -1.266301e-01  1.079325e-01  -1.341197e-01  1.401435e-01  6.546245e-02  -1.551020e-01  4.309421e-02  -5.561457e-02  -1.439887e-01  1.260894e-01  -9.021243e-02  1.062561e-02  -2.145983e-01  -2.352155e-02  1.569336e-02  -2.888027e-02  2.372676e-01  2.073657e-01  1.963339e-01  -1.045334e-01  -6.680264e-02  1.982665e-03  -5.809403e-03  -7.976820e-02  2.833447e-01  -1.742082e-01  -2.021207e-02  2.696978e-02  -3.013430e-01  -9.709465e-02  -4.520619e-02  -1.205672e-01  -1.253129e-01  -1.776451e-01  1.664050e-01  -6.668399e-02  1.243130e-01  -4.998727e-02  1.920153e-01  -6.008314e-03  1.074210e-02  -5.728026e-02  -7.690886e-02  7.052653e-02  -5.232148e-02  2.222795e-01  -4.059463e-02  7.510653e-03  7.093315e-02  3.973906e-02  1.358465e-01  -1.877616e-01  6.710750e-02  9.118858e-02  -1.185686e-01  -1.490428e-01  -4.712184e-02  1.867880e-01  -1.013410e-01  -2.759718e-01  2.283255e-02  -2.762304e-02  -1.692965e-02  -1.102793e-01  -2.531611e-01  1.479867e-01  -6.765010e-02  -2.181826e-01  -1.305980e-02  -1.009075e-01  2.023916e-01  1.558779e-02  -5.806470e-02  -2.131804e-02  7.158205e-02  -9.867644e-02  -1.427741e-01  3.788795e-02  7.002302e-02  1.627866e-01  3.593298e-02  2.700641e-01  2.272700e-01  2.505015e-01  9.238119e-02  1.806574e-01  6.263787e-02  -1.631391e-01  3.271855e-02  -1.315976e-01  -1.357100e-02  9.560367e-02  -5.480736e-02  4.069481e-02  -1.467972e-01  -6.848612e-02  -7.442723e-02  1.313135e-01  2.281644e-01  8.314862e-03  -4.510247e-02  1.006170e-01  4.165508e-02  1.197781e-01  -8.371927e-02  -1.389294e-02  -1.727801e-02  -2.232888e-01  -1.734974e-02  4.385401e-02  1.466464e-01  1.519400e-01  -1.285128e-01  1.097324e-01  1.591335e-02  3.602070e-02  5.241067e-02  4.362436e-02  4.808864e-02  -5.418489e-02  7.193098e-03  1.373023e-02  2.109632e-02  -1.328319e-01  -9.381281e-02  6.370392e-02  -7.834984e-02  -8.262791e-02  5.871164e-02  1.713551e-01  -6.892029e-03  3.016757e-01  1.044152e-02  2.001256e-02  1.049619e-01  -1.623294e-01  1.285173e-01  6.245206e-02  1.785855e-02  1.381699e-01  -2.514811e-01  -3.443088e-02  -5.712237e-02  -1.531235e-01  3.484513e-01  2.246371e-01  2.327683e-01  -6.965175e-02  -5.838988e-02  6.299269e-02  1.013720e-01  -2.299110e-02  6.219076e-02  -4.441369e-02  -1.669140e-01  1.387155e-01  -2.504659e-01  7.317798e-02  -6.150438e-03  -2.349740e-01  5.315297e-02  -3.996210e-02  1.755309e-01  -1.405629e-01  9.774125e-02  5.077451e-02  1.172937e-01  1.132386e-01  -6.116711e-03  7.675812e-02  -1.424186e-01  -1.075702e-01  -1.429361e-01  1.514517e-01  -1.102396e-02  1.458611e-01  7.077070e-02  5.555439e-02  -6.762725e-02  -3.321542e-01  4.134498e-02  -4.859041e-02  1.049733e-01  6.906135e-02  1.627654e-01  1.318894e-01  -1.323276e-01  -3.059546e-01  -8.327994e-02  1.865365e-02  -1.953504e-01  1.681645e-01  -1.392650e-01  1.211862e-02  -1.967053e-01  -2.038896e-01  -2.231741e-01  4.128315e-02  9.129766e-02  -1.542062e-01  -8.079895e-02  -9.474988e-02  3.155174e-03  5.844150e-02  -3.558954e-02  5.674582e-02  1.425636e-01  2.030979e-02  5.602635e-02  4.408208e-02  -2.098003e-02  1.215239e-01  -4.062963e-02  2.828822e-02  8.023322e-02  -2.748326e-01  7.174549e-02  8.998999e-02  -1.876055e-01  -5.045152e-02  -1.164179e-02  -7.194008e-03  -3.929212e-02  1.068326e-01  1.435136e-03  4.915689e-02  -5.073065e-02  -4.919218e-02  2.062709e-01  -8.771175e-02  -2.487734e-01  1.838757e-01  1.656445e-01  1.752073e-02  -1.223484e-01  -4.340297e-02  1.074264e-01  8.498634e-02  -1.458182e-01  -5.834528e-02  1.432440e-01  -1.039399e-01  -6.103361e-02  -6.104171e-02  -6.208075e-02  9.040765e-02  8.052935e-02  5.840918e-02  -2.874129e-02  -1.417930e-01  1.140431e-01  7.645489e-02  2.198289e-01  -1.050662e-02  -2.729809e-01  1.238565e-01  1.025970e-01  4.267152e-02  1.035854e-01  -1.146964e-01  -1.697117e-01  -8.213256e-02  9.609618e-02  5.695451e-02  -1.042657e-02  6.142429e-02  2.456888e-02  1.461454e-03  1.385688e-01  -1.526166e-01  3.101449e-02  8.160131e-02  5.880576e-02  -5.531548e-02  -7.478743e-04  7.616600e-02  2.353575e-02  1.250815e-01  2.910344e-02  2.475272e-01  -9.990286e-02  -1.298956e-01  7.182980e-02  1.568429e-01  2.032765e-01  -1.473682e-01  -1.436664e-01  -8.032968e-02  6.639474e-02  9.651975e-02  4.883216e-02  -1.271146e-01  6.603961e-02  2.777050e-02  -7.207893e-02  -9.262551e-04  -4.775333e-02  9.036477e-04  -1.948297e-02  8.962325e-02  -5.933380e-02  -2.529178e-01  1.283410e-01  -7.320239e-02  4.535324e-02  1.149506e-01  1.043682e-01  -1.765834e-01  -1.261349e-01  -4.587457e-02  3.067760e-02  1.053048e-01  8.375002e-02  9.731667e-02  1.508469e-01  2.332284e-01  7.942613e-02  1.751464e-03  1.038514e-01  9.876430e-02  1.031837e-01  1.226873e-02  8.874211e-02  -1.323369e-01  -7.104994e-02  7.949350e-02  2.809199e-02  1.045070e-02  4.547960e-02  5.539877e-02  1.029782e-02  6.581871e-02  -2.158670e-02  4.000251e-02  3.396740e-02  8.252575e-02  1.399373e-01  -1.428297e-01  1.783530e-02  -4.687089e-02  -1.749171e-01  -1.356397e-02  1.878399e-02  1.625064e-01  -1.187587e-01  1.677224e-01  8.242009e-02  -1.684431e-01  -5.254692e-02  1.339506e-02  -8.993398e-02  -1.013808e-01  3.942597e-02  -5.211273e-02  1.303468e-01  1.406647e-01  -1.088070e-01  -2.885222e-02  -1.851289e-01  -1.893845e-01  1.233898e-01  -8.736039e-02  -8.053146e-02  1.336775e-02  -1.214855e-02  -1.615243e-02  1.827364e-01  1.697888e-01  -1.047140e-01  5.585849e-02  6.840907e-02  1.189427e-01  -3.374685e-02  4.097462e-02  -8.948176e-02  -7.641829e-02  2.890162e-04  1.574240e-01  1.948047e-02  1.014931e-01  -1.618632e-01  9.010143e-03  9.523726e-02  1.412805e-01  2.765420e-02  -2.076335e-01  8.012579e-02  1.303308e-01  1.370214e-01  -1.084125e-01  -3.390752e-02  -1.236425e-01  1.155076e-01  -1.419025e-01  -1.771794e-01  1.710080e-01  -4.776390e-02  1.084440e-01  8.219314e-02  -8.504352e-02  2.046602e-01  1.707914e-01  -1.833560e-01  1.097626e-02  3.294425e-02  -2.486800e-02  4.916381e-02  -2.121550e-01  -5.754755e-02  1.595809e-01  -6.308189e-02  1.416797e-02  -2.695116e-01  1.630356e-03  7.397800e-02  6.123327e-02  1.382426e-01  1.326102e-01  -7.872009e-02  1.689662e-02  6.887765e-02  5.875618e-03  1.098806e-01  7.250112e-02  4.990485e-03  1.493759e-01  -1.549035e-01  1.071269e-01  7.531042e-02  6.975424e-02  7.361075e-02  1.735561e-02  3.372703e-02  7.459765e-02  -7.823914e-02  -1.124004e-01  -8.094642e-02  -5.119869e-02  -9.499534e-02  -1.414435e-01  2.077306e-02  -1.016392e-01  -1.855342e-01  -1.947020e-01  1.062838e-01  1.017553e-01  -2.358963e-01  1.133581e-01  -2.538925e-01  -8.515698e-02  -6.656321e-02  -4.552580e-02  1.437217e-02  -1.330136e-01  -7.332844e-02  1.489376e-01  5.363467e-02  4.758737e-02  