<?xml version="1.0"?>
<MethodSetup Method="MLP::MLPBNN">
  <GeneralInfo>
    <Info name="TMVA Release" value="4.2.1 [262657]"/>
    <Info name="ROOT Release" value="6.24/04 [399364]"/>
    <Info name="Creator" value="danchepkwony"/>
    <Info name="Date" value="Fri Nov  5 11:14:23 2021"/>
    <Info name="Host" value="Darwin BigSur 20.4.0 Darwin Kernel Version 20.4.0: Thu Apr 22 21:46:47 PDT 2021; root:xnu-7195.101.2~1/RELEASE_X86_64 x86_64"/>
    <Info name="Dir" value="/Users/danchepkwony/Documents/Skoby/basicRoot"/>
    <Info name="Training events" value="197"/>
    <Info name="TrainingTime" value="1.79371119e-01"/>
    <Info name="AnalysisType" value="Classification"/>
  </GeneralInfo>
  <Options>
    <Option name="NCycles" modified="Yes">60</Option>
    <Option name="HiddenLayers" modified="Yes">N+5</Option>
    <Option name="NeuronType" modified="Yes">tanh</Option>
    <Option name="RandomSeed" modified="No">1</Option>
    <Option name="EstimatorType" modified="No">CE</Option>
    <Option name="NeuronInputType" modified="No">sum</Option>
    <Option name="V" modified="Yes">False</Option>
    <Option name="VerbosityLevel" modified="No">Default</Option>
    <Option name="VarTransform" modified="Yes">N</Option>
    <Option name="H" modified="Yes">True</Option>
    <Option name="CreateMVAPdfs" modified="No">False</Option>
    <Option name="IgnoreNegWeightsInTraining" modified="No">False</Option>
    <Option name="TrainingMethod" modified="Yes">BFGS</Option>
    <Option name="LearningRate" modified="No">2.000000e-02</Option>
    <Option name="DecayRate" modified="No">1.000000e-02</Option>
    <Option name="TestRate" modified="Yes">5</Option>
    <Option name="EpochMonitoring" modified="No">False</Option>
    <Option name="Sampling" modified="No">1.000000e+00</Option>
    <Option name="SamplingEpoch" modified="No">1.000000e+00</Option>
    <Option name="SamplingImportance" modified="No">1.000000e+00</Option>
    <Option name="SamplingTraining" modified="No">True</Option>
    <Option name="SamplingTesting" modified="No">False</Option>
    <Option name="ResetStep" modified="No">50</Option>
    <Option name="Tau" modified="No">3.000000e+00</Option>
    <Option name="BPMode" modified="No">sequential</Option>
    <Option name="BatchSize" modified="No">-1</Option>
    <Option name="ConvergenceImprove" modified="No">1.000000e-30</Option>
    <Option name="ConvergenceTests" modified="No">-1</Option>
    <Option name="UseRegulator" modified="Yes">True</Option>
    <Option name="UpdateLimit" modified="No">10000</Option>
    <Option name="CalculateErrors" modified="No">False</Option>
    <Option name="WeightRange" modified="No">1.000000e+00</Option>
  </Options>
  <Variables NVar="3">
    <Variable VarIndex="0" Expression="G1" Label="G1" Title="G1" Unit="" Internal="G1" Type="F" Min="3.00000000e+00" Max="1.90000000e+01"/>
    <Variable VarIndex="1" Expression="absences" Label="absences" Title="absences" Unit="" Internal="absences" Type="F" Min="0.00000000e+00" Max="5.60000000e+01"/>
    <Variable VarIndex="2" Expression="freetime" Label="freetime" Title="freetime" Unit="" Internal="freetime" Type="F" Min="1.00000000e+00" Max="5.00000000e+00"/>
  </Variables>
  <Spectators NSpec="0"/>
  <Classes NClass="2">
    <Class Name="Signal" Index="0"/>
    <Class Name="Background" Index="1"/>
  </Classes>
  <Transformations NTransformations="1">
    <Transform Name="Normalize">
      <Selection>
        <Input NInputs="3">
          <Input Type="Variable" Label="G1" Expression="G1"/>
          <Input Type="Variable" Label="absences" Expression="absences"/>
          <Input Type="Variable" Label="freetime" Expression="freetime"/>
        </Input>
        <Output NOutputs="3">
          <Output Type="Variable" Label="G1" Expression="G1"/>
          <Output Type="Variable" Label="absences" Expression="absences"/>
          <Output Type="Variable" Label="freetime" Expression="freetime"/>
        </Output>
      </Selection>
      <Class ClassIndex="0">
        <Ranges>
          <Range Index="0" Min="6.0000000000000000e+00" Max="1.9000000000000000e+01"/>
          <Range Index="1" Min="0.0000000000000000e+00" Max="5.4000000000000000e+01"/>
          <Range Index="2" Min="1.0000000000000000e+00" Max="5.0000000000000000e+00"/>
        </Ranges>
      </Class>
      <Class ClassIndex="1">
        <Ranges>
          <Range Index="0" Min="3.0000000000000000e+00" Max="1.1000000000000000e+01"/>
          <Range Index="1" Min="0.0000000000000000e+00" Max="5.6000000000000000e+01"/>
          <Range Index="2" Min="1.0000000000000000e+00" Max="5.0000000000000000e+00"/>
        </Ranges>
      </Class>
      <Class ClassIndex="2">
        <Ranges>
          <Range Index="0" Min="3.0000000000000000e+00" Max="1.9000000000000000e+01"/>
          <Range Index="1" Min="0.0000000000000000e+00" Max="5.6000000000000000e+01"/>
          <Range Index="2" Min="1.0000000000000000e+00" Max="5.0000000000000000e+00"/>
        </Ranges>
      </Class>
    </Transform>
  </Transformations>
  <MVAPdfs/>
  <Weights>
    <Layout NLayers="3">
      <Layer Index="0" NNeurons="4">
        <Neuron NSynapses="8">
          -2.3233810954743006e-01 3.1847381622179967e+00 9.2222676341711984e-01 2.8569946382001046e+00 -4.9067305170972988e+00 7.9991219965642790e-01 -6.7835268854279895e-01 4.5462234224612645e+00 
        </Neuron>
        <Neuron NSynapses="8">
          -1.3589222512547472e+00 -2.2675284844532224e+00 -1.5554327329382647e+00 9.2833590800684396e-01 -7.3802376420748739e-01 -9.4776948591815879e-01 -6.3350607583411422e-01 -2.3083689293085713e-01 
        </Neuron>
        <Neuron NSynapses="8">
          -9.4821052026057717e-01 -2.0144241972768062e-01 1.7697217764766132e-01 2.1543870836015868e+00 -2.6169705721126979e-01 -8.9387121746103881e-01 1.8576272260058526e+00 -9.5041902237487463e-01 
        </Neuron>
        <Neuron NSynapses="8">
          -8.0526874773787227e-01 -2.7022134486786031e-01 1.8364150045163445e+00 -1.3444962585755433e+00 5.1430662877394684e-01 -3.8635962628085513e-01 -1.2833210083418212e+00 -7.4368832126040962e-01 
        </Neuron>
      </Layer>
      <Layer Index="1" NNeurons="9">
        <Neuron NSynapses="1">
          -2.1523314551961567e-01 
        </Neuron>
        <Neuron NSynapses="1">
          1.8191533192635103e+00 
        </Neuron>
        <Neuron NSynapses="1">
          2.9231510067957811e+00 
        </Neuron>
        <Neuron NSynapses="1">
          2.2597912977096328e+00 
        </Neuron>
        <Neuron NSynapses="1">
          -3.0485815332117330e+00 
        </Neuron>
        <Neuron NSynapses="1">
          -1.1358320475629717e+00 
        </Neuron>
        <Neuron NSynapses="1">
          -1.2289404874473684e+00 
        </Neuron>
        <Neuron NSynapses="1">
          3.4529507928587018e+00 
        </Neuron>
        <Neuron NSynapses="1">
          3.3430035930036812e+00 
        </Neuron>
      </Layer>
      <Layer Index="2" NNeurons="1">
        <Neuron NSynapses="0"/>
      </Layer>
    </Layout>
    <InverseHessian NElements="1681" NRows="41" NCols="41">
      <Row Index="0">
        1.1209323344606947e+05 1.2458962501821866e+03 -1.6537658864636855e+04 -6.6960224293948079e+02 3.4662126286537377e+03 2.2279601758851841e+04 1.6118678290538105e+03 -2.0016770102837684e+03 5.2350493802461307e+04 -2.3641408635171575e+02 1.3127946091468815e+04 6.7571260616331460e+02 1.9719062046878771e+03 3.0019682248954941e+03 1.0977273642999808e+02 1.2074045189227488e+02 1.5610863018795631e+04 -8.8863510179900103e+01 -1.2836104160163347e+03 -2.5449227399783649e+03 1.4350944880554098e+03 -1.3185283790101619e+03 1.2059335199929503e+03 5.3725840170365802e+02 5.2946515321035498e+04 7.0704104309359252e+01 -2.7853490282421649e+02 2.5179206469354285e+03 1.0798540456604642e+03 4.6450544214350302e+03 7.8004267239759918e+02 3.3987737303169610e+02 -4.2912847186688901e+04 -5.4678897631510665e+02 5.2793816789997887e+04 1.5923872583188659e+03 -4.6624951247486888e+03 4.5047659693459398e+04 1.5108634004737278e+03 -1.5925091206099908e+03 -4.7169884071903842e+04 
      </Row>
      <Row Index="1">
        1.2458962502662851e+03 3.3892378535888167e+02 -2.4559413655768731e+02 -8.9599902558152365e+01 -7.0651803485680020e+01 2.4347950642821201e+02 -1.2781308781796606e+02 -7.6853929197701177e+01 8.0727776334701798e+02 -2.1874851763734549e+02 4.2491234570404794e+02 -1.1970005093502256e+02 -9.6758016400210096e+01 -1.4512401619969540e+02 -1.0256386103831890e+02 1.3149895274554432e+01 5.3318284328441806e+01 4.2184450281556394e+01 1.6056400310643988e+02 5.6783458626417371e+01 -2.0128393257728774e+01 -1.1842285130792665e+02 4.8722713595445548e+01 3.6225605375158949e+01 1.1915153643892227e+03 -5.0557710453594339e+01 6.6560284473846508e+01 -1.6275522482539048e+02 -6.4517014444168794e+01 -2.8520969742113283e+02 -1.4219217940802488e+02 1.1475352378285590e+01 -4.6767346444912681e+02 -3.1960028382532931e+02 1.5274260928854744e+03 1.1163077989217597e+02 2.1066911367304547e+02 9.5260188324215414e+02 1.5408121587673065e+02 1.9842607296771803e+02 -1.4180371364000869e+03 
      </Row>
      <Row Index="2">
        -1.6537658861824424e+04 -2.4559413629003757e+02 1.8969455250694882e+04 -9.8303244541557660e+01 -7.4057999529832773e+02 -4.9234817978525716e+03 2.7101335821845146e+02 1.3480563664231079e+02 -5.2391914982535980e+01 -3.4837829140733436e+02 -1.4680030839558340e+04 -4.6194977517453793e+02 -3.0276536613815171e+02 -5.7177196208881560e+02 8.2454653510486753e+02 -3.9718775641157542e+01 -5.0405021962650808e+03 5.5666968146350804e+01 4.4824880016916370e+02 1.0726497939014262e+03 -2.0132624345104387e+02 4.9283068992025244e+02 -1.4525205077759265e+03 1.5270925119016792e+02 1.0797169445690879e+03 -4.1505194778046757e+02 -2.5318974139356110e+03 -1.1953069814858991e+03 -1.7889215138082952e+02 -1.0779719453149662e+03 7.9819939836203400e+02 -4.8178237903019806e+01 7.5722073745835687e+03 3.1062645675123866e+02 -6.6453269650164686e+04 -4.2244105965756216e+02 1.1122535493806947e+03 -9.8306304512702136e+03 -1.9269687771384122e+03 7.0676279058714090e+02 6.4848005448539036e+04 
      </Row>
      <Row Index="3">
        -6.6960224279384772e+02 -8.9599902552252331e+01 -9.8303244614486175e+01 7.5115614159734150e+02 1.6925487448196893e+02 5.6138118035584887e+02 3.8203319409872179e+01 7.0695466419687961e+01 1.9212157502103171e+03 6.0621676191058626e+01 -1.0395443621612583e+02 1.7801140057645716e+02 1.6229150052072492e+02 -3.2103248502112569e+02 4.9312905007082605e+01 -6.0762202395853556e+01 2.9822282853119248e+02 -2.5503214366460618e+01 1.0070975130559114e+02 6.3911309853290895e+01 2.1330009635364974e+02 9.9646772347998422e+01 1.1551804277068941e+02 -5.9396875770999152e+01 1.0999176035551229e+03 -3.9288719768434461e+00 -2.0545511644779478e+02 2.4415750258801177e+02 6.9278266813653005e+01 -2.8208133562111414e+01 5.2911466211714469e+01 -2.3394523298042948e+01 -4.9535058714615781e+02 1.5011754857156433e+02 -7.7692443499731417e+02 -3.1167821931308322e+02 -3.5778902367778960e+02 3.0490235756669807e+02 1.1819024531211053e+02 -5.0306555886867466e+02 4.9647239973256251e+02 
      </Row>
      <Row Index="4">
        3.4662126280737730e+03 -7.0651803503644359e+01 -7.4057999441797074e+02 1.6925487448840556e+02 1.8654899417207514e+03 1.3938985907045517e+03 -8.4273632884415193e+00 2.8320184905773152e+02 2.3028237682217141e+03 9.9320492204215327e+01 8.1098154923113611e+01 1.0036374004368983e+02 1.9179265726825838e+02 1.1834754317205591e+02 4.0433834193174363e+01 -6.5418159538920889e+01 9.9996001937066126e+02 2.7081299237981622e+01 4.0192888229683547e+02 4.3990938457748661e+02 -1.5116378933200531e+02 9.8259057510608727e+01 5.0128119936005184e+01 -1.5613741683790917e+02 6.4962126025912721e+02 2.8979820456840667e+01 4.5430317944083427e+01 -8.1628647938973259e+01 1.8847706595025983e+02 5.7189077138783728e+02 3.4602443229345468e+01 -1.0590408742817456e+02 -1.8098899277355308e+03 1.3361919644510331e+02 1.0033146500677672e+03 -1.1602750978368572e+03 -2.3785753782542288e+03 1.9424109072192282e+03 1.2898507797064462e+02 -4.9038050717230436e+02 -2.3691630908633829e+02 
      </Row>
      <Row Index="5">
        2.2279601758454060e+04 2.4347950638825660e+02 -4.9234817982602399e+03 5.6138118032334023e+02 1.3938985908894538e+03 8.2079991582619732e+03 -1.8379978861019589e+02 -5.5565719190786353e+02 1.3979108816643002e+04 1.8651590449943015e+02 3.7291417083143706e+03 1.9070646900228479e+02 4.5369809626350082e+02 4.3520566997761716e+02 2.7341446102185643e+01 9.8536846690406676e+01 5.0002674478297822e+03 -3.3894428709415806e+01 6.9163608447672516e+02 -1.1781287071220659e+02 1.9297520548635427e+02 -1.0568619752585801e+02 4.6631130371627683e+02 1.0344196188496427e+02 9.4922007518852897e+03 1.4652774490381819e+02 3.2640880743775494e+02 4.6038393729268637e+02 1.9459140257476614e+02 2.2692469773553089e+03 -8.3304292794447036e+01 1.1284580911717377e+02 -1.1246325313196492e+04 2.0135125069677616e+02 1.5930467055769997e+04 -6.6320921147293711e+02 -1.7529345231268244e+03 1.1816649796501057e+04 7.1892892627914500e+02 -5.3935034158659255e+02 -1.4947401757606985e+04 
      </Row>
      <Row Index="6">
        1.6118678293701782e+03 -1.2781308780122993e+02 2.7101335798711807e+02 3.8203319408181414e+01 -8.4273633199518372e+00 -1.8379978853156527e+02 4.6977045117869454e+02 1.1049426305162260e+02 2.3441006257769195e+03 9.0914733138031920e+00 -5.0171954637702481e+02 1.2458560108112724e+02 5.6157007192788484e+01 -1.1986746030916429e+02 1.3471865746701931e+02 -5.7503350661109565e+01 1.9799089501745840e+02 -8.4285177736378678e+00 -3.2680244289884052e+02 -2.6314891318810726e+02 2.9795064290096029e+01 -1.0356850174192004e+01 -1.0451214867242786e+01 -2.1961440782740826e+00 2.1878398401701779e+03 -4.2272089716510763e+01 -3.6099934655147752e+02 3.1731817811716252e+02 5.4310616657543676e+01 -1.6695903120142287e+02 2.9923176110280610e+02 -5.4683488092050709e+01 -6.9994559858531011e+02 7.4640661726361074e+01 -2.3383167504254898e+03 8.1324196187893136e+01 8.1080565952638210e+01 4.5826339050102649e+02 -1.2666159584884146e+02 -9.7412520205436422e+01 2.3184720384570905e+03 
      </Row>
      <Row Index="7">
        -2.0016770101756049e+03 -7.6853929192781038e+01 1.3480563664482906e+02 7.0695466420678713e+01 2.8320184904302369e+02 -5.5565719189154140e+02 1.1049426305824547e+02 3.8717279448407612e+02 3.0221539178352032e+01 -2.8052774059695338e+00 -2.7207191313957014e+02 -1.4596351997514574e+01 3.3847587613462167e+01 -3.5577595710000844e+02 -8.7567231537484300e+00 -3.1762579120453431e+01 1.5387838082725975e+02 2.8651985447244098e+01 1.5778196974809453e+02 -1.1460835244766874e+02 1.8268797208561139e+01 -5.1573697342396372e+01 8.0018632093606243e+01 -9.8164653980018116e+01 -2.9112926496766232e+02 -3.8228487798377820e+01 -9.5742306363491281e+01 8.8777133346449958e+01 5.9588916498005332e+01 -3.5049352607236210e+02 2.9951180158511271e+01 -2.6372590081335638e+01 6.6954160768530073e+02 -1.4009720455534042e+01 -1.2023896508893438e+03 3.3099654189939542e+01 -3.1767322548822341e+02 -5.1167310543369746e+02 6.8956398167650377e+01 -3.6067110678159651e+02 1.2929464321795824e+03 
      </Row>
      <Row Index="8">
        5.2350493808677937e+04 8.0727776359578274e+02 -5.2391921882925089e+01 1.9212157500977119e+03 2.3028237680918101e+03 1.3979108818438184e+04 2.3441006255514953e+03 3.0221539014172080e+01 7.2752877733818867e+04 -9.1262415307080732e+02 -1.0477273284655869e+03 -2.7166508952980712e+02 1.1279905685048343e+03 -6.2543467153710062e+03 1.8614991607013042e+03 6.7959052647854691e+01 9.5915174039020494e+03 2.3852079613843804e+02 2.4028266980890476e+03 -6.2907150002282287e+02 1.1122538663810101e+03 -5.1457055015236256e+02 -6.4421228035781240e+01 2.6055426941638598e+02 6.4537015466470948e+04 -7.7211785983226798e+02 -2.7799484604962154e+03 7.2640175583808377e+02 5.9262764147914538e+02 -2.9128556863856256e+03 2.1897256720405703e+03 1.8213984564641225e+02 -2.6334850029746169e+04 -4.6593776801861077e+02 -8.4447445889399205e+03 -3.9038074901329946e+02 -2.5995299509257434e+03 2.6628906811368255e+04 -1.5286462367902800e+01 -2.3076041784284703e+03 1.0217347018810908e+04 
      </Row>
      <Row Index="9">
        -2.3641408660822663e+02 -2.1874851764923358e+02 -3.4837829109911399e+02 6.0621676194447446e+01 9.9320492220816050e+01 1.8651590442777635e+02 9.0914733217164247e+00 -2.8052773998502563e+00 -9.1262415311529639e+02 2.1215452604943482e+02 1.8513509249885325e+02 1.0269242592542356e+02 9.9053549799081964e+01 2.6589654186155479e+02 4.0911463431882026e+01 2.2646111394211498e+01 -8.7105115831854221e+00 -3.8484440515240962e+01 -9.9183710544868518e+01 1.0547068274531904e+01 -4.6937776725251297e+00 9.1488247116304137e+01 -1.5290064127388552e+01 -1.6956494086531734e+01 -1.2471545827055297e+03 8.9252021422924102e+01 1.2584118751247441e+02 8.9386548051681132e+01 6.6255270061358772e+01 4.2724173867557374e+02 4.5610252815368391e+01 2.1245156087240286e+01 3.8133245363681453e+01 2.4572334953209480e+02 1.1935426599158602e+03 -1.4676562774669654e+02 -2.3636446006485482e+02 -3.4940440810769798e+02 -7.2226997788132394e+01 -1.1067304833299310e+02 -1.2294953895092442e+03 
      </Row>
      <Row Index="10">
        1.3127946089192621e+04 4.2491234547613203e+02 -1.4680030839779414e+04 -1.0395443628088105e+02 8.1098155688785482e+01 3.7291417080093038e+03 -5.0171954658451398e+02 -2.7207191314007338e+02 -1.0477273344636988e+03 1.8513509277021836e+02 1.2918694536793912e+04 2.5428382368658171e+02 4.9326216654783127e+02 4.4855692960181022e+02 -8.5662227592521970e+02 1.9483809545731245e+02 3.6890362113071351e+03 -3.8482696774539036e+01 -5.9480675028992118e+02 -7.4405745729911575e+02 2.8015022822868195e+02 -4.8362735687042004e+02 1.0583743451087284e+03 -4.6302378264816070e+01 -1.7025516363194066e+02 3.2086794489520020e+02 2.5596298319992266e+03 6.0870606860099304e+02 2.9447136645345415e+02 5.9402428168233973e+02 -8.9792919342299069e+02 2.2896844392302205e+02 -5.4562060674151289e+03 -4.4479882058247750e+02 5.7324403952322835e+04 8.1612114372353983e+02 -3.9440627240630357e+02 7.3557400352612794e+03 1.5193233723785002e+03 -5.4082502111393796e+02 -5.5962626535579271e+04 
      </Row>
      <Row Index="11">
        6.7571260593704437e+02 -1.1970005094425534e+02 -4.6194977492429462e+02 1.7801140057893326e+02 1.0036374005602011e+02 1.9070646894016551e+02 1.2458560108683342e+02 -1.4596351992291499e+01 -2.7166508957697033e+02 1.0269242592510416e+02 2.5428382346726482e+02 2.3912563882753977e+02 7.9797899812755105e+01 2.7512468734428074e+02 2.5891190736108360e+01 -2.2971510006082315e+01 1.0041977128399243e+02 -4.0080810207277068e+01 -4.1074368345456332e+02 5.6092622094750261e+01 -3.9891306843588836e+01 2.8149767884350240e+01 2.2953377943960561e+01 -1.4903860080987670e+01 -4.1916990487381918e+02 3.4992824469585287e+01 -1.3543577837171802e+02 2.0936897892591682e+02 5.8406376841660382e+01 3.1175204373808702e+02 9.4376886502121835e+01 -2.5904125613343311e+01 -3.9703727079336181e+02 1.4131052334708787e+02 9.7536144454695284e+02 -3.5414066460087975e+02 -1.6378748277099959e+02 1.2298916004112095e+02 -4.6102537424804837e+01 -2.6700393686149710e+01 -1.1505982701160199e+03 
      </Row>
      <Row Index="12">
        1.9719062046445736e+03 -9.6758016407350055e+01 -3.0276536603367276e+02 1.6229150051812803e+02 1.9179265728995142e+02 4.5369809625258995e+02 5.6157007192906761e+01 3.3847587612601174e+01 1.1279905684012124e+03 9.9053549803726156e+01 4.9326216644935653e+02 7.9797899817191791e+01 3.8670853542146989e+02 5.9399654395346914e+01 -9.1620615955472440e-01 1.8558804905090184e+01 5.4079377523970311e+02 -2.3019384957879804e+01 -1.7100962129136678e+02 -2.3208136404062697e+02 2.9617447819386985e+02 -9.8303405063475111e+00 6.1679534916199600e+01 -5.6417804397751183e+01 1.2373596810985835e+03 2.9741920441766190e+01 6.2017687103185992e+01 2.0272025902618799e+02 2.4332277010969420e+02 1.6999310656942180e+02 3.4393237152006314e+01 6.9088650191177919e+01 -7.6265291219523669e+02 1.2261223439096739e+02 1.7448156622232123e+03 3.3625887766273553e+02 -6.7428926401167701e+02 5.7645974240941587e+02 9.5404562035266451e+00 -6.8883062702976713e+02 -1.3060428913279752e+03 
      </Row>
      <Row Index="13">
        3.0019682236619929e+03 -1.4512401624108122e+02 -5.7177196071564686e+02 -3.2103248500615427e+02 1.1834754318553314e+02 4.3520566963112924e+02 -1.1986746027050066e+02 -3.5577595707495891e+02 -6.2543467154392947e+03 2.6589654184870290e+02 4.4855692840989786e+02 2.7512468733460986e+02 5.9399654359789125e+01 2.0659318213597171e+03 -1.2701587133560086e+02 -7.1868460796976299e+00 2.2024778377257977e+02 -1.0107450240218037e+02 -9.2217524705714277e+02 3.2498616270747895e+01 -1.3908839977975322e+02 4.8207384991927938e+01 -7.8433160988398299e+01 1.4766440940734128e+01 -6.0034228018427420e+03 1.9644800927376741e+02 9.0835298790125307e+01 1.9024360253380641e+02 1.2411395217699521e+01 1.8990391858446237e+03 -5.5830409159537169e+01 -2.3111462112755163e+01 -5.6611256843641604e+02 2.4280455062654323e+02 2.1807293377139385e+03 -2.8105003729654186e+02 -3.0597610523265922e+02 2.8158558871294304e+00 -2.1751534592338470e+02 2.7020984753226730e+02 -2.1630232895231093e+03 
      </Row>
      <Row Index="14">
        1.0977273668894333e+02 -1.0256386101973385e+02 8.2454653501906432e+02 4.9312905009977840e+01 4.0433834145082074e+01 2.7341446153888072e+01 1.3471865747734861e+02 -8.7567231561230532e+00 1.8614991611045384e+03 4.0911463414966697e+01 -8.5662227583904860e+02 2.5891190722916605e+01 -9.1620616393472210e-01 -1.2701587141100018e+02 2.8127235177460676e+02 -4.0528081042881547e+00 -3.0180855204250565e+02 -2.0627570322059618e+01 3.6707096424124757e+01 6.7503813902114473e+01 -3.0794337747922327e+01 1.0283802219520476e+02 -1.7072147371841459e+02 1.3935742865025532e+01 1.4061817192044430e+03 -9.5615333885860032e+00 -2.9084851071812227e+02 9.4421648548201347e+00 6.8001602897097513e-01 2.9672854516869648e+01 2.8169291698184753e+02 -1.0945333092631088e+01 -1.4339158496276832e+02 1.3612200343101404e+02 -3.7067703019390219e+03 -1.7742954378896633e+02 -2.1109359647815158e+01 -2.9869204335713482e+02 -2.7812290207821940e+02 4.6198507251471909e+01 3.5776673827368518e+03 
      </Row>
      <Row Index="15">
        1.2074045187877269e+02 1.3149895272233550e+01 -3.9718775701556297e+01 -6.0762202397209421e+01 -6.5418159526667296e+01 9.8536846694779413e+01 -5.7503350667058044e+01 -3.1762579121035891e+01 6.7959052536531885e+01 2.2646111399506577e+01 1.9483809550715915e+02 -2.2971510001999896e+01 1.8558804907696839e+01 -7.1868460607639264e+00 -4.0528081090543804e+00 9.8280959665086513e+01 -2.2440584131749688e+01 1.5101742075802382e+00 2.0600881503257369e+01 2.6481926326636199e+01 -6.0738168487597477e+01 -4.7778216760196756e+01 -1.9332939378952943e+01 4.8588288715446765e+01 1.7051398077092799e+02 2.1442961391957951e+01 1.3382420532695869e+02 -6.2258747222170456e+01 5.1196229258743926e+01 4.3057845771643983e+01 -3.1168809567025448e+01 7.7843956459067300e+01 1.1307351011357696e+00 -7.6526858656191052e+00 8.8486600703910324e+02 2.8708684787212107e+01 1.9412351425549735e+02 3.0514601410241315e+01 -2.4498851068320427e+01 2.1412732295760591e+02 -8.2093575024236964e+02 
      </Row>
      <Row Index="16">
        1.5610863018592163e+04 5.3318284290468910e+01 -5.0405021967244102e+03 2.9822282849795738e+02 9.9996001954127860e+02 5.0002674478663148e+03 1.9799089494579300e+02 1.5387838080760241e+02 9.5915174022611591e+03 -8.7105115131175310e+00 3.6890362116583774e+03 1.0041977134317142e+02 5.4079377525692666e+02 2.2024778410545423e+02 -3.0180855209271692e+02 -2.2440584134750260e+01 9.6309096001567923e+03 -4.4283701472190387e+01 2.8954334689988173e+00 -1.4063363513616659e+03 5.5449665342955268e+02 -1.1449960196980392e+03 8.6821364024642480e+02 -4.5307016413598831e+01 5.6933197811192922e+03 -1.6276095883722626e+01 -2.3313776658997813e+02 1.1957409637236740e+03 2.7743816650786869e+02 1.5703956025611299e+03 -6.6033943802798703e+01 3.2518019394932963e+01 -8.0518914962355484e+03 -5.0843169722425955e+01 1.4738504892981311e+04 7.3598427027559717e+02 -1.3285693531260113e+03 8.9278167079409995e+03 9.8279712191776332e+02 -1.4924747718090659e+03 -1.3163950680754557e+04 
      </Row>
      <Row Index="17">
        -8.8863510129499986e+01 4.2184450283610886e+01 5.5666968084255132e+01 -2.5503214367274950e+01 2.7081299235917868e+01 -3.3894428695378551e+01 -8.4285177754071317e+00 2.8651985446112008e+01 2.3852079613945864e+02 -3.8484440514893947e+01 -3.8482696720284075e+01 -4.0080810207095304e+01 -2.3019384956585860e+01 -1.0107450240298878e+02 -2.0627570325607969e+01 1.5101742084820839e+00 -4.4283701457993629e+01 2.0176580462589161e+01 9.4117435306974244e+01 1.3670978557465103e+01 -1.1505503863945194e+01 -1.5520983998085796e+01 8.0503073365037778e+00 -3.6603761380122251e+00 2.6329232002348488e+02 -1.7634187737058056e+01 2.4440284813976859e+01 -4.7231392044115957e+01 -1.2227494782705342e+01 -1.2852880744406943e+02 -2.5748013720735713e+01 -2.4091862973843838e+00 2.1589146181112824e+01 -5.9359523169038987e+01 -1.4485123635074066e+02 1.4872645652093020e+01 -3.0650990660841573e+00 1.0618692600658918e+02 3.3319895002595082e+01 8.6172449228587276e+00 1.7031964820170271e+02 
      </Row>
      <Row Index="18">
        -1.2836104155902158e+03 1.6056400312523203e+02 4.4824879972508643e+02 1.0070975130132410e+02 4.0192888227254844e+02 6.9163608458971657e+02 -3.2680244290778046e+02 1.5778196973982267e+02 2.4028266982114174e+03 -9.9183710546857952e+01 -5.9480674990022339e+02 -4.1074368345636731e+02 -1.7100962128351955e+02 -9.2217524708150836e+02 3.6707096400321404e+01 2.0600881510313727e+01 2.8954335808489304e+00 9.4117435307906760e+01 1.5204349374508383e+03 1.1441630584214272e+02 1.0912800962339134e+01 5.4638533148362512e+01 8.6927230650997728e+01 -2.7307697766742194e+01 1.1998040132802639e+03 -3.5884244237696770e+01 2.8346501405870004e+02 -3.7724645134261954e+02 -1.2218617489107595e+02 -5.1158274397403568e+02 -1.7347548825263652e+02 6.1217715756025228e+00 -6.3875860178261519e+01 -1.4324295144629036e+02 -1.9069944071961470e+03 4.8641342118798093e+01 -2.9166968613153711e+02 7.7553470791061386e+02 2.9247437290849899e+02 -9.9107523632431480e+01 2.1367098528942497e+03 
      </Row>
      <Row Index="19">
        -2.5449227402996767e+03 5.6783458624862078e+01 1.0726497944204166e+03 6.3911309865985459e+01 4.3990938454511343e+02 -1.1781287082847267e+02 -2.6314891315967157e+02 -1.1460835243195015e+02 -6.2907149963925417e+02 1.0547068251953831e+01 -7.4405745773768240e+02 5.6092622075732152e+01 -2.3208136405283270e+02 3.2498616185283225e+01 6.7503813934907839e+01 2.6481926320777845e+01 -1.4063363514541516e+03 1.3670978561878258e+01 1.1441630587996042e+02 1.1548464612015664e+03 -4.5137686198617712e+02 2.2787917403864958e+02 -3.4206878254492426e+02 2.3357189617887343e+01 -5.9636936162556742e+02 1.6439319780530578e+01 1.1477813498337309e+02 -6.9922977640306112e+02 -1.4062532592878435e+02 1.9883185811378297e+01 -4.8357875703092134e+01 -3.9252803011440584e+01 9.6295298350349913e+02 3.0426542581995136e+01 -2.6739695678171320e+03 -1.5258674829009262e+03 -4.2592843181989156e+02 -1.1973931797220928e+03 -2.4551833365314849e+02 6.2411696829323466e+02 1.9988624942147399e+03 
      </Row>
      <Row Index="20">
        1.4350944882894460e+03 -2.0128393254165587e+01 -2.0132624365353149e+02 2.1330009634802900e+02 -1.5116378932393650e+02 1.9297520555239041e+02 2.9795064282976540e+01 1.8268797200888514e+01 1.1122538663271721e+03 -4.6937776667267368e+00 2.8015022839908659e+02 -3.9891306838245157e+01 2.9617447819934318e+02 -1.3908839975315055e+02 -3.0794337759542270e+01 -6.0738168485049741e+01 5.5449665348418182e+02 -1.1505503865223162e+01 1.0912800950650535e+01 -4.5137686199542532e+02 4.9275234742008831e+02 -2.4885204524044525e+01 1.2000750250495301e+02 -6.7256108843769226e+01 1.4184132699055713e+03 -1.7150287246147489e+01 -7.2412578228983421e+01 2.5324344476482543e+02 1.2335854535056524e+02 -1.3736808919843395e+02 -1.0972979252522375e+01 3.1247769816385102e+01 -5.1317085813978838e+02 1.9313195350148902e+01 6.0119899043161922e+02 8.1632665429162705e+02 -3.4044892077046745e+02 4.9333896204460933e+02 1.0803660495913675e+02 -8.8892935106935067e+02 -2.2833820002220267e+02 
      </Row>
      <Row Index="21">
        -1.3185283790616595e+03 -1.1842285130619371e+02 4.9283069011669431e+02 9.9646772353683446e+01 9.8259057491874046e+01 -1.0568619755492166e+02 -1.0356850160081081e+01 -5.1573697337837530e+01 -5.1457054991731752e+02 9.1488247105261635e+01 -4.8362735703611048e+02 2.8149767875690031e+01 -9.8303405117765692e+00 4.8207384949467112e+01 1.0283802220949325e+02 -4.7778216761778680e+01 -1.1449960197230641e+03 -1.5520983996045999e+01 5.4638533165845729e+01 2.2787917403392530e+02 -2.4885204519200670e+01 3.4831590644933658e+02 -1.3730020204859102e+02 -2.3713225293878281e+01 -7.3876492965458476e+02 2.5986761813383207e+01 4.8991852205006580e+01 -1.0412638893302780e+02 -3.7933228894346428e+01 9.9875164154796948e+01 5.8938816083675377e+01 -4.4448405549075822e+01 4.9439784156291171e+02 1.9090020601354490e+02 -1.6608546702525264e+03 -2.9081429069594424e+02 -2.1919307891177789e+02 -8.5686960646542548e+02 -1.3754799331361465e+02 -2.3019487464105325e+01 1.4241213680911947e+03 
      </Row>
      <Row Index="22">
        1.2059335198887641e+03 4.8722713579966239e+01 -1.4525205079047882e+03 1.1551804276309122e+02 5.0128119994224107e+01 4.6631130371582975e+02 -1.0451214888129471e+01 8.0018632090342180e+01 -6.4421228549201032e+01 -1.5290064103739894e+01 1.0583743452052640e+03 2.2953377963087860e+01 6.1679534925369808e+01 -7.8433160887225498e+01 -1.7072147373197117e+02 -1.9332939381142069e+01 8.6821364024006925e+02 8.0503073317740927e+00 8.6927230615401641e+01 -3.4206878251529167e+02 1.2000750249128123e+02 -1.3730020203821368e+02 3.1516388066604895e+02 -4.0915800464495987e+01 -3.2944932833383865e+02 8.0116707083589329e+00 1.3859261724443786e+02 2.7431006588559154e+02 3.8296410998614761e+01 -5.1980458584228231e+00 -1.5934343830060180e+02 -4.6426296569547372e+00 -7.4483378221160274e+02 -8.4443117872965558e+01 4.5255576824108775e+03 3.2246253753610381e+02 -4.5786760483007392e+01 1.2037987049269288e+03 3.6720124226389316e+02 -2.5275712141373333e+02 -4.2695956391276759e+03 
      </Row>
      <Row Index="23">
        5.3725840177340638e+02 3.6225605378882605e+01 1.5270925105616789e+02 -5.9396875772114299e+01 -1.5613741684044498e+02 1.0344196190988697e+02 -2.1961440838237110e+00 -9.8164653982238747e+01 2.6055426939132514e+02 -1.6956494084799786e+01 -4.6302378147260555e+01 -1.4903860079637653e+01 -5.6417804396141221e+01 1.4766440940340637e+01 1.3935742857199040e+01 4.8588288717623037e+01 -4.5307016390976059e+01 -3.6603761381079103e+00 -2.7307697769237961e+01 2.3357189614115107e+01 -6.7256108843842128e+01 -2.3713225297075041e+01 -4.0915800455495095e+01 7.3791654594836601e+01 4.1434736616980240e+02 1.4554921941321695e+00 1.7867639452146250e+01 -3.9392255790921411e+01 -1.4354302353097802e+01 2.1233507871227456e+01 9.9179326131074870e+00 3.2982349461156772e+01 -1.4741830649061893e+02 -1.2599733872173545e+01 -2.1029965266812198e+02 7.2092855459297880e+00 3.5022971568255622e+02 1.3844953706661545e+02 -3.6479503004478644e+01 3.1704818042134093e+02 1.6893468144105054e+02 
      </Row>
      <Row Index="24">
        5.2946515327362984e+04 1.1915153646281533e+03 1.0797169373975485e+03 1.0999176034384182e+03 6.4962126017326955e+02 9.4922007537268601e+03 2.1878398399291891e+03 -2.9112926513566435e+02 6.4537015466173070e+04 -1.2471545826403089e+03 -1.7025515741007257e+02 -4.1916990481163521e+02 1.2373596812205406e+03 -6.0034228017103005e+03 1.4061817187853806e+03 1.7051398088237960e+02 5.6933197828024140e+03 2.6329232001849914e+02 1.1998040131292510e+03 -5.9636936200453670e+02 1.4184132699601068e+03 -7.3876492988495011e+02 -3.2944932780826821e+02 4.1434736618708030e+02 6.6235735959615107e+04 -8.5515990083243526e+02 -2.2530099207768799e+03 1.2308315484741894e+02 7.5187745784129788e+02 -5.1458740761625613e+03 1.8350685548099157e+03 3.9485724282665024e+02 -2.2193537861213023e+04 -1.0957481660932444e+03 -6.0360631277727671e+03 1.1602339324676354e+03 -1.1538680201442271e+03 2.2790739968861424e+04 -2.1639284890258068e+02 -1.7451846174914253e+03 8.0976350574454427e+03 
      </Row>
      <Row Index="25">
        7.0704104107511739e+01 -5.0557710464503657e+01 -4.1505194760998711e+02 -3.9288719760188542e+00 2.8979820478705733e+01 1.4652774485426107e+02 -4.2272089716074106e+01 -3.8228487794769535e+01 -7.7211785997341212e+02 8.9252021427810661e+01 3.2086794474216083e+02 3.4992824473607811e+01 2.9741920440493743e+01 1.9644800930162791e+02 -9.5615333807053844e+00 2.1442961388116579e+01 -1.6276095932473936e+01 -1.7634187738223318e+01 -3.5884244243531612e+01 1.6439319801581178e+01 -1.7150287252748512e+01 2.5986761822808148e+01 8.0116706931477779e+00 1.4554921910498706e+00 -8.5515990098802979e+02 5.8219864943158584e+01 1.4516363513524266e+02 1.5249978537265610e+01 2.1673057346516678e+01 2.5015424048343644e+02 -2.0286537362997329e+01 1.8630505251968522e+01 -2.0893464571541244e+01 7.5799350808727809e+01 1.6623873911967432e+03 -5.4734877687039024e+01 -7.2408122199246193e+01 -4.9847354095357161e+01 -2.7421503534135354e+00 1.3467933325663203e+01 -1.6518540134897835e+03 
      </Row>
      <Row Index="26">
        -2.7853490349934145e+02 6.6560284414644229e+01 -2.5318974138228223e+03 -2.0545511645764054e+02 4.5430318125916529e+01 3.2640880732299229e+02 -3.6099934659259088e+02 -9.5742306357475172e+01 -2.7799484618489578e+03 1.2584118757386207e+02 2.5596298318567187e+03 -1.3543577832277697e+02 6.2017687125870907e+01 9.0835299055964128e+01 -2.9084851072744618e+02 1.3382420531207100e+02 -2.3313776670869447e+02 2.4440284801687994e+01 2.8346501397398242e+02 1.1477813509234504e+02 -7.2412578266321361e+01 4.8991852249389922e+01 1.3859261721011535e+02 1.7867639423309811e+01 -2.2530099221880464e+03 1.4516363516660931e+02 1.4395150673363096e+03 -2.8520902523951327e+02 2.4485728075269080e+01 9.6458159079003110e+01 -4.1421360019844536e+02 1.1106825427948237e+02 3.3966110475601090e+02 -3.0511215643413379e+01 1.3153814749710700e+04 1.0307472624310300e+02 7.4197443814747260e+01 1.9882164541458428e+02 3.3780790341834927e+02 1.5336411164325636e+02 -1.3019042132585379e+04 
      </Row>
      <Row Index="27">
        2.5179206469610008e+03 -1.6275522483041266e+02 -1.1953069816050993e+03 2.4415750258224216e+02 -8.1628647912928500e+01 4.6038393731602469e+02 3.1731817810480061e+02 8.8777133340803175e+01 7.2640175558743567e+02 8.9386548063924323e+01 6.0870606869649589e+02 2.0936897893667901e+02 2.0272025902915701e+02 1.9024360258926077e+02 9.4421648452608906e+00 -6.2258747221474692e+01 1.1957409637347787e+03 -4.7231392046694793e+01 -3.7724645136279833e+02 -6.9922977638926352e+02 2.5324344475496491e+02 -1.0412638893004259e+02 2.7431006588907059e+02 -3.9392255793660524e+01 1.2308315458864774e+02 1.5249978546329430e+01 -2.8520902521196695e+02 7.2538472930108901e+02 1.2446436159377618e+02 3.3463055324229742e+02 1.5084258689901702e+02 -2.6478249673718544e+01 -1.2795558543774314e+03 1.3573316813949896e+02 2.1984160879996757e+03 5.3027750161247434e+02 6.4961639214645786e+01 1.1798118786264547e+03 1.4724829566776395e+02 -4.5541337638203839e+02 -1.9982513792278621e+03 
      </Row>
      <Row Index="28">
        1.0798540456122846e+03 -6.4517014448609160e+01 -1.7889215128188152e+02 6.9278266812446191e+01 1.8847706596098851e+02 1.9459140256074312e+02 5.4310616659270522e+01 5.9588916498056051e+01 5.9262764143492871e+02 6.6255270062799639e+01 2.9447136636342742e+02 5.8406376843161866e+01 2.4332277010840079e+02 1.2411395235284999e+01 6.8001603376283271e-01 5.1196229256850451e+01 2.7743816649060022e+02 -1.2227494783258166e+01 -1.2218617489361122e+02 -1.4062532592119027e+02 1.2335854534726866e+02 -3.7933228890630289e+01 3.8296410990953547e+01 -1.4354302353623439e+01 7.5187745778481394e+02 2.1673057346034682e+01 2.4485728054311949e+01 1.2446436159102279e+02 2.2047633966001490e+02 7.3899243188432010e+01 2.8919933691232821e+01 6.9250141230470689e+01 -3.7274385880207387e+02 7.0290416671108858e+01 9.6075681594193588e+02 1.8571192300482369e+02 -4.6844821642343055e+02 2.8551840440682861e+02 -4.6913643424876170e+00 -2.8474307297584079e+02 -5.0839917460230868e+02 
      </Row>
      <Row Index="29">
        4.6450544202213769e+03 -2.8520969746216213e+02 -1.0779719439899782e+03 -2.8208133549593185e+01 5.7189077141124653e+02 2.2692469770209718e+03 -1.6695903116821933e+02 -3.5049352604913429e+02 -2.9128556865382980e+03 4.2724173866571005e+02 5.9402428052922710e+02 3.1175204373161750e+02 1.6999310653356616e+02 1.8990391858631695e+03 2.9672854587546908e+01 4.3057845753045569e+01 1.5703956022354728e+03 -1.2852880744373726e+02 -5.1158274395473563e+02 1.9883185902626987e+01 -1.3736808922952878e+02 9.9875164196943842e+01 -5.1980459572058635e+00 2.1233507870731501e+01 -5.1458740763829428e+03 2.5015424045844725e+02 9.6458158823610574e+01 3.3463055318585612e+02 7.3899243170974387e+01 2.5937936987614085e+03 2.4365676112000614e+01 1.1482238387217421e+01 -2.3376172289810056e+03 5.1599885629327537e+02 3.0831950971272613e+03 -6.1479878965755245e+02 -7.8113725896197479e+02 1.6159157370841181e+03 -1.4480253589777885e+02 6.1186917118626752e+01 -2.9702460646885702e+03 
      </Row>
      <Row Index="30">
        7.8004267268436161e+02 -1.4219217938758538e+02 7.9819939827264170e+02 5.2911466214347456e+01 3.4602443176147062e+01 -8.3304292736864227e+01 2.9923176111412886e+02 2.9951180155242128e+01 2.1897256724793956e+03 4.5610252796815075e+01 -8.9792919333267628e+02 9.4376886487815227e+01 3.4393237146496972e+01 -5.5830409240226018e+01 2.8169291698201630e+02 -3.1168809561627853e+01 -6.6033943748248021e+01 -2.5748013716911260e+01 -1.7347548822706449e+02 -4.8357875738622582e+01 -1.0972979240714267e+01 5.8938816067959124e+01 -1.5934343828611691e+02 9.9179326220832991e+00 1.8350685552649838e+03 -2.0286537371595841e+01 -4.1421360018920677e+02 1.5084258690942443e+02 2.8919933685629985e+01 2.4365676036639087e+01 3.6645666579880378e+02 -3.4124314282467495e+01 -3.7422540282138743e+02 1.4881410583627257e+02 -4.0157802702354284e+03 -1.3478629621333980e+02 -1.4685592996485761e+01 -1.3778255872378850e+02 -3.0424551094873527e+02 -1.3986685394646109e+01 3.9004132709022151e+03 
      </Row>
      <Row Index="31">
        3.3987737305565315e+02 1.1475352376622993e+01 -4.8178237985404849e+01 -2.3394523300081801e+01 -1.0590408741559622e+02 1.1284580913100035e+02 -5.4683488098311159e+01 -2.6372590082970305e+01 1.8213984553957005e+02 2.1245156092882439e+01 2.2896844399128105e+02 -2.5904125608860227e+01 6.9088650194452711e+01 -2.3111462091552646e+01 -1.0945333098492682e+01 7.7843956459385836e+01 3.2518019405796281e+01 -2.4091862983941610e+00 6.1217715674983992e+00 -3.9252803007564268e+01 3.1247769814189724e+01 -4.4448405548314668e+01 -4.6426296530908644e+00 3.2982349459179090e+01 3.9485724271934282e+02 1.8630505256370384e+01 1.1106825429785567e+02 -2.6478249672833272e+01 6.9250141232759006e+01 1.1482238408833119e+01 -3.4124314288875269e+01 8.0926338764280715e+01 -5.9398404571862557e+01 -1.6011345366403020e+00 8.9639880844022809e+02 1.6573584369312971e+02 1.1657593573565340e+02 7.3579627199884811e+01 -9.4466996635185865e+00 2.6809918236992484e+01 -7.9374458931083063e+02 
      </Row>
      <Row Index="32">
        -4.2912847186863262e+04 -4.6767346442074268e+02 7.5722073760133935e+03 -4.9535058708261204e+02 -1.8098899279812322e+03 -1.1246325313416048e+04 -6.9994559844301148e+02 6.6954160773323019e+02 -2.6334850027101780e+04 3.8133245252929555e+01 -5.4562060685873967e+03 -3.9703727089069434e+02 -7.6265291222016094e+02 -5.6611256895729821e+02 -1.4339158483885126e+02 1.1307350925395667e+00 -8.0518914963760872e+03 2.1589146202342818e+01 -6.3875859994426719e+01 9.6295298337995928e+02 -5.1317085804563976e+02 4.9439784154865629e+02 -7.4483378227344883e+02 -1.4741830645977825e+02 -2.2193537858536205e+04 -2.0893464661790858e+01 3.3966110442297941e+02 -1.2795558543743500e+03 -3.7274385882579008e+02 -2.3376172294949256e+03 -3.7422540268444936e+02 -5.9398404565177771e+01 1.9254292450678971e+04 8.9478706515703379e+01 -2.2124739660141331e+04 1.0029245643158454e+02 2.2261248268887734e+03 -2.0215978343694525e+04 -9.2276042737639727e+02 9.8930822102101865e+02 2.0222074474564422e+04 
      </Row>
      <Row Index="33">
        -5.4678897644913377e+02 -3.1960028382617054e+02 3.1062645707966294e+02 1.5011754857832602e+02 1.3361919642625435e+02 2.0135125064286240e+02 7.4640661744972249e+01 -1.4009720449490942e+01 -4.6593776775831930e+02 2.4572334951873131e+02 -4.4479882086276416e+02 1.4131052333689775e+02 1.2261223438146027e+02 2.4280455058207849e+02 1.3612200345292069e+02 -7.6526858686072927e+00 -5.0843169774366743e+01 -5.9359523166725126e+01 -1.4324295142503706e+02 3.0426542584156302e+01 1.9313195352262483e+01 1.9090020601657761e+02 -8.4443117892631108e+01 -1.2599733868096678e+01 -1.0957481658457750e+03 7.5799350796160752e+01 -3.0511215714579521e+01 1.3573316813169299e+02 7.0290416665329531e+01 5.1599885624845422e+02 1.4881410586016500e+02 -1.6011345391448231e+00 8.9478706563962987e+01 3.9025989541381387e+02 -1.5521305788340842e+03 -2.4258606987043336e+02 -3.0879601414679718e+02 -6.9323050734571484e+02 -1.7580834892914072e+02 -1.6880598051666198e+02 1.4171019676951864e+03 
      </Row>
      <Row Index="34">
        5.2793816779123154e+04 1.5274260918296350e+03 -6.6453269650539383e+04 -7.7692443527537398e+02 1.0033146535616834e+03 1.5930467054228036e+04 -2.3383167513450899e+03 -1.2023896508724138e+03 -8.4447446160826566e+03 1.1935426611415751e+03 5.7324403951782559e+04 9.7536144553724444e+02 1.7448156626636410e+03 2.1807293431020626e+03 -3.7067703022926180e+03 8.8486600680171796e+02 1.4738504891247256e+04 -1.4485123659607052e+02 -1.9069944089476485e+03 -2.6739695657906200e+03 6.0119898965716129e+02 -1.6608546694798861e+03 4.5255576819270282e+03 -2.1029965320572956e+02 -6.0360631559614558e+03 1.6623873918769241e+03 1.3153814750232734e+04 2.1984160875426023e+03 9.6075681634794455e+02 3.0831951023332272e+03 -4.0157802706044604e+03 8.9639880812047340e+02 -2.2124739654595032e+04 -1.5521305775404035e+03 2.6063188452825663e+05 2.4483105449852137e+03 -1.6524181852871309e+03 3.0440422914197945e+04 6.6625611372606509e+03 -1.4984867383815581e+03 -2.5540013764811464e+05 
      </Row>
      <Row Index="35">
        1.5923872590271103e+03 1.1163077990342242e+02 -4.2244106063798972e+02 -3.1167821933217419e+02 -1.1602750978040112e+03 -6.6320921124272786e+02 8.1324196144422672e+01 3.3099654163245759e+01 -3.9038074945827157e+02 -1.4676562771512329e+02 8.1612114455986512e+02 -3.5414066457495858e+02 3.3625887768654741e+02 -2.8105003719247742e+02 -1.7742954384694895e+02 2.8708684799295206e+01 7.3598427047007704e+02 1.4872645646180899e+01 4.8641342065557183e+01 -1.5258674829237145e+03 8.1632665428727159e+02 -2.9081429071133789e+02 3.2246253759726750e+02 7.2092855418361523e+00 1.1602339320444667e+03 -5.4734877654065713e+01 1.0307472644383233e+02 5.3027750164436566e+02 1.8571192301825295e+02 -6.1479878954097558e+02 -1.3478629627589135e+02 1.6573584370338324e+02 1.0029245614773572e+02 -2.4258606987750397e+02 2.4483105488228616e+03 2.8153330677623280e+03 9.5217805997771177e+02 3.8497251957339381e+02 2.6572582046028253e+02 -9.1322107702639232e+02 -1.3633677626881351e+03 
      </Row>
      <Row Index="36">
        -4.6624951238589929e+03 2.1066911370532966e+02 1.1122535478114914e+03 -3.5778902368843052e+02 -2.3785753782570746e+03 -1.7529345228272048e+03 8.1080565891846959e+01 -3.1767322551131434e+02 -2.5995299512415768e+03 -2.3636446003552979e+02 -3.9440627103759374e+02 -1.6378748274951135e+02 -6.7428926397625730e+02 -3.0597610521349009e+02 -2.1109359736125391e+01 1.9412351427742621e+02 -1.3285693528435261e+03 -3.0650990693366591e+00 -2.9166968617330838e+02 -4.2592843186984828e+02 -3.4044892075950668e+02 -2.1919307894427351e+02 -4.5786760379789918e+01 3.5022971567689967e+02 -1.1538680203730419e+03 -7.2408122160127988e+01 7.4197444145291342e+01 6.4961639255071248e+01 -4.6844821640646109e+02 -7.8113725892969046e+02 -1.4685593095341851e+01 1.1657593575773376e+02 2.2261248265091435e+03 -3.0879601418196000e+02 -1.6524181790321163e+03 9.5217806002862881e+02 4.4189181820340764e+03 -2.0348402620504801e+03 -1.1689461914032040e+02 1.9308528429723283e+03 6.2429671378323640e+01 
      </Row>
      <Row Index="37">
        4.5047659693597787e+04 9.5260188319181725e+02 -9.8306304532473441e+03 3.0490235748527630e+02 1.9424109075708257e+03 1.1816649796771031e+04 4.5826339030746021e+02 -5.1167310549150716e+02 2.6628906807676205e+04 -3.4940440794790993e+02 7.3557400368810140e+03 1.2298916017715783e+02 5.7645974245853631e+02 2.8158566019137652e+00 -2.9869204352524321e+02 3.0514601418448592e+01 8.9278167081253487e+03 1.0618692597606059e+02 7.7553470765228849e+02 -1.1973931795575249e+03 4.9333896192914108e+02 -8.5686960643898055e+02 1.2037987050104512e+03 1.3844953701739723e+02 2.2790739965136032e+04 -4.9847353969311371e+01 1.9882164587627631e+02 1.1798118786262785e+03 2.8551840444820118e+02 1.6159157377875533e+03 -1.3778255890855871e+02 7.3579627190076280e+01 -2.0215978343644085e+04 -6.9323050726894871e+02 3.0440422921866371e+04 3.8497251919345064e+02 -2.0348402626217621e+03 2.2822750805380056e+04 1.6878366645670249e+03 -8.7748519368222333e+02 -2.8009717491761861e+04 
      </Row>
      <Row Index="38">
        1.5108634003149091e+03 1.5408121585388426e+02 -1.9269687773357728e+03 1.1819024530138995e+02 1.2898507805763074e+02 7.1892892627681795e+02 -1.2666159587985203e+02 6.8956398163854828e+01 -1.5286463126405579e+01 -7.2226997753241449e+01 1.5193233725272582e+03 -4.6102537396779098e+01 9.5404562181101937e+00 -2.1751534577598747e+02 -2.7812290209878233e+02 -2.4498851071812282e+01 9.8279712190963346e+02 3.3319894995715686e+01 2.9247437285647175e+02 -2.4551833361018862e+02 1.0803660494025098e+02 -1.3754799329841444e+02 3.6720124226461508e+02 -3.6479503018404102e+01 -2.1639284967728236e+02 -2.7421503309842592e+00 3.3780790347042057e+02 1.4724829566282278e+02 -4.6913643305797450e+00 -1.4480253575435646e+02 -3.0424551097066887e+02 -9.4466996692226530e+00 -9.2276042728287575e+02 -1.7580834890044207e+02 6.6625611380023420e+03 2.6572582037165608e+02 -1.1689461929625634e+02 1.6878366644427751e+03 5.4178044548770458e+02 -2.2942668792326822e+02 -6.3632834358835380e+03 
      </Row>
      <Row Index="39">
        -1.5925091207149653e+03 1.9842607297371990e+02 7.0676279039971996e+02 -5.0306555886425303e+02 -4.9038050719051716e+02 -5.3935034159656311e+02 -9.7412520215223594e+01 -3.6067110677830874e+02 -2.3076041784659692e+03 -1.1067304833328245e+02 -5.4082502093976916e+02 -2.6700393687816415e+01 -6.8883062703053258e+02 2.7020984749704337e+02 4.6198507240571146e+01 2.1412732296135670e+02 -1.4924747718099509e+03 8.6172449239048490e+00 -9.9107523627124920e+01 6.2411696829411108e+02 -8.8892935106931463e+02 -2.3019487467085128e+01 -2.5275712140210840e+02 3.1704818042054490e+02 -1.7451846175001444e+03 1.3467933327966989e+01 1.5336411169317853e+02 -4.5541337638615801e+02 -2.8474307297786754e+02 6.1186917080063274e+01 -1.3986685409226936e+01 2.6809918240668594e+01 9.8930822105505490e+02 -1.6880598052574737e+02 -1.4984867375744716e+03 -9.1322107702025664e+02 1.9308528430019251e+03 -8.7748519368590325e+02 -2.2942668790227492e+02 2.4241988299020759e+03 8.1673898642470158e+02 
      </Row>
      <Row Index="40">
        -4.7169884061202873e+04 -1.4180371353630762e+03 6.4848005449065939e+04 4.9647239999985322e+02 -2.3691631252691150e+02 -1.4947401756095816e+04 2.3184720393663156e+03 1.2929464321569249e+03 1.0217347045488073e+04 -1.2294953907171148e+03 -5.5962626535187679e+04 -1.1505982710906246e+03 -1.3060428917707322e+03 -2.1630232947981031e+03 3.5776673830918226e+03 -8.2093575000993769e+02 -1.3163950679067755e+04 1.7031964844245522e+02 2.1367098546158522e+03 1.9988624922237136e+03 -2.2833819926815340e+02 1.4241213673333405e+03 -4.2695956386613252e+03 1.6893468197400216e+02 8.0976350851311581e+03 -1.6518540141610138e+03 -1.3019042133133160e+04 -1.9982513787784846e+03 -5.0839917500683805e+02 -2.9702460697839588e+03 3.9004132712736609e+03 -7.9374458899888850e+02 2.0222074469111511e+04 1.4171019664265623e+03 -2.5540013764874855e+05 -1.3633677589202230e+03 6.2429677549033741e+01 -2.8009717484239853e+04 -6.3632834351696220e+03 8.1673898724405444e+02 2.5231338335859857e+05 
      </Row>
    </InverseHessian>
  </Weights>
</MethodSetup>
