<?xml version="1.0"?>
<MethodSetup Method="DL::DNN_GPU">
  <GeneralInfo>
    <Info name="TMVA Release" value="4.2.1 [262657]"/>
    <Info name="ROOT Release" value="6.24/04 [399364]"/>
    <Info name="Creator" value="danchepkwony"/>
    <Info name="Date" value="Fri Oct 15 01:00:41 2021"/>
    <Info name="Host" value="Darwin BigSur 20.4.0 Darwin Kernel Version 20.4.0: Thu Apr 22 21:46:47 PDT 2021; root:xnu-7195.101.2~1/RELEASE_X86_64 x86_64"/>
    <Info name="Dir" value="/Users/danchepkwony/Documents/Skoby"/>
    <Info name="Training events" value="2000"/>
    <Info name="TrainingTime" value="1.54247594e+00"/>
    <Info name="AnalysisType" value="Classification"/>
  </GeneralInfo>
  <Options>
    <Option name="V" modified="Yes">True</Option>
    <Option name="VerbosityLevel" modified="No">Verbose</Option>
    <Option name="VarTransform" modified="Yes">N</Option>
    <Option name="H" modified="Yes">False</Option>
    <Option name="CreateMVAPdfs" modified="No">False</Option>
    <Option name="IgnoreNegWeightsInTraining" modified="No">False</Option>
    <Option name="InputLayout" modified="No">0|0|0</Option>
    <Option name="BatchLayout" modified="No">0|0|0</Option>
    <Option name="Layout" modified="Yes">TANH|128,TANH|128,TANH|128,LINEAR</Option>
    <Option name="ErrorStrategy" modified="Yes">CROSSENTROPY</Option>
    <Option name="WeightInitialization" modified="Yes">XAVIERUNIFORM</Option>
    <Option name="RandomSeed" modified="No">0</Option>
    <Option name="ValidationSize" modified="No">20%</Option>
    <Option name="Architecture" modified="Yes">CPU</Option>
    <Option name="TrainingStrategy" modified="Yes">LearningRate=1e-2,Momentum=0.9,ConvergenceSteps=20,BatchSize=100,TestRepetitions=1,WeightDecay=1e-4,Regularization=None,DropConfig=0.0+0.5+0.5+0.5</Option>
  </Options>
  <Variables NVar="4">
    <Variable VarIndex="0" Expression="var1+var2" Label="myvar1" Title="myvar1" Unit="" Internal="myvar1" Type="F" Min="-9.31873512e+00" Max="7.53042316e+00"/>
    <Variable VarIndex="1" Expression="var1-var2" Label="myvar2" Title="Expression 2" Unit="" Internal="myvar2" Type="F" Min="-3.70671988e+00" Max="4.02912045e+00"/>
    <Variable VarIndex="2" Expression="var3" Label="var3" Title="Variable 3" Unit="units" Internal="var3" Type="F" Min="-5.05078554e+00" Max="4.33005810e+00"/>
    <Variable VarIndex="3" Expression="var4" Label="var4" Title="Variable 4" Unit="units" Internal="var4" Type="F" Min="-5.82962179e+00" Max="5.03067923e+00"/>
  </Variables>
  <Spectators NSpec="2">
    <Spectator SpecIndex="0" Expression="var1*2" Label="spec1" Title="Spectator 1" Unit="units" Internal="spec1" Type="F" Min="-9.14904976e+00" Max="9.52782059e+00"/>
    <Spectator SpecIndex="1" Expression="var1*3" Label="spec2" Title="Spectator 2" Unit="units" Internal="spec2" Type="F" Min="-1.37235746e+01" Max="1.42917309e+01"/>
  </Spectators>
  <Classes NClass="2">
    <Class Name="Signal" Index="0"/>
    <Class Name="Background" Index="1"/>
  </Classes>
  <Transformations NTransformations="1">
    <Transform Name="Normalize">
      <Selection>
        <Input NInputs="4">
          <Input Type="Variable" Label="myvar1" Expression="var1+var2"/>
          <Input Type="Variable" Label="myvar2" Expression="var1-var2"/>
          <Input Type="Variable" Label="var3" Expression="var3"/>
          <Input Type="Variable" Label="var4" Expression="var4"/>
        </Input>
        <Output NOutputs="4">
          <Output Type="Variable" Label="myvar1" Expression="var1+var2"/>
          <Output Type="Variable" Label="myvar2" Expression="var1-var2"/>
          <Output Type="Variable" Label="var3" Expression="var3"/>
          <Output Type="Variable" Label="var4" Expression="var4"/>
        </Output>
      </Selection>
      <Class ClassIndex="0">
        <Ranges>
          <Range Index="0" Min="-5.1623420715332031e+00" Max="5.5480084419250488e+00"/>
          <Range Index="1" Min="-3.7067198753356934e+00" Max="4.0291204452514648e+00"/>
          <Range Index="2" Min="-2.6928036212921143e+00" Max="3.8698983192443848e+00"/>
          <Range Index="3" Min="-2.9492409229278564e+00" Max="4.2669730186462402e+00"/>
        </Ranges>
      </Class>
      <Class ClassIndex="1">
        <Ranges>
          <Range Index="0" Min="-9.3187351226806641e+00" Max="7.5304231643676758e+00"/>
          <Range Index="1" Min="-3.4552407264709473e+00" Max="3.9897418022155762e+00"/>
          <Range Index="2" Min="-5.0507855415344238e+00" Max="4.3300580978393555e+00"/>
          <Range Index="3" Min="-5.8296217918395996e+00" Max="5.0306792259216309e+00"/>
        </Ranges>
      </Class>
      <Class ClassIndex="2">
        <Ranges>
          <Range Index="0" Min="-9.3187351226806641e+00" Max="7.5304231643676758e+00"/>
          <Range Index="1" Min="-3.7067198753356934e+00" Max="4.0291204452514648e+00"/>
          <Range Index="2" Min="-5.0507855415344238e+00" Max="4.3300580978393555e+00"/>
          <Range Index="3" Min="-5.8296217918395996e+00" Max="5.0306792259216309e+00"/>
        </Ranges>
      </Class>
    </Transform>
  </Transformations>
  <MVAPdfs/>
  <Weights NetDepth="4" InputDepth="1" InputHeight="1" InputWidth="4" BatchSize="1" BatchDepth="1" BatchHeight="100" BatchWidth="4" LossFunction="C" Initialization="F" Regularization="0" OutputFunction="S" WeightDecay="9.9999997473787516e-05">
    <DenseLayer Width="128" ActivationFunction="3">
      <Weights Rows="128" Columns="4">
        -4.693557e-02  5.106843e-02  1.869384e-02  1.096121e-01  3.087446e-01  -6.778588e-02  2.322474e-02  -4.548603e-01  3.336605e-01  7.005582e-02  3.992063e-02  -5.392694e-01  -3.859808e-01  -1.056248e-01  -2.506717e-02  4.518967e-01  3.729950e-01  -4.640187e-02  7.093090e-02  -3.898619e-01  4.192256e-02  -3.711754e-02  -1.958524e-02  2.382042e-01  2.355856e-01  -1.939263e-02  1.142826e-01  -3.162496e-01  -3.323736e-01  7.239010e-02  -2.601760e-01  4.855796e-01  1.254932e-01  4.231923e-02  2.518903e-02  1.473821e-01  -1.415073e-01  -2.830505e-02  -3.292022e-02  7.363211e-02  -2.443610e-01  -2.329010e-02  -2.474309e-02  2.805438e-01  -2.834527e-01  -9.560177e-03  9.574388e-02  1.524449e-01  1.461819e-01  3.032575e-02  2.363142e-01  -4.231392e-01  3.904566e-01  3.947268e-02  7.247330e-02  -4.834937e-01  -3.186021e-01  7.011764e-03  -2.226399e-01  5.518196e-01  1.723987e-01  6.672796e-03  2.357047e-03  -1.718257e-01  -2.145021e-01  -1.132722e-02  -7.721493e-02  3.423054e-01  3.579583e-01  7.137471e-02  6.414223e-02  -5.294457e-01  -2.281757e-01  2.479014e-02  -7.876948e-02  4.011142e-01  2.927589e-01  5.632847e-02  1.312657e-01  -4.701697e-01  2.183351e-01  1.254031e-03  1.529532e-01  -3.091963e-01  1.533359e-01  6.154129e-02  3.001838e-01  -4.596134e-01  -2.880575e-01  -9.383713e-03  -1.129974e-01  4.226662e-01  -1.098941e-01  -1.493625e-03  -1.064375e-01  1.876541e-01  2.238408e-01  6.767338e-02  1.344571e-01  -1.549700e-01  -3.662589e-01  -4.203590e-02  -2.709560e-02  4.262246e-01  -1.220289e-01  -4.932452e-02  -3.452544e-02  4.058697e-01  7.534132e-03  -8.847181e-03  6.711210e-02  1.517663e-01  1.672522e-01  4.298702e-02  7.955130e-03  -4.674559e-01  -1.836795e-02  1.321138e-02  -9.166127e-02  -7.724304e-03  -2.475485e-01  -5.059023e-02  -1.829581e-01  4.582038e-01  1.844789e-01  6.097341e-03  2.481876e-02  -3.282844e-01  -4.147721e-01  3.665108e-02  5.149178e-02  5.235184e-01  -2.132589e-01  -1.797903e-02  -1.100041e-01  3.121611e-01  -2.285149e-01  -4.893029e-02  -1.454664e-01  1.283902e-01  2.555216e-01  -5.567840e-02  2.836553e-01  -4.628956e-01  1.925921e-01  3.983923e-02  2.620713e-02  -2.166525e-01  -3.166516e-01  -7.271450e-02  -2.093660e-01  3.954724e-01  2.346873e-01  2.319703e-02  1.556884e-01  -3.320214e-01  2.239183e-01  2.193863e-02  8.341934e-02  -2.184326e-01  3.967315e-01  7.860538e-03  -3.415310e-02  -5.507010e-01  -3.896415e-01  -1.135131e-03  3.615830e-02  4.103757e-01  8.607408e-02  -8.908495e-03  2.213768e-01  -1.422742e-01  -3.574560e-01  -9.450930e-02  -8.180781e-02  3.849553e-01  1.141235e-01  1.861611e-02  2.549006e-01  -3.874359e-01  1.715117e-01  -5.298646e-02  -8.432419e-03  -7.290060e-02  -1.970860e-01  7.096365e-02  -9.018748e-02  4.519379e-01  -6.691085e-02  8.829882e-03  -8.133025e-02  1.706483e-01  1.579410e-01  1.852061e-02  3.779601e-02  -2.839210e-01  6.590785e-02  -2.657115e-02  1.485010e-01  -2.131952e-01  1.334887e-01  2.580844e-02  1.936769e-01  -3.466986e-01  2.946746e-01  -5.561468e-02  2.442100e-01  -4.962655e-01  4.625621e-02  5.214712e-03  -2.544777e-02  -5.158728e-02  1.332923e-01  9.371109e-03  2.018355e-01  -2.875372e-01  -2.063968e-01  6.357506e-04  -2.755377e-01  5.920510e-01  -3.482449e-01  -5.152898e-02  5.705595e-02  4.208520e-01  -9.459352e-02  -1.596668e-02  -2.368344e-01  3.859310e-01  -3.267544e-01  -7.422578e-02  -6.051465e-02  4.670625e-01  -2.983228e-01  -4.468821e-02  -3.857801e-02  4.936758e-01  -1.692280e-01  3.893499e-03  4.550044e-03  4.393067e-01  -3.009124e-01  4.802022e-03  3.990338e-02  2.872256e-01  2.474389e-01  9.814891e-02  8.555226e-02  -3.606940e-01  1.280109e-01  6.316988e-03  6.399709e-02  -2.957120e-01  -3.416546e-01  6.474270e-02  2.569303e-02  4.718248e-01  2.085952e-01  -5.308587e-03  1.831742e-01  -2.105915e-01  2.709548e-01  6.891266e-02  2.288567e-01  -4.189134e-01  -2.230722e-01  -3.194621e-02  3.175542e-02  3.465366e-01  -1.449149e-01  -2.447142e-02  -1.293183e-01  1.640647e-01  3.707955e-01  6.404704e-02  1.264658e-03  -3.937991e-01  8.366232e-02  -1.936264e-02  9.024270e-02  -3.901272e-01  -3.278693e-01  -1.092849e-01  -1.110173e-01  4.913263e-01  2.838615e-01  3.855493e-02  1.024548e-01  -3.620884e-01  -3.696538e-01  -6.459625e-02  -2.612436e-01  3.447395e-01  -2.767503e-04  8.200517e-03  -1.190935e-02  -3.979094e-03  -2.891346e-01  -4.923931e-03  4.508133e-02  1.827645e-01  -2.033051e-01  1.381498e-02  -8.621661e-02  2.132104e-01  4.094935e-01  1.967360e-02  3.218908e-02  -5.550146e-01  1.684790e-01  7.313690e-03  7.538145e-02  -2.880437e-01  2.179533e-01  9.715741e-03  1.124383e-01  -2.365688e-01  1.771187e-01  4.742596e-02  1.220711e-01  -3.226156e-01  -2.843049e-01  3.788717e-02  -4.440989e-02  3.579049e-01  -2.076162e-01  -3.020225e-02  -1.981658e-01  3.032168e-01  -2.833814e-01  2.113765e-02  6.380166e-03  4.307148e-01  9.129931e-02  -1.454042e-02  1.282187e-01  -2.948047e-02  3.385887e-01  8.674425e-02  5.400561e-03  -4.425737e-01  -3.207803e-01  3.065176e-03  5.281921e-02  4.947218e-01  2.870335e-01  1.291267e-02  1.503792e-02  -3.979968e-01  -2.898291e-02  -2.599844e-02  2.020905e-02  2.362054e-01  2.592914e-01  2.295563e-02  5.642829e-02  -3.236100e-01  3.714548e-01  3.485674e-02  1.654158e-02  -3.106003e-01  2.490324e-01  7.502144e-02  5.584718e-02  -4.984209e-01  3.414887e-01  1.191952e-02  -3.672161e-02  -4.488519e-01  3.622181e-01  8.582545e-02  1.293350e-01  -5.543053e-01  8.408502e-02  1.010614e-03  -9.586817e-04  -1.704120e-01  -1.083751e-01  -6.368945e-02  5.594754e-02  1.891534e-01  -3.693924e-01  -4.623085e-03  -6.997228e-02  5.437686e-01  3.076718e-01  -3.558566e-02  1.109057e-01  -4.470664e-01  -3.943672e-01  -6.737965e-02  -4.435283e-02  5.228026e-01  -2.245693e-01  -1.666304e-03  -1.913870e-01  5.682729e-01  -1.804230e-01  -3.307595e-02  -1.304237e-01  4.524324e-01  3.490745e-01  6.530508e-03  2.170657e-01  -4.508071e-01  2.580610e-01  3.710335e-02  -5.531029e-02  -2.431628e-01  -1.210363e-01  -1.717686e-03  -4.972607e-02  1.512779e-01  2.836705e-01  2.161688e-03  1.512318e-01  -4.954934e-01  -3.974345e-01  -1.525618e-01  -6.676958e-02  5.700107e-01  -1.897208e-01  -1.265747e-02  -7.450899e-02  2.283648e-01  -4.466137e-01  -4.178760e-02  -4.814303e-02  5.835798e-01  -3.466014e-01  -8.580795e-02  -1.531390e-01  4.114589e-01  3.772745e-01  3.011633e-02  -1.765439e-02  -4.828914e-01  -3.493751e-01  -3.595681e-02  -2.128556e-01  4.110787e-01  1.073188e-01  3.515581e-02  -3.720472e-02  -2.014469e-01  3.434411e-01  5.589293e-02  -9.176612e-02  -3.708092e-01  2.766930e-01  -4.785414e-03  2.497791e-01  -5.380926e-01  -1.584058e-01  -5.633067e-02  -1.999332e-01  4.117492e-01  -1.846491e-01  -1.710797e-02  -9.759448e-02  4.662748e-01  1.222889e-01  1.214111e-02  2.637812e-03  -1.918229e-01  -2.887918e-02  -6.043904e-03  7.438992e-03  4.972928e-02  -2.595763e-01  -9.835052e-02  -2.170625e-01  5.337644e-01  2.515070e-01  4.196694e-02  1.316471e-01  -3.856438e-01  -4.262365e-01  -2.918127e-02  -1.269513e-02  4.714638e-01  2.926405e-02  4.948029e-02  -3.842243e-02  -3.054857e-01  -1.155232e-01  -2.765668e-03  -1.228026e-01  1.811267e-01  -4.405509e-01  -1.163626e-01  -6.330534e-02  5.154224e-01  -2.111122e-01  -4.006668e-02  -1.833717e-01  4.829961e-01  1.240984e-01  -6.947708e-03  -9.171408e-03  -9.447237e-02  -1.603422e-01  1.114046e-02  6.625366e-02  1.940252e-01  -3.213325e-01  -1.395893e-02  -1.669672e-01  5.158526e-01  3.544006e-01  6.828624e-02  1.512448e-01  -4.555676e-01  
      </Weights>
      <Biases Rows="128" Columns="1">
        3.209021e-03  8.984143e-03  2.408006e-02  -1.054864e-02  1.002408e-03  -1.969189e-02  2.511876e-03  1.592948e-02  -4.756527e-03  -5.811746e-02  -6.797619e-04  8.222180e-03  1.283030e-02  5.707500e-03  -7.512112e-03  5.404145e-03  -6.716553e-03  1.642320e-02  -3.371803e-03  1.262690e-02  -1.517145e-03  1.938848e-02  -4.592878e-03  -6.282764e-03  -8.367069e-03  -8.004109e-03  -2.837057e-02  -1.620212e-02  2.867498e-02  -6.606912e-03  -1.397870e-02  8.818634e-03  -1.094154e-02  -1.152259e-02  1.830399e-02  1.107495e-03  1.086243e-02  7.489628e-03  3.650942e-03  1.203837e-02  2.080497e-02  -1.663508e-03  1.934209e-02  4.320483e-03  1.155203e-02  -2.747647e-03  -7.507515e-03  6.380588e-04  3.400197e-03  1.237920e-02  1.702172e-02  -7.341587e-04  3.581753e-03  1.759254e-02  -2.606052e-02  -1.677904e-02  -2.257602e-02  -1.385907e-02  -2.153444e-02  -3.327308e-02  -2.387865e-03  1.389738e-02  7.008773e-03  -1.212177e-02  2.219366e-03  4.080702e-03  -4.140383e-03  -9.410604e-04  9.079548e-04  2.305994e-02  -1.106425e-02  8.424394e-03  1.912438e-02  8.206742e-06  -1.018629e-02  -6.817497e-04  1.548048e-02  1.229696e-03  1.935740e-03  9.834273e-03  -5.197280e-03  -8.856339e-03  -1.442832e-02  -7.196474e-03  1.390732e-02  -2.151953e-02  9.360033e-03  -2.305164e-02  4.919514e-03  -6.348500e-04  2.318131e-02  1.289996e-02  1.394236e-02  -7.705450e-03  -2.348613e-02  -1.172429e-02  2.648412e-03  -1.301392e-02  -2.013557e-02  -1.783279e-02  -3.743915e-03  -9.307244e-04  -3.867467e-03  1.477975e-02  -2.692173e-02  -6.341989e-03  -1.271294e-02  -1.254884e-02  1.206356e-02  1.972854e-03  -2.192486e-02  5.985102e-03  5.533916e-03  -1.774569e-02  -2.058131e-02  -1.189712e-03  1.509960e-02  -2.217536e-02  1.226615e-02  -5.261269e-03  2.581619e-02  -6.040168e-03  -8.154463e-03  -1.731020e-02  -7.864481e-03  1.179026e-02  -9.980940e-03  4.259062e-03  
      </Biases>
    </DenseLayer>
    <DenseLayer Width="128" ActivationFunction="3">
      <Weights Rows="128" Columns="128">
        -1.337124e-01  -1.592756e-02  -3.692804e-02  -1.542897e-01  -1.030521e-01  -1.854830e-01  1.166924e-01  1.068544e-01  -1.403743e-03  7.850067e-02  -1.556356e-01  -1.294343e-01  1.544749e-02  2.131134e-01  -2.992006e-01  -5.996400e-02  -1.490525e-01  2.854974e-01  7.887057e-02  1.483782e-01  -1.457755e-01  -6.202492e-02  -7.265697e-02  -1.062618e-01  9.781520e-03  -4.598399e-02  5.197294e-02  -5.728656e-02  -1.243387e-01  -5.282809e-02  1.090623e-01  2.841357e-01  1.194037e-01  1.159286e-01  -1.552652e-03  4.513785e-02  -7.857998e-02  -1.034246e-01  -4.437162e-02  -5.329873e-02  -1.942275e-01  7.893128e-02  -1.915113e-01  -1.202901e-02  1.437888e-01  -9.990780e-02  -7.567362e-02  5.267556e-02  -6.433830e-02  -9.145641e-02  -9.625937e-02  -1.626498e-01  -1.618943e-02  -5.441000e-02  -2.338852e-01  -7.854771e-02  8.689725e-02  -2.757564e-01  -1.753721e-01  5.006828e-02  -1.436877e-01  1.092523e-02  1.150342e-01  -7.810991e-02  -3.072695e-02  1.599462e-01  9.707895e-02  -1.729765e-02  1.245022e-01  1.756516e-01  -2.767136e-01  -6.094137e-02  -7.446202e-02  -8.864632e-02  -3.130022e-02  -1.804195e-01  2.512979e-01  5.346429e-02  -1.055249e-01  9.930290e-02  -2.046463e-02  1.475970e-01  -1.602949e-01  8.536144e-02  4.970188e-02  -3.572028e-02  2.361005e-01  6.247196e-02  -8.872985e-02  1.346513e-01  1.737565e-01  3.247693e-01  3.371768e-01  9.773118e-02  1.393957e-03  -1.585746e-01  1.931293e-01  5.414440e-02  -2.556602e-02  -2.562399e-02  1.812363e-01  1.362876e-01  2.754046e-02  -5.488660e-02  -2.050795e-01  -1.226116e-01  -1.043791e-01  -3.341134e-02  6.530736e-02  -2.315490e-01  6.823042e-03  1.171636e-01  2.149656e-01  -2.107901e-02  -4.623928e-02  -8.414121e-04  -1.877475e-01  -2.953341e-01  -3.662147e-03  -2.294194e-01  -1.106414e-01  1.045903e-01  -1.148376e-01  -2.376888e-01  1.906702e-01  1.531209e-02  -1.755946e-01  1.404329e-01  1.126736e-01  -2.494752e-03  2.777214e-02  -9.846792e-02  -6.621385e-02  6.713593e-02  -4.209049e-02  7.020898e-02  1.082718e-01  -4.679259e-02  -8.215634e-02  -7.964639e-02  -3.822386e-02  -1.049198e-01  2.989826e-01  -1.650734e-01  1.515997e-01  8.673587e-02  1.261604e-01  -1.905764e-01  -9.299434e-02  -7.080581e-02  7.500228e-02  5.360558e-02  -6.666395e-02  -3.993604e-02  4.585738e-02  -1.968987e-01  -1.216711e-01  9.419720e-02  1.012202e-01  1.313499e-02  -6.520510e-02  1.580704e-01  7.199805e-02  -2.410374e-01  1.814620e-01  3.781627e-02  -2.603476e-02  1.561864e-01  -1.356443e-01  -1.367164e-01  1.500551e-01  -5.660831e-02  1.743109e-01  6.142518e-02  1.816307e-01  -1.290967e-01  -2.680652e-02  -5.279956e-03  -4.583812e-02  -4.089412e-04  6.429806e-02  5.332387e-02  2.882622e-01  1.018227e-01  1.432832e-02  1.358034e-01  2.053893e-01  1.448936e-01  8.215237e-02  -2.933439e-01  -5.316203e-02  -8.224271e-03  -1.163456e-01  6.671573e-02  -1.462707e-01  2.238050e-02  -2.200781e-01  -3.397254e-03  1.224860e-01  3.344956e-02  5.325369e-02  -3.375255e-04  -1.417607e-01  7.586198e-02  -1.921890e-01  -2.608450e-03  8.841043e-03  -5.398109e-02  1.036446e-01  2.401033e-02  1.550559e-01  1.155053e-01  -7.501454e-02  -4.227461e-02  -1.724317e-01  8.251686e-04  -1.212554e-01  2.780009e-02  5.414677e-02  -1.295683e-01  -1.097512e-02  -4.112775e-02  -1.455804e-01  7.929179e-02  -2.130180e-02  -6.256057e-02  4.705745e-02  -1.237211e-01  -1.570459e-01  -2.406334e-02  -1.619589e-02  3.333632e-02  2.557194e-01  -1.249613e-01  8.284032e-02  3.226098e-01  7.803339e-02  2.194401e-02  -5.610962e-02  8.356930e-03  -1.191245e-01  -4.610090e-02  -8.347549e-02  -7.095449e-02  1.333365e-02  2.234399e-01  7.286499e-03  2.437568e-02  -3.795067e-02  -7.934717e-03  2.499020e-01  8.155575e-03  7.155961e-02  -4.366574e-02  2.505740e-01  -2.102937e-02  5.889727e-03  1.020918e-01  1.599044e-01  -1.377651e-01  2.345822e-02  -5.798975e-02  -1.463104e-01  -1.346610e-01  -2.124217e-01  3.242525e-02  -1.505353e-01  -1.775467e-01  -1.561543e-01  1.327854e-01  -1.753393e-01  3.764226e-02  -4.001634e-02  2.380361e-02  -2.394767e-01  2.416009e-01  6.182070e-02  9.593508e-02  9.404325e-02  3.560162e-02  -1.505328e-01  4.617440e-02  -1.221986e-01  4.041302e-02  1.996307e-01  1.114318e-02  -1.400411e-01  2.370605e-01  -3.666169e-01  -5.445870e-02  1.394618e-01  -2.312060e-02  5.713520e-02  -1.367327e-01  -1.244861e-01  -1.651528e-01  3.772976e-01  -3.115847e-01  -2.422734e-01  -1.745227e-01  1.238023e-01  -4.783980e-02  -2.047865e-01  9.592384e-02  1.752595e-01  6.258669e-03  -5.842043e-02  -1.717582e-01  -5.700734e-02  -1.413913e-02  -2.324932e-01  -1.218181e-01  1.356907e-01  -1.484463e-02  -4.139152e-01  -1.992945e-01  2.014134e-02  3.736130e-02  -3.193726e-03  -8.812296e-02  -6.384049e-02  -1.314341e-01  -1.582591e-01  1.946475e-01  2.249579e-01  1.808406e-01  -2.023759e-01  -1.512194e-01  -2.876197e-02  1.666808e-01  7.327630e-03  -2.772791e-02  2.274254e-01  -8.846622e-03  9.405158e-02  4.466696e-02  -9.006804e-02  1.797453e-01  -1.879952e-01  -1.495797e-01  1.198858e-02  -1.012626e-01  2.100733e-01  -8.699106e-02  8.004303e-02  2.291741e-01  1.597666e-01  2.821240e-01  2.765439e-01  5.082562e-02  -2.440272e-02  -1.449911e-01  6.418286e-02  -1.393425e-01  -3.043374e-01  3.366745e-02  -5.147852e-02  2.911550e-02  1.695798e-01  1.263047e-01  -8.328539e-02  1.105066e-01  -3.300864e-01  -5.214314e-03  -1.046181e-03  1.929154e-01  -5.451808e-02  1.304261e-01  2.466683e-01  3.149997e-02  -3.423615e-02  -1.424699e-01  8.900107e-02  1.434171e-02  3.450815e-03  -9.766880e-02  -5.677051e-02  -5.248975e-02  1.062185e-03  -1.131871e-01  1.391543e-01  5.225432e-02  -3.469905e-02  -2.888751e-02  1.138834e-01  1.127698e-01  -3.219656e-01  -2.142044e-01  -8.875407e-02  2.114905e-02  1.127713e-01  -9.611700e-02  -2.631660e-02  1.097488e-01  1.788805e-02  -2.015395e-02  1.322390e-01  8.739384e-02  -1.986162e-01  -1.484174e-01  5.248571e-02  3.006638e-02  2.106162e-02  -1.528298e-01  8.345433e-02  3.362314e-01  -3.780824e-03  1.989921e-01  -4.420944e-03  4.076386e-02  -5.932307e-02  1.870779e-02  -1.285046e-01  1.830044e-02  -1.211864e-01  -4.184622e-02  2.551230e-01  -4.404981e-02  -2.029328e-02  1.654473e-01  -1.773858e-02  -1.665267e-02  1.764810e-01  -1.444602e-02  -6.908022e-04  -9.017707e-02  3.561528e-01  -2.824977e-01  1.780618e-01  1.531919e-02  3.383773e-02  1.060723e-01  8.694036e-02  1.401891e-01  1.253664e-01  2.023314e-01  8.250286e-02  1.266808e-01  4.227815e-02  1.883445e-01  -1.515505e-01  -2.431297e-01  -1.160233e-02  -7.670886e-02  5.059573e-02  2.154035e-02  3.343533e-02  1.935561e-01  6.262927e-02  6.059540e-02  2.425858e-01  -3.586791e-02  5.087304e-02  -2.200606e-01  8.028167e-02  3.512938e-02  -2.254448e-01  9.633522e-03  -1.128719e-02  -1.757104e-01  8.313920e-02  6.080021e-02  1.283648e-01  2.318724e-02  -4.609365e-03  3.942247e-02  -1.863339e-01  1.140289e-01  2.395841e-01  1.141023e-01  -9.832820e-02  2.068464e-01  -1.136446e-01  1.244012e-01  -1.854908e-01  -7.937633e-02  -1.538810e-01  6.864236e-02  2.469798e-01  -2.120344e-01  1.676688e-02  1.020880e-01  4.975587e-02  4.410966e-02  2.257880e-01  -4.934940e-02  1.902608e-02  -1.227682e-01  2.029737e-01  -4.206843e-02  -4.848243e-02  -1.405397e-01  6.093121e-02  -2.917824e-01  -2.508614e-01  -2.547175e-01  1.324066e-01  -2.506335e-02  1.068825e-01  8.425709e-02  -4.245549e-02  -1.464267e-01  8.905037e-02  1.115179e-01  -1.444288e-01  -4.094002e-02  1.335320e-01  -5.440507e-02  1.361535e-01  -8.666679e-02  -7.274617e-02  2.193937e-01  -1.744236e-01  1.366972e-01  1.001392e-01  -1.493693e-01  1.399682e-01  1.005271e-01  2.645534e-01  -3.383619e-02  8.569180e-02  1.919040e-02  -4.436105e-02  -1.898610e-02  4.903255e-03  3.226594e-02  -3.358681e-01  -1.146039e-01  2.205738e-01  1.811427e-01  8.413356e-02  3.926717e-01  8.722379e-02  2.789417e-01  -5.137922e-02  -5.320463e-02  2.913435e-02  -2.617851e-02  1.073347e-01  1.739836e-01  -1.338549e-01  -1.199351e-01  -1.908441e-01  -7.897899e-03  1.608389e-01  -1.725713e-01  -1.491656e-01  -1.984932e-02  -1.209413e-01  2.220473e-02  -7.664540e-02  -4.110055e-02  1.159670e-01  -2.404932e-01  1.550829e-01  9.335072e-02  2.669053e-01  -2.189066e-02  1.615325e-02  -1.092847e-02  -1.608523e-01  1.060467e-01  1.971710e-01  -7.138126e-02  -2.159994e-02  8.823109e-02  -1.512877e-01  -1.686472e-01  5.362309e-03  -2.605937e-01  -1.355972e-01  3.011553e-02  -3.518780e-02  -3.147860e-02  -1.440177e-01  2.886052e-02  -1.023527e-01  1.380300e-02  9.613684e-02  -2.762501e-01  8.946583e-02  -1.451858e-02  4.380744e-02  1.631395e-01  -2.656073e-01  -1.095188e-01  -2.071018e-01  1.635957e-04  3.064397e-01  4.275925e-02  6.387963e-02  5.688978e-04  -1.109643e-01  -1.789053e-01  5.205281e-02  2.721850e-01  -9.936566e-02  -1.134874e-01  -5.467095e-02  -1.160711e-01  -6.731068e-02  1.668322e-01  -1.258553e-01  7.589377e-02  4.415352e-01  -2.856926e-02  -1.009137e-01  -2.057577e-01  3.970172e-02  -1.308853e-01  -1.523193e-01  -1.223304e-01  5.318855e-02  7.550034e-02  -2.039625e-01  -8.080036e-02  -1.360785e-01  -2.140942e-01  -2.329278e-01  8.686885e-02  2.127024e-01  -1.721646e-01  3.513443e-02  -4.651051e-02  4.595206e-02  1.579606e-01  -9.015780e-02  7.240926e-02  -1.780189e-01  -1.315987e-01  1.026247e-01  -1.704286e-01  1.637482e-03  1.568121e-01  -9.980967e-02  2.335792e-02  2.912805e-02  4.170914e-02  -2.766619e-01  1.770812e-03  -4.200310e-02  -3.573067e-03  -6.035660e-02  -1.948312e-02  1.625437e-01  -5.621529e-02  7.156289e-02  -5.647730e-02  1.450429e-01  -7.791970e-04  -7.494182e-02  -3.792882e-02  1.091578e-01  1.349215e-01  -3.017190e-01  1.594181e-01  -1.689110e-01  -5.912328e-02  -1.194157e-01  1.789799e-01  4.675052e-02  1.608905e-01  -2.414956e-01  1.390683e-01  9.977650e-02  -1.259354e-01  8.556946e-02  2.139665e-01  1.130755e-01  -1.538358e-01  7.676444e-02  -7.300014e-02  2.970139e-02  7.343031e-02  -3.049430e-02  1.859129e-01  7.931969e-02  -1.949214e-01  -1.124664e-01  -8.142038e-02  -7.950277e-03  3.766322e-02  -2.327500e-02  -2.281203e-01  1.370219e-01  1.588112e-01  5.571016e-02  -6.170430e-02  -1.774238e-01  1.270784e-01  7.530299e-02  6.545489e-02  -2.899952e-02  -1.401128e-01  -3.019099e-01  -4.236306e-02  -1.504454e-01  -1.909844e-01  -2.000383e-01  -1.693018e-01  -5.231771e-02  1.391678e-01  -8.874231e-02  5.475659e-02  6.749198e-02  1.782684e-01  1.461900e-01  -1.118125e-01  -2.018117e-03  7.800696e-03  -1.159106e-01  1.890832e-01  -1.652022e-01  -1.105035e-01  8.811748e-02  -8.477986e-02  1.622098e-01  3.117437e-02  3.816687e-02  8.919366e-02  -1.487346e-01  4.592492e-02  -8.685032e-02  -4.090006e-02  7.965704e-02  -1.775159e-02  1.529672e-01  1.631285e-02  -4.520814e-02  -5.134962e-03  1.634063e-01  1.477817e-01  1.518984e-01  -1.656446e-01  4.014827e-02  -1.562507e-01  -8.513448e-02  3.238279e-02  -1.367806e-01  -7.495144e-02  -2.785784e-02  -1.015099e-01  5.035093e-02  -1.867338e-02  -1.555963e-01  -3.988284e-02  -2.057464e-01  -4.379404e-02  -1.154587e-01  -8.668265e-02  1.187841e-01  1.179043e-01  1.184190e-02  9.715335e-03  3.282988e-02  -1.143875e-01  -1.118965e-01  -2.501211e-01  1.235140e-01  -2.871869e-01  8.768491e-02  1.456068e-01  -3.032783e-01  -3.893639e-02  4.640704e-02  -2.405209e-02  -2.568378e-01  2.021804e-01  -3.786282e-02  1.440345e-01  -7.256287e-03  -8.091407e-03  1.644778e-01  -1.736047e-01  1.295908e-01  -3.737896e-02  -1.885514e-02  4.751652e-02  -1.823654e-01  8.333209e-02  -1.515766e-01  6.762911e-02  5.512813e-02  1.994087e-01  -8.185314e-02  1.912749e-02  -4.888525e-03  8.513826e-02  8.031736e-02  1.938165e-01  -1.898684e-01  -6.868396e-02  8.155766e-02  1.136887e-01  -5.779262e-02  1.436481e-01  8.769607e-03  2.747345e-02  2.519141e-02  -1.513566e-02  1.125818e-01  2.303152e-02  -1.614436e-01  -4.266530e-02  -5.627143e-02  -7.716175e-02  1.665597e-01  1.653147e-01  -1.084485e-01  8.101708e-02  -2.409736e-02  -4.628090e-02  -1.012876e-01  1.244682e-01  -6.425821e-02  1.437009e-01  -1.990023e-01  -2.778622e-02  -1.341176e-02  -2.162524e-03  2.706799e-02  -1.010343e-02  -6.954885e-02  -9.970907e-02  6.292094e-02  -3.078170e-02  1.135102e-01  -1.786692e-02  -1.403913e-01  9.136301e-02  -1.144105e-01  1.579527e-01  4.925510e-02  1.224364e-01  8.406591e-02  -1.489139e-01  -4.254353e-02  -1.346907e-01  -1.374638e-01  8.934328e-03  -1.705310e-01  -3.624078e-03  1.183705e-01  -8.888926e-02  1.594264e-01  -2.284209e-02  8.349805e-02  2.593676e-02  -4.407323e-02  6.021872e-02  -1.273211e-01  -3.945280e-02  1.734105e-01  7.523390e-02  1.257076e-01  9.347031e-03  8.632363e-02  4.637758e-02  6.069976e-02  -4.944279e-02  8.057167e-02  1.019470e-01  -5.352505e-02  2.113460e-01  -2.520641e-02  1.057916e-01  1.842482e-02  -6.613310e-02  3.388268e-02  -6.239044e-02  -7.092082e-02  1.550546e-01  -3.691733e-02  1.202959e-01  -3.535452e-02  7.679508e-03  -5.276592e-02  -3.036040e-01  3.270445e-02  -1.286193e-01  -2.669240e-02  -6.195861e-03  -1.690498e-02  1.098428e-01  1.253010e-01  -1.594900e-01  -6.623003e-03  1.039242e-01  -1.110230e-01  3.954982e-02  -1.442099e-01  4.174857e-03  6.771728e-02  9.499359e-03  -1.407744e-02  4.214371e-02  9.091606e-02  1.423265e-01  1.350847e-01  -2.024662e-01  9.407600e-02  -1.161062e-01  6.622595e-02  -8.964572e-02  -8.024547e-02  1.648449e-01  -1.316885e-01  1.019226e-01  -4.103858e-02  1.726103e-01  -3.110804e-01  1.537400e-01  -1.245877e-01  -3.018552e-02  -1.554957e-01  2.233840e-01  -1.769655e-01  -9.547064e-03  9.182958e-02  3.774403e-02  -1.166520e-01  -1.081610e-01  8.560363e-03  -1.233708e-01  4.511541e-02  1.247220e-01  -1.815155e-01  9.098972e-02  -5.987680e-02  1.305328e-01  -8.711788e-02  1.212579e-01  3.711378e-02  2.706615e-02  -7.841045e-02  -5.234251e-02  3.548668e-01  -1.414636e-01  -1.842102e-01  1.880460e-02  1.382329e-01  -1.109404e-01  -2.013202e-01  -3.445274e-02  1.108846e-02  -4.954939e-02  -1.266630e-01  -3.879080e-03  1.167110e-01  -9.612847e-02  -3.368551e-01  -2.860058e-02  -1.366799e-01  -1.282887e-01  -2.034347e-01  -1.013508e-01  1.289184e-02  1.953160e-01  -4.057946e-02  -1.094606e-01  2.383401e-02  1.444973e-01  -9.823399e-02  1.374299e-01  1.441504e-01  1.580879e-01  -1.913206e-01  -2.820046e-02  1.172074e-01  1.569190e-01  5.246337e-02  9.964331e-02  5.463880e-01  -1.824815e-02  5.405836e-02  -8.462594e-02  -4.129388e-02  -6.325880e-02  -1.313569e-01  -1.373584e-01  2.759685e-01  -2.092996e-01  1.381353e-01  -1.068852e-01  -8.677850e-02  4.084067e-02  3.422131e-02  4.524682e-02  3.957627e-01  -2.531897e-02  -3.892099e-03  -1.961920e-01  -6.323364e-02  -2.721415e-01  -2.867223e-01  -2.990082e-03  2.710755e-02  1.746020e-01  9.439858e-02  1.703273e-01  -3.552950e-01  -7.037373e-02  -4.105388e-01  5.384544e-02  1.986111e-01  -1.271290e-01  -7.447394e-02  1.520577e-01  4.327834e-02  -1.738798e-01  -1.244638e-01  -5.576931e-02  -1.306972e-02  -7.054940e-02  8.122001e-02  -1.784344e-01  8.013533e-02  -1.146491e-02  -2.786281e-01  1.476721e-02  -1.153207e-02  -6.666088e-02  -8.873782e-02  2.389037e-01  -2.371719e-02  -1.656744e-01  5.477732e-03  1.423218e-01  -1.947866e-01  6.185358e-02  -8.471306e-02  1.961683e-02  3.713087e-02  -1.270082e-01  1.991392e-03  1.899883e-02  -1.582052e-01  -8.025391e-02  1.966032e-01  8.978994e-02  -1.117734e-01  -6.044729e-02  1.634403e-01  -1.320005e-01  1.176023e-01  -2.653498e-01  -1.917469e-02  8.246546e-02  1.054369e-02  1.557853e-01  4.594876e-02  5.820466e-02  8.021219e-03  4.057740e-02  1.307433e-01  -1.605496e-02  1.928840e-01  5.254638e-02  9.784573e-02  -7.254303e-02  -1.032574e-01  4.825853e-02  -8.375420e-02  2.740329e-02  -1.545908e-01  2.111474e-01  4.802981e-02  1.357717e-02  -1.534435e-01  4.026688e-02  -6.369531e-02  5.396140e-02  -1.272435e-01  -1.235395e-01  1.235119e-01  7.705222e-02  -6.211000e-02  9.223829e-02  3.319288e-01  2.212371e-01  5.486834e-02  1.930263e-02  1.488210e-01  2.190255e-01  5.782542e-02  -1.975123e-01  5.740435e-02  1.279179e-01  4.010069e-02  -1.468182e-01  1.939747e-01  4.114934e-04  -3.778853e-02  -1.384192e-01  1.118930e-01  1.159899e-01  -2.143176e-02  -1.208653e-01  6.203674e-02  9.093507e-02  -1.298316e-01  8.362234e-02  -3.271192e-02  -1.027652e-01  1.596066e-01  1.048972e-01  -5.343206e-03  -7.037734e-02  6.425814e-03  1.647996e-01  -5.184809e-02  9.472603e-02  -1.819251e-01  -3.003247e-03  9.716913e-03  -1.169358e-01  -2.012428e-01  -4.551652e-02  1.032615e-01  2.170427e-01  -1.106479e-02  2.944516e-01  1.515079e-01  -7.105158e-02  1.718518e-02  7.310601e-02  5.337766e-02  -6.979024e-02  1.568395e-01  -1.688875e-02  4.340453e-01  -2.351019e-02  -1.567417e-01  7.887137e-02  1.037733e-01  -1.400310e-01  -6.417500e-02  -5.904863e-02  4.253503e-02  2.800719e-02  -3.516053e-03  4.429649e-02  1.919445e-02  9.556920e-02  1.326391e-01  -2.983922e-02  2.129858e-01  2.236671e-01  2.399753e-02  4.505444e-02  2.850629e-01  -1.990277e-01  -1.237163e-01  1.600440e-01  -8.146115e-02  -1.598818e-01  2.028605e-02  -1.613763e-01  1.392619e-01  2.591217e-02  -9.607852e-02  1.165497e-01  2.731669e-02  8.424798e-02  -7.924912e-02  1.316444e-01  2.503894e-01  5.270665e-02  -9.294649e-02  -6.140378e-03  -1.350423e-02  1.051653e-01  2.216421e-02  2.817603e-01  -1.237695e-01  1.484484e-01  5.567965e-02  -9.298349e-02  -7.570259e-02  1.011239e-02  -1.723867e-01  2.228319e-02  -4.354891e-02  -1.698364e-02  7.011086e-03  -7.307822e-02  2.263656e-02  -2.179082e-01  1.577842e-01  6.099527e-02  -1.378305e-02  -1.359754e-01  5.311076e-02  -8.106142e-02  -7.095098e-02  -2.061258e-01  5.278433e-02  3.028032e-02  -1.025917e-01  1.419931e-01  -1.573202e-01  1.053912e-01  -1.662882e-01  2.260366e-02  1.423584e-01  1.250811e-01  -1.254106e-01  4.822555e-02  -2.473994e-02  8.134117e-03  -1.289095e-01  -2.054029e-01  1.070045e-01  9.963612e-02  2.268846e-02  -1.783004e-01  7.716718e-02  -1.357106e-01  8.754990e-02  -2.058833e-01  -1.077841e-01  -9.253790e-03  -1.832980e-01  1.137027e-01  -9.132333e-02  3.802156e-02  -8.274019e-02  -1.469277e-01  1.516224e-01  1.627953e-03  1.020961e-01  8.216790e-02  5.485252e-02  -5.325076e-02  -8.716708e-02  1.971245e-01  -4.110052e-02  6.571718e-02  -2.731631e-01  -2.221374e-03  -2.054807e-01  3.942855e-03  9.743416e-02  5.307280e-02  5.658088e-02  -1.443270e-01  5.330534e-02  1.066939e-01  2.286261e-01  5.726222e-03  -1.457933e-01  -1.001719e-01  1.337051e-01  8.246189e-02  2.844262e-02  -3.968055e-02  -1.858510e-01  6.497519e-02  -2.322641e-02  3.351015e-02  -1.647103e-01  -4.881293e-02  -2.649094e-01  -4.928720e-02  6.538292e-02  -6.367917e-02  9.875735e-02  4.288717e-02  -4.291953e-02  -2.203105e-01  6.245334e-02  2.124438e-02  2.375169e-02  5.123576e-02  -2.407333e-02  -5.434014e-02  -4.673158e-02  -5.694047e-02  7.195684e-02  7.460623e-02  1.271300e-01  1.016118e-01  -1.150561e-01  -5.297364e-02  -4.459688e-02  -1.043406e-01  7.714374e-02  -1.410645e-01  -6.321539e-02  1.469935e-01  1.175691e-01  -2.171594e-01  -1.661160e-01  -5.360086e-02  -9.584948e-02  6.554888e-02  -4.227480e-02  -4.733981e-02  -2.305621e-01  -1.241767e-01  3.885647e-02  8.749196e-02  -1.419637e-01  -7.259034e-02  4.744573e-02  -1.174239e-01  1.479967e-02  -1.252622e-01  -2.298281e-01  2.217318e-02  -2.673173e-01  -7.122778e-02  2.395043e-01  2.394705e-02  -7.598978e-03  9.219023e-02  1.645818e-01  -1.230085e-01  4.432218e-02  2.421175e-02  9.806681e-02  -2.216471e-01  2.329354e-01  -4.566706e-01  7.481445e-02  1.406046e-01  -7.111955e-02  -2.055989e-01  -1.552295e-01  -1.229086e-01  2.277681e-01  7.034341e-02  -1.342188e-01  2.716966e-02  -1.309805e-01  -4.775677e-02  -7.920606e-02  -3.037436e-02  1.079997e-01  1.858718e-01  -1.648421e-01  2.072462e-01  9.299887e-02  -8.182105e-02  5.423677e-02  4.358465e-02  -3.913197e-02  -2.693449e-01  1.198487e-01  -1.921322e-02  -1.755798e-01  3.333995e-02  -2.612296e-01  -1.104913e-01  -4.338354e-02  4.661737e-02  -3.785302e-02  9.321360e-04  2.628276e-02  -2.087072e-01  3.143561e-02  1.895768e-02  1.129321e-02  3.035237e-01  8.153260e-02  3.032938e-01  -1.238608e-01  -1.881787e-02  -6.436207e-02  1.219714e-01  -1.031945e-01  -9.702621e-02  6.001780e-02  -7.711390e-03  5.928047e-02  -3.317463e-02  -8.481931e-02  2.747108e-01  -2.157339e-01  -1.619697e-01  1.442508e-01  -9.224991e-02  2.193404e-01  4.364533e-02  2.513838e-01  -3.389321e-03  -1.800477e-02  1.482320e-01  1.540037e-01  2.235987e-02  -3.683134e-02  4.178246e-02  2.209008e-01  2.212074e-01  -2.087896e-02  7.196015e-02  -1.137268e-01  -6.649201e-02  2.220524e-01  -1.095081e-01  -1.587201e-01  -1.743958e-01  -1.973913e-02  -2.521851e-02  2.245311e-01  -5.707537e-02  -1.849042e-01  -4.975465e-02  6.352212e-02  1.036556e-01  -3.567980e-02  -2.177879e-01  7.501138e-02  -3.234358e-02  -2.470115e-01  -1.629573e-01  -1.854827e-01  -1.261369e-01  -1.087401e-01  -9.151639e-02  -5.037741e-02  2.415462e-01  -2.775259e-01  1.599258e-03  -1.045692e-01  -2.656164e-02  8.933322e-02  2.843345e-02  3.621833e-01  1.656266e-01  -1.305778e-01  -9.450662e-02  1.226770e-01  3.102330e-02  7.570836e-03  -4.128502e-02  -7.800349e-02  -1.530551e-01  -8.763351e-02  -1.158718e-02  -6.568932e-03  -1.496931e-01  8.215965e-03  9.560808e-02  -9.069326e-02  -1.243466e-01  1.356182e-01  1.957411e-01  -2.647625e-02  -1.169786e-02  1.596593e-01  2.414464e-02  1.432007e-01  1.362860e-01  -5.717405e-02  1.659753e-01  4.530102e-02  1.660800e-01  2.020876e-01  -6.978665e-02  -5.015020e-02  -2.209564e-02  -7.723928e-02  -4.536238e-02  -6.046859e-02  -2.230517e-01  2.310196e-02  1.536625e-01  -1.143602e-01  7.911700e-02  1.964291e-01  1.129821e-02  1.194118e-01  2.251658e-01  -1.092073e-01  1.506381e-01  2.112133e-01  5.993716e-02  -2.547781e-01  -8.434785e-02  -1.964639e-02  3.107808e-02  8.745711e-03  2.790276e-02  -2.844166e-02  1.354742e-01  1.833495e-01  1.169273e-01  -7.699208e-02  -1.710632e-02  -2.753657e-01  -2.734918e-03  7.385155e-02  -5.921930e-02  1.211518e-02  1.235075e-01  -1.097251e-01  1.655961e-01  7.325713e-02  4.170473e-02  2.960238e-01  1.702190e-01  6.144107e-02  4.298880e-02  2.565846e-02  4.267433e-02  -1.867670e-01  1.764525e-02  2.177919e-01  5.005848e-02  3.487960e-02  1.190658e-01  -7.274807e-04  -1.001149e-01  -1.944942e-01  -1.763263e-01  1.009694e-01  -2.555341e-01  9.576193e-02  -6.337932e-02  -2.083676e-01  -3.217946e-02  -1.045707e-01  1.583566e-01  -1.535474e-01  -8.000066e-02  4.964750e-02  -1.980348e-01  -1.946755e-01  1.291454e-01  7.946178e-02  -1.660642e-01  3.046709e-02  -8.155218e-02  -1.982239e-01  1.629739e-01  -8.904432e-02  8.411794e-02  -1.205200e-01  -1.733349e-01  1.169702e-01  -1.151576e-01  1.155516e-01  -8.121451e-02  -5.152723e-02  -1.138874e-01  9.171372e-02  8.210900e-02  -1.309154e-02  -4.852909e-02  5.650819e-02  2.118839e-01  -5.089110e-02  -8.081625e-04  -1.689130e-01  1.730952e-01  1.694820e-02  -1.130756e-01  -3.827912e-02  1.633530e-02  -1.145011e-01  -1.345139e-01  -1.488854e-01  7.093031e-02  -3.266486e-03  1.510023e-01  -2.142836e-01  1.416230e-01  1.499854e-01  6.267969e-02  1.809516e-02  -4.947994e-02  8.280515e-02  1.639836e-02  9.645601e-02  1.741986e-01  -7.097558e-02  -5.064639e-02  8.987042e-02  -1.695483e-01  -1.182849e-01  1.330928e-01  3.308716e-03  5.486116e-02  -7.506131e-02  -1.540240e-01  -1.353419e-01  -1.771836e-01  5.801803e-03  1.543485e-02  9.972475e-02  -2.171899e-01  3.591435e-02  2.459406e-02  7.120260e-04  -3.439384e-02  -7.280751e-02  -2.188124e-02  1.778664e-01  -1.198931e-01  2.402160e-02  8.279806e-02  3.030751e-02  -1.758314e-01  1.702678e-01  -1.305408e-01  -1.134690e-01  -3.994317e-02  -2.370060e-01  9.422918e-03  -1.538925e-01  1.189256e-01  -4.458251e-02  2.038004e-01  -1.946008e-02  -9.206258e-05  -1.445744e-01  -8.598223e-02  1.948704e-01  1.287205e-01  1.364680e-01  2.758991e-02  -8.798970e-02  6.309894e-02  2.438027e-02  -1.194005e-01  9.714699e-02  8.972497e-02  2.082239e-03  -2.087356e-02  6.437448e-02  7.044392e-02  9.529896e-02  1.484443e-01  -8.460458e-02  -1.287659e-01  -1.497528e-02  -3.222065e-02  8.630171e-03  8.012952e-02  -1.700063e-02  -1.686580e-03  6.006148e-02  -1.305122e-01  1.319820e-01  5.792058e-02  -3.988336e-02  -9.390808e-02  -7.232010e-02  -7.834670e-02  -1.623278e-01  1.039475e-01  -2.098801e-02  1.275255e-01  6.857211e-02  1.329335e-02  1.586994e-02  1.179918e-01  -2.302813e-02  -9.507084e-02  -7.766294e-02  1.443220e-01  3.041988e-02  -4.251260e-02  1.180580e-01  6.055812e-02  1.573095e-01  -8.957441e-02  -7.138686e-02  5.268843e-02  1.002123e-01  -2.116111e-01  -9.321593e-02  -8.296612e-02  -2.572959e-02  1.172257e-01  -1.109740e-01  1.219518e-01  -3.174985e-01  6.155378e-02  -3.817865e-02  2.562525e-01  3.085665e-02  1.921287e-02  1.448389e-02  1.845756e-01  -6.474561e-02  -1.014673e-01  8.278690e-02  -2.396944e-01  -1.534607e-01  1.639482e-01  -1.623480e-01  -6.374004e-02  -3.426216e-01  1.379519e-01  4.202510e-02  -3.189606e-02  4.317256e-04  6.995007e-02  1.104963e-01  -7.287366e-02  1.199878e-01  -3.739530e-02  -5.518448e-02  -3.088115e-01  9.866105e-02  -1.553758e-01  1.542074e-01  -8.501133e-02  -5.204233e-02  7.968128e-02  5.135753e-02  1.640890e-01  1.226897e-01  -8.984342e-02  -2.465714e-03  1.875670e-01  -3.966404e-01  -1.363280e-01  -4.646469e-02  -7.918620e-02  -9.292872e-02  -3.023959e-02  4.310429e-02  2.433218e-01  1.944735e-01  6.076406e-02  -2.690850e-01  -6.585514e-02  -2.293028e-02  1.323531e-01  2.070799e-01  -4.192105e-02  -1.905116e-01  -1.291866e-02  8.820891e-02  -1.463812e-01  2.587105e-02  6.159320e-02  3.518499e-01  -4.957067e-03  7.764364e-02  1.001666e-01  -1.253818e-01  -2.131723e-01  -2.776223e-01  -6.141281e-02  1.974003e-01  1.181232e-01  1.583773e-01  9.926286e-02  3.284744e-02  9.953715e-02  -4.664966e-02  1.411848e-01  4.979422e-02  -1.527979e-01  1.130855e-01  -2.114771e-01  1.833125e-02  -1.775054e-01  -1.026268e-01  2.771538e-03  1.543602e-01  9.451942e-02  1.254704e-01  1.224303e-03  -2.633987e-01  1.251825e-01  -2.003602e-01  -7.335074e-02  1.610746e-01  -1.595926e-01  -8.100968e-03  -1.152353e-01  2.884634e-01  1.202145e-01  -1.941882e-01  9.784534e-02  1.678196e-01  -8.494635e-02  8.851813e-02  -1.408445e-01  -2.975991e-02  -5.049789e-03  -1.023311e-01  -1.116948e-01  -2.089891e-02  9.890237e-02  -2.869496e-01  -9.331669e-02  -9.245096e-02  1.696626e-01  6.379419e-02  -2.033343e-01  1.627754e-01  -4.117172e-02  -2.569133e-02  -1.374014e-01  2.073722e-01  7.868455e-02  4.508464e-02  2.359053e-03  -1.313283e-01  -2.057936e-02  -1.958162e-01  2.002132e-01  -7.112931e-03  -1.378491e-02  -2.196207e-01  7.706997e-02  1.976826e-01  -1.467712e-02  4.028590e-02  -4.802112e-02  9.079065e-03  -1.975999e-01  1.567644e-02  8.415350e-02  8.403528e-02  4.477872e-02  -2.644179e-01  -4.419997e-02  1.908173e-01  -1.138014e-01  -1.115738e-01  -3.535481e-02  1.083177e-01  1.026831e-01  -1.163882e-02  1.593974e-01  1.478995e-01  -1.289023e-01  -1.421690e-01  -2.744465e-02  -5.870753e-03  -3.604311e-02  -1.240355e-01  1.946491e-02  -1.181793e-03  2.419036e-02  4.714761e-02  5.954231e-02  5.788407e-02  -2.168162e-01  2.923940e-01  1.450496e-01  -1.187809e-01  -2.041485e-02  -3.029935e-02  4.365093e-02  6.232399e-02  2.715295e-02  -4.288789e-03  1.785227e-01  7.946820e-02  3.801982e-02  9.385250e-02  1.707020e-01  -7.884483e-02  -2.176713e-01  -8.873944e-02  7.831933e-02  -2.022028e-01  8.536803e-02  9.075747e-02  1.182074e-01  -1.851459e-01  7.822068e-02  9.282029e-02  1.022818e-01  5.474853e-02  6.569386e-03  1.721020e-01  -9.387930e-02  -9.021556e-02  -5.291566e-02  3.497428e-02  3.248075e-02  -5.747969e-03  1.831055e-01  -1.443551e-02  -1.713846e-01  8.959913e-02  2.172400e-02  -5.831211e-02  -5.891567e-02  -8.725554e-02  -3.276638e-02  -9.563915e-02  -1.726874e-01  -5.811348e-02  -7.139283e-02  1.081167e-01  2.446664e-01  4.359090e-02  -2.572034e-02  -7.930640e-02  -7.052206e-02  1.358176e-01  1.154899e-01  -4.421991e-02  2.891149e-03  8.481348e-02  -5.478184e-03  -2.042665e-01  1.258846e-01  9.336525e-02  3.099723e-02  1.021785e-01  -1.640566e-02  1.608360e-01  -1.508248e-02  -1.861792e-02  1.354111e-01  -3.692526e-02  1.072882e-01  -8.280128e-02  3.658044e-02  -8.889301e-02  -9.779298e-02  -1.589154e-01  2.724599e-01  -1.663616e-01  1.239565e-01  -8.639979e-02  2.990507e-01  8.334075e-02  -4.539834e-04  -4.066626e-02  4.443854e-02  -1.126738e-01  -2.930894e-01  2.147125e-01  8.927487e-02  1.257616e-01  -1.378254e-01  1.004836e-01  -1.710124e-01  -1.339334e-01  -3.658008e-02  -1.882199e-02  1.042342e-01  -9.502493e-02  1.626622e-01  1.061831e-01  8.701390e-02  1.486351e-02  -5.449988e-02  7.687981e-02  -8.621807e-02  2.044797e-01  1.419569e-01  1.277137e-01  2.106947e-02  -4.103155e-02  2.573732e-02  -5.273619e-02  1.079353e-01  -2.998956e-01  9.053984e-02  -1.215350e-01  8.441782e-02  -1.581494e-01  1.400472e-01  1.441828e-01  -5.750329e-02  1.626453e-03  -7.345568e-02  -1.516145e-02  -1.215756e-01  6.929296e-02  -8.553109e-02  4.156013e-01  2.543755e-02  -1.064195e-01  4.990833e-02  1.585642e-01  1.535788e-01  8.488900e-02  -3.028330e-02  -2.049542e-02  -9.065077e-02  1.803498e-01  -2.175038e-01  4.848939e-02  7.587976e-02  -2.739067e-01  1.534537e-03  1.907177e-01  -1.792047e-02  2.002396e-01  1.633862e-02  3.558721e-02  -1.179875e-01  -3.761914e-01  -9.538378e-02  -4.554000e-02  -1.586490e-01  -4.334729e-03  -5.370012e-03  3.030830e-01  -2.006126e-03  -1.958292e-01  -2.969732e-02  6.348965e-02  -1.749190e-01  -3.083225e-02  -3.596016e-02  -7.359533e-02  -2.482627e-01  -3.663011e-01  -5.339100e-03  1.288231e-01  3.738902e-01  4.489648e-02  3.727229e-02  1.935938e-01  1.929284e-01  -2.380870e-01  -1.010428e-01  1.879514e-02  6.901318e-02  3.064245e-02  8.642457e-02  4.628757e-01  1.847941e-01  2.978515e-02  2.269286e-01  9.468394e-02  7.985396e-02  -1.292357e-01  1.240945e-01  1.257460e-01  2.853381e-02  -8.344598e-02  1.580931e-01  -3.472633e-02  2.441108e-01  -1.070545e-01  2.020941e-03  2.253244e-01  1.438872e-01  -6.092682e-02  1.439303e-01  2.173481e-01  -1.003727e-01  1.147075e-01  -9.005858e-02  -1.010623e-01  2.896434e-02  4.457955e-02  -8.988026e-02  -1.133382e-01  9.098997e-02  -1.464078e-01  5.748658e-02  -3.345448e-02  -3.767026e-02  1.581839e-01  -2.741819e-01  -1.891765e-02  4.960440e-02  -1.266525e-01  1.149465e-02  5.399579e-02  -1.787084e-02  -2.465468e-02  -1.593735e-01  -7.717702e-02  -3.757352e-02  -6.296355e-02  7.812639e-02  -4.279743e-02  -7.351034e-02  1.127854e-01  5.649398e-02  -1.181062e-01  -1.521548e-01  -1.469006e-01  6.231353e-02  -6.228107e-02  -2.036780e-01  1.809908e-01  -1.411403e-01  6.310074e-02  -2.217172e-02  -1.757720e-01  1.635224e-01  -1.313001e-01  2.840378e-01  3.566666e-02  -2.959879e-02  -4.223641e-02  -3.760828e-02  2.236777e-01  -1.740192e-02  -1.780329e-01  1.405924e-01  -1.753162e-03  -1.889498e-01  -4.772404e-02  4.903336e-02  -4.523761e-02  6.432942e-02  -1.361922e-01  2.126284e-01  9.583903e-02  7.377387e-02  -1.444468e-01  -1.929792e-02  -1.040031e-01  -4.041225e-02  -1.097993e-01  1.168590e-01  -9.761776e-02  -8.991503e-02  -1.801565e-01  -1.508984e-01  2.771390e-01  1.534324e-02  1.699041e-01  1.240533e-01  1.097827e-01  -2.455586e-02  1.850516e-01  1.341881e-02  4.919450e-02  9.049564e-02  -4.379154e-03  -2.303088e-01  2.418625e-01  -7.216214e-02  -1.195554e-03  1.269187e-02  -8.165953e-02  1.580897e-01  1.397758e-01  1.364089e-02  -6.147425e-02  1.731254e-01  -4.980941e-03  -1.620025e-01  -2.096724e-01  6.378194e-02  -7.612834e-02  -2.046031e-02  2.033842e-01  2.714141e-01  -4.588821e-02  6.937542e-03  -1.671342e-01  1.191536e-01  -2.637207e-01  1.977909e-01  6.754027e-02  1.134607e-01  2.383692e-01  -1.066788e-02  -1.092859e-01  -3.336597e-02  2.481116e-01  1.374612e-01  -3.228206e-02  2.282642e-01  -2.726626e-01  -1.383217e-02  -4.412328e-02  1.137657e-01  1.996872e-01  8.796789e-02  -6.959244e-02  -2.283511e-02  -1.444452e-01  1.418610e-02  5.401075e-02  1.956308e-01  2.970278e-02  -2.620846e-01  1.023931e-01  -7.879608e-02  9.341286e-02  -4.749109e-02  1.072406e-01  1.163377e-01  -1.421835e-01  1.398198e-01  1.214918e-01  1.007806e-01  -1.906563e-01  -1.403105e-01  -9.399969e-02  2.172931e-01  -2.520845e-01  1.237561e-01  -9.914715e-02  1.913971e-01  -8.600032e-02  3.104520e-02  -8.227771e-02  -1.451702e-01  4.833675e-02  8.382252e-02  1.055028e-01  -7.431640e-02  -7.868940e-02  1.399259e-01  -2.278645e-01  -1.768656e-02  9.636717e-02  5.259440e-02  1.656725e-01  -4.115451e-02  8.259489e-02  3.163973e-02  2.871149e-01  -1.339980e-01  1.233823e-01  1.740755e-03  3.905475e-02  9.554706e-02  -3.742105e-02  -1.036557e-01  1.021937e-01  1.213626e-01  1.777386e-01  -1.751199e-02  6.277242e-02  -1.887128e-02  -1.327406e-01  8.562778e-02  -8.729450e-02  -1.833320e-01  -3.551738e-01  -1.043268e-01  -1.572351e-01  2.112918e-02  4.688731e-03  -7.274795e-02  1.573240e-01  9.581918e-02  3.177518e-02  -1.215482e-01  1.288245e-01  -6.744066e-04  -1.920878e-01  -1.925906e-03  -1.353838e-01  -1.059520e-01  3.547997e-02  -1.236779e-01  1.629483e-01  3.984407e-02  -4.266726e-02  -1.379325e-01  -2.630403e-02  -1.857382e-03  -9.246363e-02  1.640255e-01  1.055262e-02  -8.744761e-02  1.816391e-01  5.508830e-02  9.400448e-02  1.612001e-01  1.959464e-01  1.145787e-01  3.838541e-01  -7.625838e-02  -8.592224e-02  -3.666109e-01  -4.534454e-02  -1.102910e-01  -1.393427e-01  -1.426428e-01  8.846590e-04  -3.283792e-02  -5.506480e-02  1.126105e-01  -1.618060e-01  9.244070e-02  -2.575941e-01  -2.696360e-02  1.062590e-02  -1.007912e-01  2.442916e-02  -1.992418e-02  1.444346e-01  -8.483950e-02  -2.635870e-01  -4.489020e-02  -1.324987e-02  -2.635399e-01  8.496717e-02  -3.746540e-01  6.054312e-02  -1.763916e-01  -3.528998e-01  -1.121703e-02  7.160412e-02  -1.269715e-01  -2.402810e-01  -2.367159e-02  -1.031508e-01  -1.694246e-01  3.568200e-02  1.600085e-01  -3.513557e-02  8.008108e-02  1.882576e-02  1.151867e-01  -2.684986e-02  -1.142721e-01  7.588099e-03  -7.129713e-03  1.292851e-01  -9.632390e-02  1.342150e-01  -1.886928e-01  1.526552e-01  -5.192884e-02  2.136737e-01  -7.137637e-02  -2.703059e-01  -1.823939e-01  2.725589e-01  -4.865988e-02  1.600717e-02  2.398270e-01  4.185470e-02  -2.008940e-01  8.781200e-02  -6.730682e-02  3.301568e-01  -1.308469e-01  -1.803374e-01  8.277206e-02  3.929194e-02  -2.470842e-01  1.150164e-01  1.542691e-01  -4.769957e-02  6.979880e-02  -2.015701e-01  8.848056e-02  -9.048465e-04  2.223746e-01  1.229390e-01  7.017604e-02  3.622171e-02  9.948605e-02  -3.291699e-03  -1.024787e-01  -2.513850e-02  2.890372e-02  -1.708498e-01  -2.147065e-02  1.336009e-01  -9.720866e-02  4.482481e-02  1.748734e-01  3.397816e-01  -1.294916e-01  1.661111e-01  -2.090729e-01  5.566907e-02  -1.092008e-01  -2.006021e-01  -5.237873e-02  -3.954732e-02  -9.672327e-03  1.889915e-02  2.084822e-02  1.395838e-01  -1.844255e-02  1.245627e-01  -1.432769e-02  -6.387799e-03  6.417862e-02  -2.969549e-01  1.179668e-01  6.124105e-02  -1.977335e-01  2.048981e-02  1.088041e-03  5.101469e-02  1.511793e-01  -8.633369e-02  -8.524930e-02  -4.073735e-02  1.315923e-01  -1.566540e-01  -1.901254e-01  -2.861682e-03  2.128384e-02  -3.471519e-01  -3.658953e-03  9.261879e-02  -9.893268e-03  8.346229e-02  -1.034642e-03  1.697490e-01  1.525392e-01  -1.065356e-01  1.473548e-01  2.924257e-02  -1.750188e-01  1.667867e-01  -1.098642e-01  2.183684e-01  2.045490e-01  -1.017757e-01  1.823430e-01  -5.100302e-02  -2.414903e-02  -1.095440e-01  -7.611813e-02  1.265282e-01  1.181905e-01  -1.640667e-01  1.196927e-01  -3.579904e-02  1.220071e-01  1.195816e-01  -2.110996e-01  -1.792237e-02  -5.669186e-02  1.645873e-02  -2.548738e-02  2.109956e-01  1.420970e-03  -7.285385e-02  -3.579696e-02  1.092492e-01  -1.213893e-01  8.545427e-02  1.036632e-01  2.414190e-01  1.624748e-02  -2.453629e-04  -1.163093e-01  2.843794e-02  5.121436e-02  1.954912e-01  1.730162e-01  -6.274144e-02  -6.730841e-02  3.871540e-02  2.397756e-01  -1.559051e-01  2.120539e-01  -1.177769e-01  1.961751e-01  1.246900e-02  1.525188e-01  2.250198e-02  -6.819867e-03  -8.131851e-02  1.235810e-01  1.615418e-02  -1.011605e-01  -8.234063e-03  1.536869e-01  -2.711455e-01  -1.545142e-03  -7.193495e-03  4.906172e-02  8.540836e-02  1.302745e-01  -1.317057e-01  5.845946e-02  2.171432e-01  -2.929024e-01  8.898279e-03  -2.605380e-01  -5.174989e-02  -2.266068e-02  -7.069445e-02  8.383868e-02  -6.125020e-02  -1.940322e-01  -4.661559e-02  9.955984e-02  7.079449e-02  5.072250e-02  -2.344441e-01  -2.797048e-02  2.098736e-02  -1.396688e-01  -2.049244e-01  -9.050637e-02  -7.920694e-02  1.137334e-01  -7.607160e-02  -1.363208e-02  7.749578e-02  -1.040163e-01  2.399412e-02  6.980590e-02  1.642764e-01  1.029604e-01  -2.952580e-01  5.646778e-02  8.990487e-02  -5.828296e-02  2.603407e-02  1.242735e-01  1.756323e-01  -7.314348e-02  4.495314e-02  2.804266e-02  -7.010533e-02  1.571071e-01  -1.531741e-01  -9.979361e-03  1.775650e-01  1.494081e-02  9.031807e-02  8.995972e-02  1.266101e-01  7.744990e-02  1.519723e-01  2.646218e-01  1.472701e-01  -1.026438e-01  -9.105016e-02  -2.935663e-02  -3.383429e-02  -1.759068e-01  -2.514785e-01  1.632106e-02  2.683742e-02  -2.995547e-02  -8.553336e-03  4.306812e-03  -3.250455e-01  9.672698e-04  -3.710895e-01  -1.332215e-01  1.271823e-01  2.511388e-03  7.304581e-02  1.864830e-01  9.564976e-02  -7.286510e-02  -1.297862e-01  3.320483e-02  -1.020777e-02  -8.298471e-02  3.922848e-02  -1.690591e-01  1.365502e-01  -4.452950e-02  -2.430148e-01  -8.351369e-02  5.395593e-02  2.283580e-02  -3.443882e-01  -7.985573e-02  5.913404e-02  -7.066452e-02  -1.575911e-01  3.270084e-01  -9.712829e-02  2.042232e-01  -7.006493e-02  8.225490e-03  1.638352e-01  4.077529e-02  2.331640e-02  -9.318168e-02  6.005960e-02  -1.976228e-01  3.005214e-01  -9.717882e-03  3.439978e-02  -2.133818e-01  2.928941e-02  -2.777374e-01  2.340807e-01  -1.039372e-01  5.757760e-02  -1.938296e-01  -7.455543e-02  2.389243e-01  -8.223950e-02  1.828338e-01  -1.444505e-01  -1.329549e-02  1.324938e-01  -1.176270e-01  1.701723e-01  -3.587395e-02  -1.036545e-01  -8.394237e-02  -1.025713e-01  1.491461e-01  1.021138e-02  7.481495e-02  -1.778270e-01  1.611972e-01  1.255595e-01  -7.694218e-02  1.191270e-01  8.956404e-02  2.786495e-01  -4.618662e-02  6.179635e-03  -9.842758e-02  -6.790669e-02  9.496545e-02  -1.075841e-01  -1.113166e-01  2.019766e-01  2.462819e-01  5.383555e-02  3.131886e-01  1.830068e-01  1.721792e-01  1.237338e-01  6.611878e-02  1.998926e-02  2.034222e-01  5.595891e-02  -6.532636e-02  1.107363e-01  -2.900768e-02  -1.373101e-01  -1.918797e-01  2.490457e-01  1.640819e-02  -7.105199e-02  1.202502e-01  2.033510e-02  -2.530598e-03  -3.205662e-01  -1.625557e-02  -8.519598e-02  1.040813e-01  1.647143e-01  4.930993e-02  2.304263e-01  1.679540e-01  -3.083181e-02  1.616029e-02  -7.521926e-02  8.679782e-02  -9.118824e-02  5.549137e-02  -1.122625e-01  -3.273437e-01  -3.357134e-01  -4.903337e-02  3.627703e-02  3.281335e-01  -1.896841e-01  6.074265e-02  4.318557e-01  2.545123e-02  -1.372399e-01  2.935337e-02  2.910144e-02  -1.673775e-02  2.659743e-01  1.212636e-01  2.317144e-01  1.454211e-01  -2.257177e-01  1.741941e-01  1.258296e-03  -2.451148e-01  -4.695403e-02  -1.058655e-01  3.444039e-03  8.082425e-02  -7.732067e-02  -9.558880e-02  1.424911e-01  1.632784e-01  2.886942e-02  -1.565530e-01  1.424756e-01  -4.883155e-04  -1.389868e-01  1.879943e-02  2.751782e-01  -2.228607e-01  -1.292267e-01  -1.131119e-01  -7.139433e-02  2.875718e-01  3.278755e-02  1.624280e-02  2.740671e-01  9.479435e-02  -4.148619e-02  -6.527244e-02  1.361936e-01  -6.175503e-02  1.506820e-02  -2.137817e-01  -1.798697e-01  9.475906e-02  -3.132207e-02  1.128233e-01  -1.703608e-01  -9.929707e-03  -7.910404e-02  -3.405463e-01  2.502578e-02  -2.595000e-01  1.745816e-01  9.366871e-02  1.343403e-01  8.314964e-02  7.682656e-02  -8.828094e-02  1.583557e-01  -3.454527e-02  -3.181748e-01  -4.103609e-03  -1.325065e-01  1.479782e-01  -2.242329e-02  8.350526e-02  -1.061280e-01  1.117785e-01  -2.678029e-01  -4.458115e-03  1.213593e-01  4.423843e-02  2.406660e-01  -2.967338e-02  5.139095e-02  -4.371945e-02  1.795813e-01  -8.203406e-03  1.345119e-01  -3.620721e-02  4.999461e-02  -2.533946e-02  -1.764307e-01  -6.677541e-02  2.760063e-01  -2.830981e-02  1.572143e-02  2.352241e-01  2.443865e-02  -2.851199e-02  -1.599172e-01  3.673447e-02  3.068022e-01  8.407601e-02  1.719974e-03  4.630626e-02  -4.232435e-03  3.553188e-02  1.141745e-01  1.410897e-01  1.812450e-03  8.252986e-03  -4.524392e-02  2.095043e-02  -1.198077e-01  1.425048e-01  1.185425e-01  -1.185820e-01  1.333567e-01  2.260051e-01  3.368980e-02  1.151813e-01  5.883810e-02  8.955009e-02  -6.420098e-02  1.564992e-01  -8.131716e-02  1.222026e-01  1.506842e-01  -1.534963e-01  -1.082281e-01  3.848990e-02  1.254277e-01  -6.238712e-02  -1.212035e-01  1.811329e-02  2.290148e-01  -1.161636e-01  8.497665e-02  2.307109e-01  -3.290916e-02  3.238150e-01  9.874907e-02  1.124918e-01  4.885348e-02  -1.216538e-01  -1.079819e-02  -1.757582e-01  -2.978864e-01  1.266271e-01  6.048315e-02  -1.429847e-02  8.683173e-02  -4.280694e-02  5.953232e-02  8.219636e-02  1.484629e-01  -1.808589e-01  -1.297520e-01  -4.324268e-02  1.212289e-01  1.267400e-01  4.853666e-02  -7.065717e-02  3.677894e-02  -6.907840e-02  -1.222636e-01  1.283950e-01  -1.147698e-01  -5.397847e-02  3.150891e-02  1.093513e-01  1.664260e-01  -1.126237e-01  -9.058204e-02  1.781061e-01  4.877380e-02  7.909220e-02  -2.613485e-02  1.055215e-01  -2.565720e-01  5.573209e-02  -3.921295e-02  2.108476e-01  -2.822708e-01  2.230077e-01  7.511428e-02  5.374658e-03  -1.395763e-01  -1.227699e-01  1.254926e-01  -1.343870e-01  -6.431603e-02  1.334737e-01  -5.667736e-02  1.736608e-02  -1.100162e-02  -2.842337e-02  -1.328347e-01  -7.707848e-02  -4.522569e-02  -7.734883e-02  1.067704e-01  6.829128e-02  1.136932e-01  1.392260e-03  -7.631536e-03  -5.675022e-02  -1.658141e-01  -1.044076e-01  3.908762e-02  8.583167e-02  7.316865e-02  7.697894e-02  -5.871467e-02  -1.505280e-01  -5.506682e-02  1.968627e-01  1.277415e-01  -3.410359e-02  -2.066712e-01  -8.834275e-02  -2.022335e-03  -5.163125e-02  -1.300623e-01  -6.193804e-02  -6.917661e-02  1.243110e-01  9.524006e-02  -6.404175e-02  -1.426157e-02  2.702088e-01  -3.478639e-02  -1.204256e-01  2.093049e-01  -1.390291e-01  -1.741097e-01  1.846369e-01  5.332596e-02  1.047379e-02  5.270521e-02  -8.587512e-02  7.143740e-02  4.670032e-02  -7.370304e-02  1.941357e-01  -1.619834e-01  8.379165e-02  1.181454e-01  1.106633e-01  6.286246e-02  -1.476276e-01  -2.476026e-02  -6.343892e-02  8.139674e-02  1.731717e-02  1.572704e-02  1.835791e-01  3.332176e-01  2.622571e-02  -1.077862e-01  -5.988939e-02  -4.976845e-02  -1.972916e-01  9.216110e-02  -8.295572e-02  -4.920318e-02  8.283396e-02  2.873846e-02  1.362886e-01  -1.249394e-01  -9.352232e-02  -1.750388e-01  -1.636473e-01  -6.216901e-02  -1.102892e-01  6.859341e-02  1.990274e-02  1.829541e-01  -8.174690e-02  2.978993e-02  4.145925e-02  -8.703998e-02  -6.760246e-02  -4.651712e-02  -1.705752e-01  1.111204e-01  1.244803e-01  -3.260890e-01  -5.337310e-02  -1.709728e-03  -3.564641e-03  -7.140435e-02  1.682718e-01  8.194102e-02  -6.777603e-02  6.801195e-03  3.514324e-02  5.022672e-02  1.010720e-02  1.537317e-01  -5.558026e-02  5.809098e-02  1.738150e-02  -2.220564e-01  -4.227132e-02  -6.232907e-02  6.802866e-02  -7.741722e-02  -1.600103e-01  1.045719e-01  1.665797e-01  -2.843929e-02  6.814253e-02  9.789122e-02  1.340491e-01  -1.940821e-02  9.282595e-02  1.597012e-01  -1.195465e-01  9.503261e-02  -9.061858e-02  8.030761e-02  -1.800407e-01  -1.232998e-01  9.132862e-02  -2.971612e-02  4.782159e-02  3.370511e-02  -2.387157e-02  -1.068840e-01  -2.278965e-01  4.595602e-02  7.371637e-02  2.268094e-01  -2.167561e-01  -9.202026e-05  -4.959087e-02  1.054944e-01  9.871826e-02  5.701089e-02  9.848361e-03  8.827192e-03  -1.048215e-01  1.016762e-02  6.510317e-02  -1.868663e-02  1.834424e-01  -2.882653e-01  -1.263195e-01  4.414807e-02  -3.085124e-02  -1.303435e-01  -1.217659e-01  -1.079746e-01  1.911912e-02  -1.034093e-02  6.700838e-02  -5.235584e-03  2.866884e-01  -4.174060e-02  -1.469064e-01  7.707852e-02  1.279861e-01  -2.763704e-01  1.189226e-01  -1.533999e-01  1.255576e-01  1.576196e-02  -3.069952e-02  2.453178e-01  -2.966550e-02  1.132163e-01  5.870203e-02  1.509909e-02  2.603836e-02  -1.587685e-01  1.367569e-01  1.280731e-01  -1.064165e-01  5.656655e-02  -5.232558e-02  1.173516e-01  1.101575e-01  -1.180346e-01  1.301385e-01  4.240519e-01  1.001110e-01  -9.734770e-03  -1.226375e-01  1.036669e-02  -1.734830e-01  -1.081165e-02  -9.190824e-02  2.146571e-01  1.119056e-01  -5.112922e-03  1.342206e-01  -1.413077e-01  7.038036e-03  -2.522512e-01  -8.110497e-02  2.079218e-01  -2.717559e-01  -2.941979e-02  7.980880e-02  2.163329e-01  -2.440462e-02  1.101265e-01  2.245581e-02  4.051906e-02  -2.754945e-01  1.952113e-01  -3.536528e-01  -3.576916e-02  -1.789868e-01  -1.782432e-01  -2.774933e-02  -1.608750e-01  -1.791329e-01  -2.667955e-01  7.047307e-02  1.381465e-01  -8.343376e-02  2.878870e-02  -7.341467e-02  -4.127687e-02  -1.206947e-01  -6.974094e-02  -2.467687e-01  1.174401e-01  -9.658758e-03  -1.470164e-01  -1.525686e-01  -6.947714e-02  4.735415e-02  -1.635137e-01  -4.031331e-02  -9.747915e-02  1.089083e-01  -1.528117e-02  8.195199e-02  -1.769464e-02  3.581183e-02  -3.428827e-01  -2.865465e-02  -1.012214e-01  -3.888370e-03  -4.667905e-02  -8.346210e-02  2.786457e-02  -1.739735e-01  2.309499e-02  -2.922603e-02  5.385727e-02  5.417018e-02  6.538349e-02  2.049761e-01  8.675939e-02  1.424639e-01  1.298072e-01  -4.340267e-02  3.948626e-01  -1.522136e-01  -6.890673e-03  3.024191e-02  8.522978e-02  -5.099691e-02  -9.540294e-02  -5.542347e-02  -1.541335e-01  -2.056849e-02  8.294769e-02  2.235633e-01  -1.106093e-02  1.295670e-01  -1.371134e-01  -2.786063e-02  -1.400998e-01  -1.275694e-01  -2.468843e-01  7.688970e-02  2.654903e-04  1.323829e-02  3.123599e-02  1.306866e-01  1.884915e-01  -1.182385e-02  -1.084025e-01  1.024020e-01  1.970661e-01  -5.065443e-02  -3.104115e-01  -2.064873e-02  -7.306092e-02  1.451160e-01  6.890637e-02  2.149473e-02  2.599160e-01  6.865443e-02  8.946985e-02  -4.377626e-02  -1.254997e-01  5.573529e-04  -7.974934e-02  -1.235508e-01  1.948092e-01  4.347566e-02  -2.799989e-02  -2.886211e-02  -3.122317e-02  1.242915e-01  2.055846e-01  5.847894e-02  2.135370e-01  1.171602e-02  -2.088358e-02  -1.049635e-01  1.899528e-01  -2.547314e-01  -3.103448e-01  -5.357160e-02  1.747516e-01  4.506655e-02  7.295460e-02  6.043086e-02  -1.168991e-01  4.374376e-02  -2.841310e-01  -1.292731e-02  4.963993e-02  -2.420115e-01  7.768188e-02  9.578492e-02  2.502963e-01  -1.447465e-01  -1.059749e-01  1.381852e-01  1.186929e-01  -8.860706e-02  1.142107e-01  -2.542775e-01  -1.481528e-01  -2.893748e-02  -2.014048e-01  -2.098992e-01  -1.559295e-03  -1.043643e-02  -2.403783e-01  1.060810e-01  1.265505e-01  -2.060625e-01  -3.785634e-02  1.747203e-01  1.834356e-01  1.223156e-01  2.806697e-01  7.608824e-02  1.085818e-01  -9.790140e-02  1.020268e-01  8.819652e-03  9.650435e-02  1.363459e-01  5.084757e-02  1.101434e-01  -8.509165e-02  2.231984e-02  1.997255e-01  -8.064107e-02  5.290125e-02  6.930567e-02  2.722132e-03  -1.993679e-02  3.632730e-02  -1.489896e-01  2.236453e-01  4.588569e-02  9.697259e-02  8.390241e-02  1.517796e-01  1.902341e-02  8.180786e-03  1.691811e-02  -1.544378e-01  1.706949e-01  5.754485e-02  5.046880e-02  -1.186261e-02  1.582282e-01  -3.815004e-01  -3.835332e-02  -1.055552e-01  1.396789e-01  7.994938e-02  -6.615775e-02  2.710788e-01  6.416787e-02  -3.916849e-02  -8.664719e-02  4.453436e-02  8.783634e-02  -4.056679e-02  -1.692477e-02  1.417341e-01  5.657531e-02  -5.506225e-02  1.262568e-01  2.523585e-01  -3.488001e-02  -1.923580e-01  6.908548e-02  4.594612e-02  8.980704e-03  9.456291e-02  2.429602e-01  3.816447e-02  4.591690e-02  -5.173326e-03  8.192194e-02  5.166057e-02  -6.875195e-03  -7.332698e-02  3.066722e-02  -1.602905e-01  -1.427473e-01  -1.860315e-01  -1.734677e-01  1.969847e-01  8.132088e-02  5.638104e-02  5.481799e-02  2.179729e-01  1.261050e-01  -1.289210e-01  1.207319e-01  5.820778e-03  1.510997e-01  -3.701131e-02  2.036409e-01  6.263528e-02  -1.308222e-01  -4.202685e-02  -1.565238e-02  -3.169224e-02  3.572656e-01  -8.527035e-02  -1.235274e-01  3.684282e-01  1.869561e-01  1.501835e-02  1.263597e-02  1.678459e-02  2.135115e-02  -6.476476e-02  1.986184e-02  2.027567e-01  -2.441019e-01  -5.183938e-02  -2.396864e-01  -1.032184e-01  -5.142034e-02  -4.038323e-02  -1.413506e-01  2.142900e-02  1.026388e-01  4.783555e-02  -1.068668e-01  5.186646e-02  8.918993e-02  -9.936950e-02  1.361242e-02  -9.575037e-02  4.301831e-02  5.002676e-02  1.779457e-01  2.228809e-02  -7.088457e-02  -4.976115e-02  -1.972688e-01  -8.742611e-02  2.649430e-01  -4.472664e-02  -1.245714e-02  6.885540e-02  -1.578585e-02  -7.247263e-02  -2.618152e-02  1.495689e-01  1.382656e-02  -1.035080e-01  -2.903495e-01  1.192849e-01  7.969724e-03  9.205489e-02  -1.081030e-01  -1.178412e-02  -1.161397e-02  -1.247840e-01  1.933064e-02  1.355555e-01  -6.927174e-02  -9.566819e-03  5.338373e-02  1.248050e-01  6.994575e-02  -1.352352e-01  -2.943416e-02  2.054010e-01  5.233447e-02  8.052026e-02  7.576208e-02  -3.354116e-02  2.326092e-02  -3.643885e-02  2.262554e-01  -1.128215e-01  1.831794e-02  -2.103179e-01  2.585106e-01  8.819805e-02  1.715201e-04  1.161179e-01  2.645937e-02  7.110798e-03  -6.273020e-02  4.324698e-02  -5.541838e-02  4.106807e-02  7.646536e-02  1.130157e-01  1.188448e-01  3.658530e-01  8.834210e-02  2.708564e-02  8.868095e-02  7.727724e-02  1.237297e-01  1.239957e-01  6.910906e-03  -3.596373e-03  1.670272e-01  1.666885e-01  -2.358325e-01  1.475213e-01  1.270308e-01  -1.525207e-01  -1.391453e-01  2.676352e-01  -1.278292e-01  9.212948e-02  1.389040e-01  5.392564e-02  7.743108e-02  -3.937764e-01  -8.893749e-02  -3.419814e-02  -1.818162e-01  -2.966103e-02  -2.156309e-02  1.042938e-01  -1.363745e-02  8.737175e-03  5.997008e-02  -1.800143e-01  6.745317e-02  4.390058e-02  -7.614534e-02  -1.663927e-01  -2.227877e-01  -2.623853e-01  1.013742e-01  -4.324844e-02  8.651500e-02  1.084096e-01  2.269071e-01  2.995955e-01  9.917419e-02  1.706701e-02  -9.816695e-02  1.195351e-01  -4.218804e-02  1.323672e-01  6.739732e-03  2.899511e-01  -4.061834e-02  -8.170081e-03  5.066862e-03  5.554153e-02  -2.003942e-01  -3.001482e-01  1.056550e-01  2.352987e-02  5.718091e-03  -1.319985e-01  1.850452e-01  5.318808e-02  2.938262e-01  -2.755100e-02  1.493866e-03  3.315204e-01  2.274006e-01  -1.805843e-01  -7.034620e-02  3.260296e-01  7.297347e-02  3.295776e-02  -1.160428e-01  7.306235e-02  2.873404e-01  4.998619e-02  -1.653834e-01  -9.220963e-02  2.285160e-01  -6.527784e-02  -1.190625e-01  1.761938e-01  -1.076367e-02  7.165986e-02  -1.697345e-01  3.892408e-02  -2.412448e-02  -8.610746e-02  2.096873e-02  5.379351e-02  -2.029403e-01  -5.076282e-02  -1.379912e-01  -3.382391e-02  3.129864e-02  -1.081391e-01  1.476438e-01  1.998079e-02  7.578512e-02  1.344917e-01  1.537283e-01  1.509604e-02  1.250383e-01  3.795392e-02  9.387962e-02  -1.134811e-01  -9.923173e-02  1.958659e-02  9.355406e-02  1.290020e-02  -1.217557e-01  -2.455767e-01  2.824478e-01  -7.012412e-02  9.998408e-02  6.273267e-02  3.228518e-02  5.919920e-02  -3.614600e-02  4.195152e-02  -1.958758e-01  -1.484083e-01  -2.166491e-01  9.987872e-03  -9.086552e-02  3.250177e-01  2.240082e-02  -1.243318e-01  8.820277e-02  5.417868e-02  -2.025219e-02  -9.603351e-02  7.105657e-02  9.061953e-02  -8.245295e-02  -1.693033e-01  -1.142925e-01  -5.680437e-02  -2.149644e-02  1.431211e-01  -1.000939e-01  1.242129e-01  -7.391084e-02  9.602953e-03  3.479842e-02  4.823102e-02  5.163274e-02  -6.066902e-02  -9.619081e-02  7.602387e-03  -9.689014e-03  1.088923e-01  1.307418e-01  9.460376e-02  -1.130172e-01  -2.135859e-01  -1.834542e-01  -2.339294e-01  -1.234493e-01  1.406083e-02  1.326347e-02  8.505629e-03  2.127296e-02  -2.967524e-01  -3.558040e-02  -7.364734e-02  9.414560e-02  -2.285926e-01  1.176262e-02  1.389247e-01  1.978009e-01  3.566298e-02  1.423684e-01  7.579488e-02  -2.153212e-01  1.567405e-01  4.033907e-02  3.768659e-01  -1.280249e-02  -4.943650e-02  9.201802e-02  5.637503e-02  -1.198269e-01  -1.106755e-01  6.904905e-02  8.746526e-02  6.312442e-03  -1.888157e-01  2.244737e-01  -8.610943e-02  -1.639869e-03  -1.204731e-01  6.458101e-02  1.536566e-01  6.088361e-02  1.096884e-01  -8.951364e-02  1.494210e-01  3.341399e-02  1.238379e-01  -9.786279e-02  -2.095238e-02  -1.217564e-01  -1.622408e-01  -4.582325e-03  -1.382612e-02  -1.150399e-01  -2.418945e-02  -3.299139e-02  9.568820e-02  8.173343e-02  2.629039e-01  4.727899e-02  -1.165457e-01  -7.041539e-02  9.337582e-02  1.120429e-02  7.243624e-02  -5.413153e-02  9.889662e-02  -2.887165e-02  1.336975e-01  8.067192e-02  2.130582e-01  -1.659937e-01  -4.552829e-02  4.958082e-02  4.295630e-02  1.084502e-01  1.330113e-01  -3.978307e-02  -5.556704e-02  3.890467e-02  1.136703e-01  4.969620e-02  -9.004894e-02  -9.931634e-02  -1.535814e-01  -1.449436e-01  -1.590422e-01  -1.669424e-02  -5.952150e-02  -3.200317e-02  7.934350e-02  5.765136e-02  3.515884e-02  1.350099e-02  1.819328e-01  -1.756799e-01  4.382254e-02  -5.262069e-02  1.287443e-02  3.036590e-02  -2.558109e-02  -8.159687e-02  -3.933501e-02  1.512665e-01  1.311929e-01  4.104927e-02  -4.140119e-02  -1.512887e-01  -2.399013e-02  -7.394852e-02  -6.504080e-02  6.569249e-04  5.691902e-02  1.416747e-01  -4.539727e-03  -2.951229e-03  2.684399e-01  -1.690997e-02  6.559837e-02  4.315457e-02  -1.120604e-01  1.218687e-01  -2.906131e-02  1.036981e-01  7.352614e-02  -1.191609e-01  -7.249735e-02  1.259088e-01  -1.048496e-02  8.431093e-02  -2.262573e-02  5.629146e-02  -4.608661e-02  -1.040288e-01  -9.817361e-02  1.718380e-01  1.523693e-02  1.029067e-01  -7.414164e-02  5.815705e-02  2.089089e-02  5.520769e-02  -4.237214e-02  -1.209889e-01  1.085437e-01  -5.152179e-02  4.304161e-02  -8.939742e-02  8.756620e-02  -1.733652e-02  1.533893e-01  -4.108733e-03  5.512027e-02  -4.808472e-02  3.187452e-02  1.286737e-01  9.325142e-03  1.631318e-01  -3.794556e-02  -9.169940e-02  -1.195728e-01  1.307854e-01  -1.591862e-01  6.071345e-02  -5.634099e-02  -4.028400e-02  -1.793237e-02  -4.966556e-02  1.495988e-01  -8.681020e-02  4.770945e-02  -1.165643e-01  1.650515e-01  -2.821550e-02  1.705117e-01  -1.368892e-01  5.098423e-03  -2.371599e-01  4.454261e-02  6.878939e-02  -1.966229e-01  -2.702605e-01  7.952259e-02  -2.386151e-02  -1.613519e-01  5.857675e-02  3.242407e-02  -1.047464e-01  -2.353547e-03  2.689290e-02  -3.676949e-02  -3.771392e-02  -9.427761e-02  1.124145e-01  1.234883e-01  -1.280268e-02  9.791364e-04  1.813556e-01  2.897735e-02  1.563737e-02  -1.031139e-03  -3.664242e-02  5.291881e-02  2.522651e-02  -2.712837e-02  1.237817e-03  6.005792e-02  -1.929347e-03  6.673081e-02  2.346951e-01  -3.779796e-04  8.034822e-02  -3.312845e-02  -7.890783e-02  8.276702e-02  -5.731782e-02  6.705853e-02  -3.886392e-01  2.865561e-01  -2.551737e-02  3.136072e-02  -1.196949e-01  7.099031e-02  8.696538e-02  1.605842e-01  -3.953386e-02  -9.678812e-02  1.512597e-01  -1.449618e-01  1.931101e-01  -1.929012e-01  -2.116096e-02  -2.097471e-01  2.282239e-02  1.271976e-01  1.291611e-01  -6.921530e-02  -1.882350e-01  5.073865e-03  -1.620457e-02  -1.428406e-02  -7.925190e-02  1.063121e-01  -3.694206e-02  -3.248517e-01  -3.392447e-02  3.381651e-02  3.914626e-02  2.187896e-01  -1.094144e-01  8.306358e-02  1.603182e-01  1.585113e-01  -1.114464e-01  -6.727817e-03  -7.621806e-02  -2.298647e-01  -1.267304e-01  2.055055e-01  2.494778e-01  -5.450696e-02  7.050171e-02  -1.136869e-01  3.240803e-01  1.040012e-01  -1.025678e-01  1.124737e-02  -9.046612e-02  -1.380176e-02  -1.675428e-01  -5.366229e-02  1.025466e-01  -2.891930e-01  8.283568e-02  -4.186582e-02  1.128196e-01  3.858410e-02  1.028423e-01  8.643214e-02  1.141874e-01  -1.431182e-01  2.232275e-02  -2.454824e-02  -2.353043e-02  -9.760254e-02  9.071718e-03  8.609740e-02  1.228915e-01  3.807893e-02  -8.388605e-02  -1.260769e-01  8.635426e-02  -4.539046e-02  -3.329743e-02  -1.541715e-01  -7.222267e-02  -1.559089e-01  -5.066091e-02  -1.036966e-01  -1.271538e-01  4.701696e-03  -2.466982e-01  3.543188e-02  -1.613592e-01  2.525160e-01  -1.652555e-01  3.328058e-02  1.350057e-01  1.203497e-01  -4.048940e-02  -1.481921e-02  -2.682382e-01  4.600450e-02  7.857312e-02  -1.350050e-01  1.510263e-01  -5.821430e-02  -2.173458e-01  3.864919e-02  6.808808e-02  9.203785e-02  -2.688665e-03  -1.978158e-01  -3.671247e-02  -1.497398e-01  1.125088e-01  -2.677126e-01  -1.078351e-01  6.891739e-02  -9.941361e-02  -4.599360e-02  4.012656e-02  6.964591e-02  -1.278523e-01  -1.640173e-01  -1.224502e-01  1.829432e-01  7.229090e-02  5.710838e-02  2.329051e-01  1.075515e-02  -4.091494e-02  2.769781e-01  7.624122e-04  4.336851e-02  2.113009e-01  5.926991e-02  1.035021e-01  -3.739973e-02  7.235756e-02  -1.830675e-01  1.749692e-01  5.080577e-03  -4.268674e-03  1.060097e-01  2.276457e-01  -6.641037e-02  -9.229947e-02  1.975313e-02  6.886261e-03  -8.175639e-03  -7.480386e-02  1.904729e-01  1.965255e-02  1.253602e-01  2.659614e-01  -4.064775e-02  -8.882158e-02  4.617486e-03  3.939908e-02  5.935758e-03  9.882370e-02  2.570551e-01  -5.893422e-03  9.341536e-02  -9.682684e-02  -1.111684e-01  -1.533082e-01  5.512137e-02  -1.136484e-01  -6.435925e-02  -7.114442e-02  8.180241e-02  -1.721866e-01  2.521998e-01  1.911397e-01  -1.494881e-01  -4.567882e-02  -8.220743e-02  5.429155e-02  1.151204e-01  -1.202836e-01  2.544116e-01  2.115453e-01  -2.059693e-03  2.550334e-02  1.289029e-01  -8.148199e-02  1.315378e-01  -7.845243e-02  2.026770e-01  8.747956e-02  -6.581257e-02  5.860763e-02  -8.748322e-03  -2.204613e-01  6.981565e-02  -6.823517e-02  -2.316686e-01  3.082769e-02  1.208065e-01  1.860980e-01  -1.349003e-01  -4.761561e-02  1.227479e-01  -3.416664e-02  -5.293456e-03  -2.066020e-02  1.530891e-01  -1.586398e-01  -3.177006e-02  -1.995064e-01  -1.501538e-01  1.113634e-01  -3.066541e-01  -2.631345e-03  1.365696e-01  6.113084e-03  -1.433402e-01  1.891244e-01  9.408002e-02  5.249126e-02  -9.317069e-03  -2.465722e-01  1.300963e-01  -2.533280e-02  5.929040e-02  5.679420e-02  -2.357103e-02  -7.069296e-02  -6.167415e-02  -2.104797e-01  8.788253e-02  2.227506e-01  -1.848264e-01  -4.508486e-02  -2.099571e-01  1.661467e-01  8.352760e-02  5.899867e-03  -4.214458e-02  -1.008228e-02  -7.913291e-02  -6.331694e-02  1.329538e-01  -3.200196e-02  -9.177478e-02  -1.933167e-01  1.496591e-01  5.659902e-02  -3.410877e-02  2.563039e-01  -5.452640e-02  -1.186041e-01  1.350920e-01  -1.100683e-01  3.670665e-02  -6.612479e-02  -1.849020e-01  1.540471e-01  2.952004e-02  -1.602276e-01  -9.430608e-02  -4.399852e-02  1.138522e-01  6.945655e-02  -1.562913e-01  -1.239826e-01  1.832884e-01  -4.403770e-02  4.056433e-02  1.619586e-02  -3.047596e-02  1.392970e-01  -1.190616e-01  -2.110277e-01  -2.309355e-02  -2.702773e-01  -2.336932e-01  6.986725e-02  -1.622778e-01  -8.290666e-02  -6.571186e-02  1.517295e-01  2.254500e-02  -7.257413e-02  -1.377141e-01  -1.527044e-01  -3.179350e-02  3.109249e-02  -1.453153e-01  7.131670e-02  -8.308280e-02  -1.401545e-02  -1.629285e-01  -3.856406e-02  1.270746e-01  -1.406038e-01  1.039738e-01  1.102295e-01  -2.890619e-01  1.970479e-02  -2.080432e-01  -1.080636e-01  3.603369e-02  -6.357390e-02  1.786126e-01  -8.125578e-02  9.788416e-02  -6.583562e-02  1.541701e-02  1.810962e-01  2.165988e-01  1.672112e-02  -1.085079e-01  -1.397793e-01  1.604155e-01  -5.160277e-02  -1.711593e-01  3.397968e-02  -2.988753e-02  6.053659e-02  -5.742770e-02  1.006667e-01  6.577369e-03  -1.295268e-01  -2.555295e-01  1.608326e-02  6.396974e-02  -1.172239e-01  -6.182147e-03  2.319209e-02  9.899582e-02  1.217149e-01  -1.098784e-02  9.412898e-02  7.753919e-02  2.951953e-02  8.667960e-02  -1.037510e-01  -1.934256e-01  8.135611e-02  -3.710360e-02  -2.190489e-02  -1.457444e-01  4.036496e-02  -4.001079e-01  1.009952e-01  -5.705785e-02  -1.014931e-01  7.033024e-03  1.396066e-01  -1.180440e-01  -1.224464e-01  -2.159021e-01  1.471031e-01  1.540909e-01  -4.181704e-02  -1.261465e-02  -7.402887e-02  -1.634803e-01  -9.200598e-02  -8.531689e-02  4.576869e-03  -1.016769e-01  -2.011750e-01  7.888754e-02  6.565318e-02  -2.373246e-02  -2.042226e-02  -5.190711e-02  -3.001138e-02  -1.493890e-01  9.325621e-02  1.831233e-01  9.131901e-02  -6.383070e-02  -2.604953e-02  -1.036097e-01  2.039374e-04  6.893552e-02  -1.448501e-01  1.191168e-01  -1.307815e-01  1.759784e-02  1.362294e-02  -7.699088e-02  4.500883e-02  1.438644e-01  8.328536e-03  -6.953354e-02  3.505714e-02  3.491675e-02  3.015732e-03  -7.617040e-02  1.128076e-02  -5.115580e-02  6.312545e-02  4.359636e-02  -2.757532e-02  -1.232650e-01  1.107751e-01  6.303816e-02  7.600635e-02  6.169757e-02  -2.577217e-02  -8.199073e-02  -7.906180e-02  -1.282199e-01  1.546953e-01  -1.606341e-01  -9.106415e-02  7.845335e-02  -2.762455e-02  -4.166448e-02  3.488924e-02  -2.242792e-01  -1.116412e-01  5.572663e-02  -1.077328e-01  -4.395132e-02  6.062582e-02  -1.099363e-01  6.269477e-02  -8.006176e-02  -4.437871e-02  7.582177e-02  4.720408e-02  1.973822e-01  -9.320090e-02  3.960194e-02  -3.020651e-02  -2.192061e-01  -4.616081e-02  -2.829275e-02  -1.158279e-01  5.522349e-03  9.588046e-02  5.195577e-02  -6.665343e-03  5.468275e-02  -7.521776e-02  -5.851050e-02  -7.166529e-03  -2.684993e-01  1.521864e-01  1.649186e-01  1.121573e-01  -1.048083e-01  -6.744400e-02  5.689307e-02  -5.348976e-02  1.380541e-01  -3.002916e-04  6.537656e-02  1.861426e-01  8.410679e-02  1.075065e-01  1.276785e-01  -9.832918e-02  -1.673689e-02  2.496812e-01  -1.322876e-02  -1.209527e-01  5.367713e-02  4.149542e-02  1.900492e-03  -1.361126e-01  -6.596773e-02  8.726771e-02  4.183136e-02  2.727011e-01  -1.760424e-02  -1.280331e-01  1.475510e-01  -1.294980e-01  8.883883e-02  -6.660166e-02  -1.192483e-01  7.829888e-02  -1.048907e-01  4.912702e-03  -1.571275e-01  7.121423e-02  1.354783e-01  -5.431757e-02  5.498993e-02  1.434550e-01  -1.112256e-01  -3.374484e-01  1.735132e-01  -1.664099e-01  2.191652e-02  -2.881876e-01  -1.009744e-01  -3.013101e-01  -2.017688e-01  -1.107873e-01  -4.118805e-02  -9.960557e-02  8.072437e-02  1.838394e-01  -7.857944e-02  5.924557e-02  -1.653105e-01  1.194189e-01  3.131302e-02  -1.047339e-01  1.984408e-01  6.844338e-03  8.259156e-02  -9.711926e-02  -5.321871e-02  7.639612e-03  -1.998524e-01  -1.447705e-01  -2.548118e-01  -2.274624e-02  2.474124e-02  5.680152e-02  1.088682e-01  8.309662e-02  1.623080e-01  1.098199e-01  1.058669e-01  -8.394312e-02  -1.080806e-01  -9.674810e-02  -8.159690e-02  -1.630691e-01  3.555219e-01  1.222880e-01  1.163338e-01  1.729210e-01  1.113636e-01  -1.004764e-01  -1.758379e-02  -6.072570e-02  -5.209598e-02  1.645106e-01  8.408230e-02  -1.517905e-01  -1.181646e-01  1.014592e-01  -1.356328e-01  -5.153933e-02  8.016282e-02  -8.011547e-02  -7.746852e-02  1.657730e-02  -1.740962e-01  1.699643e-01  -2.933072e-01  2.157493e-03  -1.511389e-01  3.563155e-03  -4.688057e-02  1.581865e-01  -6.581780e-02  7.647928e-02  -1.438411e-01  2.165156e-01  -1.097178e-01  4.557592e-02  -7.479680e-02  -1.702723e-01  -1.447015e-01  -9.878337e-02  -2.239621e-01  -6.094411e-02  -8.619253e-02  2.845163e-01  -1.303560e-01  2.435053e-01  2.294869e-01  -1.225567e-01  -2.347287e-01  -1.289017e-01  5.971531e-03  -5.715581e-02  6.729450e-02  -1.987426e-02  2.595653e-01  2.145273e-01  -9.618004e-02  2.084368e-01  -1.517180e-01  -1.690978e-01  1.845890e-02  -4.691281e-02  1.888456e-01  -6.422694e-02  -7.835924e-02  5.188437e-02  -1.028138e-01  2.009356e-01  -1.971713e-02  -9.970501e-02  1.197375e-01  2.162788e-01  -3.813713e-02  4.502822e-03  1.352338e-01  8.315068e-02  -1.910519e-01  -7.239441e-03  7.952606e-02  -4.715721e-02  -6.057095e-02  -7.246283e-02  1.502784e-01  -3.721783e-02  -1.128854e-01  1.744661e-01  2.121947e-01  6.227281e-03  -3.310211e-02  2.199584e-02  6.235413e-02  -2.396865e-02  -6.920789e-02  2.540011e-02  9.014396e-02  -2.819935e-02  5.427696e-02  -1.010667e-01  8.986649e-02  -9.457918e-02  1.061519e-01  1.529310e-01  7.155879e-02  -7.811826e-02  6.825641e-02  6.468889e-02  1.097484e-01  -2.342831e-02  -9.089654e-02  -9.698838e-02  -1.100180e-01  3.459501e-02  -1.022785e-01  1.457217e-01  -1.694762e-01  6.621789e-03  2.662161e-02  1.467491e-01  -8.567000e-02  1.434496e-01  -4.801755e-02  4.811196e-03  2.427638e-02  6.320263e-02  2.820662e-02  -4.097231e-02  7.419928e-03  -2.617418e-01  2.693019e-02  7.687008e-02  -2.219257e-02  5.896356e-02  -1.773537e-01  1.343161e-01  -3.504857e-02  -3.230152e-02  -5.778840e-03  -2.239000e-02  1.102973e-01  1.008839e-02  -8.830379e-02  -4.099948e-02  1.653489e-01  2.242883e-01  1.534549e-03  1.252529e-01  1.024364e-01  5.143958e-02  6.960165e-02  -6.300426e-02  -5.100126e-02  1.871832e-01  9.178548e-02  -5.844211e-02  -4.546085e-02  -7.901943e-02  5.543549e-02  3.647512e-03  -5.429771e-02  -1.782953e-01  3.998096e-02  2.455900e-02  -4.753713e-03  1.847766e-01  -1.444608e-01  -2.279294e-02  -2.089910e-02  -1.951338e-01  -2.284378e-01  1.431931e-01  1.009322e-01  -9.522870e-02  -1.620035e-01  -8.268458e-02  2.438640e-02  5.466965e-03  -1.254297e-01  -3.568543e-02  1.379465e-01  -2.761318e-01  -2.508257e-02  6.268290e-02  1.253069e-01  2.012778e-01  -1.260693e-01  1.489140e-01  8.747763e-02  -2.028843e-01  3.247357e-02  -1.309599e-01  -1.503742e-01  -7.450511e-02  4.821783e-02  7.133900e-02  5.710249e-03  -2.431644e-02  -5.554644e-02  7.299731e-02  -1.127200e-02  2.892269e-02  -1.914387e-02  -1.292649e-02  1.730219e-02  -4.775792e-02  1.621311e-03  -2.333631e-02  1.984589e-01  -1.270182e-01  2.288435e-01  1.485188e-01  -5.374721e-02  1.189838e-02  -1.701718e-01  8.302929e-02  -2.909054e-02  -1.061557e-01  2.029623e-01  1.628218e-01  -1.868359e-01  -5.715791e-02  6.070676e-02  1.301123e-01  -1.097572e-01  1.291330e-01  -8.209072e-03  1.055245e-01  -1.007374e-01  9.256702e-02  1.074286e-01  -6.650384e-03  1.324066e-01  -4.161822e-02  -4.102622e-02  -9.576479e-03  7.537559e-03  -3.114047e-02  -1.477463e-01  -4.687770e-02  6.924391e-02  1.429096e-01  6.070071e-02  -5.960372e-02  1.099910e-01  -1.421950e-01  3.728740e-01  -2.896983e-01  -1.211101e-01  -8.671591e-02  -1.092601e-01  -8.627469e-02  1.234629e-02  5.988781e-02  1.224981e-01  -1.224229e-01  -7.182439e-02  1.241452e-01  -1.397770e-01  7.990637e-02  -3.119449e-01  3.683159e-02  -8.439719e-03  -8.676182e-02  -2.432389e-01  2.480676e-02  1.091253e-02  2.300589e-02  -4.597938e-02  -7.796080e-02  -4.511470e-02  2.672017e-02  2.723578e-02  9.262084e-02  -1.658522e-03  8.554170e-02  -2.839183e-01  6.374341e-02  -1.472609e-01  -6.062745e-02  6.064837e-02  -5.266652e-03  2.253119e-01  1.024973e-01  -1.382336e-01  -1.835817e-02  -9.658749e-02  -1.036257e-01  1.862830e-02  -6.990416e-02  1.191470e-01  -2.605766e-01  1.645453e-01  -1.314333e-01  -4.667106e-02  6.388362e-02  -3.127093e-02  1.552043e-01  1.466664e-01  9.169099e-02  -9.668436e-02  -2.189206e-01  2.757591e-02  -8.556763e-02  -3.548139e-01  -6.518610e-03  9.052432e-02  -5.069376e-02  -7.199316e-02  1.849406e-01  -1.580022e-01  -6.671977e-03  -4.558009e-01  -1.732168e-01  5.788283e-02  1.721272e-02  4.086583e-03  -6.812459e-02  3.136501e-01  5.838175e-02  -7.237785e-02  9.364451e-02  1.393000e-01  1.992514e-02  3.277956e-04  -1.869835e-01  1.627671e-01  2.381667e-02  -1.190983e-01  -2.142827e-01  -1.460617e-01  7.203630e-02  -2.943201e-01  -1.168258e-01  1.076980e-01  -4.984693e-02  -2.561825e-01  2.295055e-01  -1.628688e-01  4.400867e-02  -2.888075e-02  1.434581e-01  2.680464e-02  -7.340281e-02  3.131428e-02  6.350196e-02  -8.458974e-02  -1.441985e-01  1.378267e-01  7.622466e-02  1.121729e-01  -1.286311e-01  5.188193e-02  -1.035057e-01  -1.175803e-01  -1.469823e-01  5.589298e-02  -7.077205e-02  -1.715731e-02  1.805222e-01  9.006743e-02  -6.371938e-03  5.959316e-02  -1.260738e-01  1.574086e-01  -1.648788e-01  2.838701e-01  8.599494e-02  1.549973e-01  -1.717299e-01  -1.093180e-01  1.292314e-01  2.692797e-02  -7.474270e-02  -3.787673e-01  4.669705e-02  -5.344917e-02  1.894649e-01  -8.617518e-02  -8.178245e-02  -1.456669e-02  -2.200628e-02  6.242119e-02  -7.329287e-02  6.058827e-02  -1.415241e-01  3.248644e-02  8.528560e-02  1.389285e-01  -6.408216e-03  6.376528e-02  5.707762e-02  1.200641e-01  -1.096544e-03  1.005384e-01  -5.315146e-02  -1.378270e-01  1.334260e-01  -8.324262e-02  -2.192394e-01  5.306827e-02  -7.156238e-02  4.566868e-02  -8.846745e-02  1.204216e-01  9.050759e-02  1.410790e-01  4.575743e-02  -2.623393e-02  6.426920e-02  -3.418646e-01  3.360810e-02  -4.085425e-02  6.611834e-02  6.819177e-02  -5.102069e-02  -9.954941e-02  -2.121582e-02  7.779618e-04  1.066338e-01  -5.298914e-02  1.687023e-01  -1.589694e-01  -1.583024e-01  1.828053e-03  -9.987168e-02  -4.049099e-01  -3.702997e-02  -4.875691e-02  9.735445e-02  -5.796232e-02  2.152857e-01  2.056576e-01  1.413474e-01  -4.363592e-02  3.396367e-02  -4.615095e-03  3.448626e-02  5.648046e-02  3.173288e-02  3.019372e-01  -7.111008e-03  -2.203072e-01  9.938280e-02  -6.101647e-02  -6.819308e-02  -3.352616e-01  2.210919e-02  -7.731226e-02  1.248157e-01  7.206670e-02  8.220562e-02  -1.511457e-01  1.596979e-01  -1.086333e-01  1.050481e-01  2.359859e-01  -1.838780e-02  9.360512e-02  -2.090796e-02  2.275371e-01  -1.954770e-01  4.812040e-02  6.580164e-02  -2.710791e-02  -1.145096e-01  7.658172e-02  9.795092e-02  1.192050e-02  1.499503e-01  1.120116e-01  2.798134e-01  -1.036396e-01  -3.177980e-01  4.284438e-02  1.201801e-01  -1.104291e-01  -1.994676e-01  7.158184e-02  7.647633e-03  8.401830e-02  -5.571668e-02  -2.259981e-02  -6.848800e-02  1.066077e-01  9.134805e-02  -3.359794e-03  -2.474334e-01  -7.922536e-02  -3.326546e-03  -5.203362e-02  -8.192596e-02  -7.365590e-02  1.147668e-01  1.347966e-01  -6.962561e-02  -1.228918e-01  1.871709e-01  -3.593814e-02  -7.629614e-02  -1.340409e-02  1.008321e-01  7.466347e-02  -1.209480e-01  9.064034e-02  6.998816e-02  -9.076227e-02  1.051526e-02  -5.571232e-02  1.094234e-01  6.055778e-02  -1.796057e-01  -1.228666e-02  2.140476e-01  3.908275e-02  1.985895e-01  5.881086e-03  9.842422e-02  -1.206523e-01  -4.053173e-02  3.022322e-02  1.317531e-02  1.337100e-01  4.993538e-03  -6.814442e-02  9.306870e-02  2.171278e-01  2.782820e-01  9.722099e-02  -8.366822e-02  -1.518874e-01  5.960001e-02  1.787867e-01  -1.202339e-02  -3.119358e-01  2.120768e-02  -3.946351e-03  -1.714982e-01  2.389098e-02  9.693929e-02  5.056302e-02  -4.215805e-02  -3.002568e-01  -5.461892e-02  6.142441e-02  9.363768e-02  -1.341897e-01  5.001156e-02  6.960787e-02  -5.347284e-02  1.862339e-01  -1.424247e-01  7.678383e-02  2.525842e-01  2.473125e-01  8.906007e-02  -2.736620e-02  -4.838505e-02  4.103128e-01  3.373304e-02  3.023452e-03  -5.696626e-03  1.023428e-01  -3.920512e-02  -1.563859e-01  -4.964685e-02  -7.282104e-02  -2.009636e-01  -1.281797e-01  -2.299000e-01  3.191980e-02  -4.159510e-01  -1.511443e-01  2.823468e-02  5.495998e-02  7.666795e-03  6.229536e-02  6.209532e-02  -2.472391e-01  -1.336467e-01  1.292019e-01  -2.061247e-01  -1.066351e-01  5.941793e-02  8.070125e-04  -1.631092e-01  -2.498962e-02  -1.122094e-01  -1.068197e-01  2.813159e-01  -9.747557e-02  5.595218e-02  -4.980211e-03  -1.179906e-01  -6.815550e-02  -8.399778e-02  1.412679e-02  -8.487985e-02  6.732817e-02  1.535920e-01  4.047570e-03  1.090875e-02  1.857757e-01  7.449171e-02  1.051389e-01  -1.828911e-01  -8.759010e-02  -1.559019e-02  -1.829066e-02  8.272874e-02  1.432336e-01  2.861288e-02  1.368531e-01  2.155678e-02  7.680889e-02  -1.332754e-01  9.015416e-02  8.665378e-02  -1.864540e-01  1.057041e-02  2.152404e-01  9.642539e-02  2.047839e-02  -5.008583e-02  1.424436e-01  -2.421043e-02  -7.212921e-02  6.927542e-02  1.180677e-01  1.966367e-01  -1.466627e-01  5.243356e-02  1.323415e-01  -1.764010e-01  2.461616e-01  -9.738138e-02  -1.665097e-01  -9.340483e-02  2.097446e-02  -9.182267e-02  6.647420e-02  5.211059e-02  -2.371643e-01  1.568925e-01  3.666704e-02  -9.149086e-02  -2.543186e-01  -8.191445e-02  -1.271310e-01  -4.368688e-02  5.112534e-03  -9.408713e-02  -3.011287e-02  -3.655747e-02  9.873837e-02  -8.676907e-03  4.036106e-02  -2.789034e-02  1.050212e-01  -9.147039e-03  -3.768879e-02  1.137084e-01  -2.675853e-01  7.595170e-02  -1.896440e-01  -2.183926e-02  2.837843e-02  1.067157e-01  -8.473277e-02  7.097723e-02  -6.062783e-02  6.489012e-02  -2.097443e-01  4.261264e-02  2.009986e-01  1.516394e-01  -2.288003e-01  8.069507e-02  -1.030778e-01  5.725431e-02  3.762094e-02  -1.332591e-01  -6.333613e-02  -1.018663e-01  -2.304638e-01  5.683855e-02  2.078349e-02  -2.585421e-02  -1.829186e-01  -5.447607e-03  -7.264031e-02  -1.239479e-01  6.249359e-02  -1.534926e-01  -1.223423e-01  7.514408e-02  -3.913679e-02  6.399387e-03  2.887087e-02  -2.735376e-02  -1.931294e-01  -8.759569e-02  2.684841e-01  -1.108698e-01  -8.950558e-02  9.878404e-02  5.844177e-02  1.361069e-01  -1.566225e-02  -1.178955e-01  -9.658607e-02  -1.147201e-01  -2.733491e-02  -9.522679e-02  2.345384e-01  -8.198483e-02  -1.582058e-01  1.757048e-01  -1.030181e-01  1.847745e-01  2.243177e-01  -3.588360e-02  2.186808e-01  -1.075951e-01  -1.097848e-01  -1.485243e-01  8.649702e-02  -8.748668e-02  4.082576e-02  1.418545e-01  1.682132e-01  8.939188e-02  -2.334944e-01  -9.189340e-02  -1.900665e-01  1.847598e-01  -5.383503e-02  2.308754e-01  1.880394e-01  2.189247e-02  -2.572865e-01  -5.517738e-02  8.895510e-02  -1.960837e-01  -7.203439e-03  1.781109e-01  5.692281e-02  -1.169998e-01  -4.092816e-02  -1.613842e-03  -1.312488e-01  2.586797e-02  -1.071176e-01  3.012940e-02  -1.237693e-02  -9.670490e-02  7.190961e-02  -6.550718e-02  2.217174e-01  -2.995656e-01  1.081310e-01  4.667099e-02  1.411659e-01  -7.858502e-02  5.206511e-02  -6.865519e-02  -1.394009e-01  -2.795835e-02  1.740143e-01  1.833930e-01  1.838338e-01  8.876801e-02  -4.350582e-01  5.101030e-02  3.034779e-02  -1.411043e-02  -1.180268e-01  -9.161405e-02  4.628551e-02  1.088591e-01  1.552693e-01  1.033656e-01  4.302198e-02  7.807235e-02  -9.969984e-02  8.695751e-02  1.762481e-01  -6.795954e-02  -2.954785e-01  -7.965795e-02  -1.669631e-01  2.490177e-02  -1.095481e-01  -1.546135e-01  3.764404e-01  2.978511e-02  5.686625e-02  -1.594788e-02  -1.481345e-02  -4.228405e-02  -3.566199e-02  -6.559557e-02  1.863153e-01  -2.101302e-01  1.838836e-01  -8.262514e-02  -1.069429e-02  -3.808211e-02  1.724761e-01  -6.305119e-02  4.466716e-01  2.023076e-02  -4.455826e-02  -1.504044e-01  1.645414e-01  -2.033077e-01  -3.455313e-01  -1.840122e-02  1.818081e-01  2.936735e-02  -4.444518e-02  3.469008e-02  -8.776972e-02  9.636444e-02  -4.677069e-01  -5.083874e-02  1.466554e-01  9.414180e-03  1.071075e-01  -6.308421e-02  3.545846e-01  -2.318142e-02  -8.317967e-02  1.087927e-01  -1.132783e-01  -1.331656e-01  -3.517472e-02  -2.109874e-01  -1.004481e-01  1.534432e-01  -1.636990e-01  -2.242017e-01  2.869635e-02  5.641261e-02  -2.839873e-01  1.330150e-01  1.300942e-01  1.804585e-01  2.528594e-01  -1.981175e-01  5.279125e-02  -1.229756e-01  -2.310086e-02  4.750978e-02  -7.836391e-02  -4.047675e-02  -5.303330e-02  -3.773920e-02  4.478414e-02  2.213630e-01  -3.110680e-01  3.840432e-02  -4.857621e-02  1.684635e-01  3.683269e-02  1.139481e-01  -8.365593e-02  1.495040e-01  4.407925e-03  -8.486906e-02  1.026777e-01  -1.709388e-01  2.353377e-02  3.812768e-02  6.735535e-02  5.380652e-03  -9.098943e-02  -9.160661e-02  -1.899156e-01  8.940072e-02  7.461870e-02  1.047204e-01  8.583293e-02  7.995617e-02  1.043584e-02  2.890454e-02  2.634304e-01  -5.720732e-02  -1.206984e-02  -1.717280e-01  -1.179357e-01  -6.634485e-03  -1.641902e-01  3.323693e-02  3.640892e-02  -1.865988e-01  -1.241060e-02  3.626397e-02  -5.133096e-02  4.519201e-02  -2.397381e-01  -1.103320e-01  6.468981e-02  -1.274915e-01  -2.840086e-01  -2.286076e-01  9.956788e-03  7.171204e-02  -1.201081e-01  -1.416671e-01  3.950821e-02  1.733295e-01  -5.656411e-02  -1.248639e-01  1.568107e-01  1.522178e-01  -2.459786e-01  4.140687e-02  -2.259902e-02  1.214686e-01  3.672639e-02  1.704995e-01  1.730675e-01  -1.988457e-02  -5.083889e-02  -2.244625e-02  -3.972758e-02  3.278800e-02  -1.357670e-01  -1.474563e-01  1.886358e-01  -2.204334e-02  4.312072e-02  4.687170e-03  -6.156083e-02  -6.105381e-02  1.608938e-02  2.508280e-01  2.786904e-01  5.684152e-02  -1.757905e-01  -3.368180e-01  -3.015186e-02  -1.774562e-01  -4.342553e-01  -6.651080e-02  -3.257916e-02  7.480641e-02  1.760344e-01  6.200821e-02  -1.204911e-01  -8.596887e-02  -4.629804e-01  2.591941e-02  1.636395e-01  1.087963e-01  4.625722e-02  2.619228e-01  1.533905e-01  8.431840e-02  5.214204e-03  6.125772e-04  -1.484219e-01  -1.243465e-01  5.800053e-02  -5.607808e-02  -4.033887e-03  -1.296424e-01  -1.112949e-01  -1.166201e-01  2.186423e-02  3.934572e-02  -2.692266e-01  -3.095932e-02  7.640422e-03  9.777730e-03  -1.924660e-01  2.073361e-02  -1.900916e-03  9.876646e-02  -1.824188e-01  1.117671e-01  -9.925259e-03  -6.950304e-02  -8.289320e-02  7.550424e-02  -8.161432e-02  -1.456605e-02  1.333616e-01  -1.024768e-01  -6.683677e-02  -2.660030e-01  1.830466e-01  -1.128755e-01  1.722868e-01  4.876615e-02  1.169730e-01  1.346989e-01  -7.457221e-02  -4.276379e-02  2.231748e-02  -5.540775e-02  -2.359033e-01  1.020315e-01  7.149675e-02  -5.488784e-02  2.704566e-01  1.462800e-01  -1.298869e-01  -1.319492e-02  7.758620e-02  -4.750296e-02  -1.212274e-01  1.032274e-01  -3.426668e-01  2.501594e-01  -1.218060e-01  2.201304e-02  1.049820e-01  -9.290498e-02  1.494906e-01  1.017892e-01  -8.381605e-02  -1.075673e-01  -7.454935e-02  6.224811e-02  3.328399e-02  -1.080959e-01  2.621764e-01  1.796634e-01  1.506027e-01  1.350030e-01  2.145580e-01  1.906856e-01  1.327289e-01  -4.410079e-02  -1.249449e-01  1.566846e-02  -3.869319e-02  -7.084940e-02  1.064006e-01  -2.396200e-02  -1.917660e-01  -1.213119e-01  8.765035e-02  -7.840803e-02  -1.458928e-02  3.012772e-02  2.613134e-02  -6.380619e-02  -3.827897e-01  -1.206468e-01  -1.451122e-01  -7.700055e-02  -3.945476e-02  1.122787e-01  1.749956e-01  1.303441e-01  -5.714747e-02  1.482433e-01  -1.038478e-01  -7.046740e-02  7.639074e-02  -1.379318e-01  -7.277381e-02  -2.518137e-01  -3.935564e-01  1.142418e-01  1.572552e-01  2.889251e-01  -4.353923e-02  3.189452e-01  2.295443e-01  -5.653882e-02  2.453651e-03  1.297910e-01  -3.614147e-02  -1.990501e-01  2.968554e-01  -2.323985e-02  2.552971e-01  -5.486024e-03  -1.024332e-01  -9.366714e-03  -9.820835e-02  3.878068e-02  -2.334377e-01  2.013811e-01  1.961037e-01  6.892536e-02  -1.499992e-01  1.869359e-01  -1.871735e-01  2.255460e-01  6.167195e-02  -3.761066e-02  2.059639e-01  4.917680e-02  1.332082e-01  7.481538e-02  1.981406e-02  -1.702965e-01  1.696849e-01  7.147013e-02  7.295496e-02  -2.888064e-02  -2.326867e-02  -5.677008e-02  -6.893543e-03  9.879003e-02  6.912197e-02  -8.420434e-02  -1.203939e-01  -1.726510e-01  -2.010923e-01  7.911133e-03  9.914483e-02  -3.829862e-02  8.746342e-02  2.662210e-02  1.476267e-01  4.938917e-02  8.502021e-02  -4.570858e-02  6.093099e-02  4.628795e-02  -1.947442e-01  -1.472541e-01  1.412256e-01  9.035660e-02  -2.591751e-02  -6.766188e-02  -2.890201e-02  2.489920e-02  1.331280e-01  4.523148e-02  8.389089e-02  -1.566326e-01  1.066502e-01  7.687802e-02  1.435334e-01  -1.480788e-01  2.368304e-01  1.242688e-01  -4.961552e-02  1.098220e-01  6.999831e-03  7.216169e-02  1.698533e-01  1.421585e-01  -1.027751e-01  1.235734e-01  3.048738e-02  -8.902673e-02  1.083705e-01  -8.687018e-02  5.176187e-02  -1.606180e-01  -7.495303e-03  6.047210e-02  1.927407e-01  1.395034e-01  9.008237e-02  -5.584608e-02  1.491103e-01  2.062483e-01  -1.233064e-01  -1.147086e-01  -5.581648e-03  9.279985e-02  -1.232552e-01  -7.523427e-02  2.323221e-01  8.059815e-02  1.898913e-01  -1.068403e-01  -6.176023e-02  -1.344182e-01  -4.769279e-02  2.266637e-03  -1.394175e-02  -1.372062e-01  1.683155e-04  7.488354e-02  8.168881e-02  6.040372e-02  -7.645432e-02  -2.586343e-01  -1.365261e-01  1.535456e-01  7.076183e-02  1.055890e-02  -4.436115e-02  -2.408520e-02  -1.200810e-01  1.312545e-02  -1.380465e-02  1.055824e-01  -2.551447e-01  -5.154720e-02  2.093256e-01  -1.407243e-01  8.864922e-02  9.213679e-02  1.290465e-01  -2.611035e-03  2.542561e-02  5.875095e-02  1.219921e-01  -5.199516e-02  9.017516e-02  1.586679e-01  3.374521e-02  -2.148244e-02  -2.311485e-01  1.458557e-01  -3.514099e-02  4.280522e-02  -1.111221e-01  5.108884e-02  -1.240333e-01  -4.291930e-02  2.090568e-01  2.151962e-01  5.157381e-02  -7.509425e-02  7.046269e-02  -7.238816e-02  4.970362e-02  -2.547874e-01  -6.489306e-02  1.603920e-02  9.613723e-02  -1.906347e-01  -1.438927e-01  3.375268e-03  2.605179e-02  -7.192140e-02  -2.395542e-01  1.549732e-01  -7.340786e-02  7.537267e-02  9.838955e-03  6.010885e-02  -1.124009e-01  3.755994e-02  5.172197e-02  -2.113851e-02  -9.957484e-02  1.455831e-01  -2.188477e-01  -3.646589e-02  -8.557088e-02  4.227725e-02  1.532094e-02  -1.726955e-01  2.016097e-02  -1.029630e-01  7.219667e-02  2.001345e-01  1.269172e-01  2.516472e-01  -3.612683e-01  1.730985e-01  8.464935e-02  1.457656e-01  -7.263444e-02  1.432644e-01  -1.273422e-01  -2.620465e-02  -1.429407e-01  1.460544e-02  1.175137e-01  -4.849244e-02  9.913918e-02  -4.179948e-03  3.321619e-02  4.518784e-02  -4.623907e-02  -5.586992e-02  -1.256910e-01  -1.476537e-01  9.964630e-02  -9.216476e-02  -2.310383e-01  3.030937e-02  -1.516414e-01  2.744094e-03  -2.655991e-02  -1.169863e-01  -7.785741e-02  -2.282487e-02  7.049905e-02  8.367488e-02  -1.083826e-01  -1.163023e-01  5.465115e-02  7.735084e-02  7.804628e-02  1.614113e-01  5.706307e-03  -1.451630e-01  5.619059e-02  1.557891e-01  -7.069103e-02  3.710007e-02  2.897181e-01  3.069280e-03  -2.092665e-02  1.033318e-01  2.218947e-01  3.030074e-03  -1.588019e-01  1.367565e-01  1.362290e-01  3.118604e-02  9.402632e-02  9.189817e-02  -1.003395e-01  1.175138e-01  3.130762e-01  1.135460e-01  -1.171577e-02  1.371732e-01  1.527764e-02  -9.659112e-03  1.521863e-01  -2.956353e-01  -1.624413e-01  3.150598e-02  -1.134317e-01  2.919234e-02  2.034639e-01  -2.159618e-02  -6.883182e-02  -1.700455e-01  -2.563949e-01  -1.322192e-01  -5.945073e-02  1.264813e-01  3.562482e-02  2.552270e-01  8.956696e-02  -8.018384e-03  -2.279086e-01  5.504334e-02  1.495424e-01  -2.054739e-01  1.694552e-01  -1.732333e-01  5.945955e-02  -1.704831e-01  -3.224199e-01  -1.791607e-01  3.034621e-02  6.768379e-02  4.479640e-02  -1.443493e-02  6.134514e-02  1.104393e-02  1.654129e-02  -3.886365e-02  1.606870e-01  2.610613e-03  -3.637370e-02  -2.165934e-01  1.603726e-02  -1.024467e-01  -1.023048e-02  3.451065e-02  7.918327e-02  2.273504e-01  -1.196252e-01  2.208922e-01  -3.672275e-02  3.101604e-02  -1.679302e-01  1.427614e-01  1.382535e-01  1.465688e-01  -1.348664e-01  1.195149e-01  6.936716e-02  6.413687e-02  1.423121e-01  9.006991e-02  -1.463042e-02  -1.847378e-03  -2.659825e-01  -3.005769e-02  4.912272e-02  2.521092e-03  -1.056740e-01  8.987927e-02  4.060331e-02  1.842905e-02  2.010063e-01  7.402670e-02  2.849556e-01  -5.277122e-02  5.045354e-02  5.511612e-02  -5.711759e-02  1.626891e-01  -4.362017e-02  -1.113249e-01  -5.730725e-02  5.074025e-02  -6.673265e-02  2.696349e-02  1.035870e-01  2.911003e-03  -1.530479e-01  -6.226123e-02  -9.193721e-02  -7.580768e-02  -2.796432e-01  -1.151127e-01  -1.445381e-01  5.764541e-02  2.569623e-02  5.262495e-02  1.022589e-01  1.323054e-01  -5.216070e-02  -4.655246e-03  -7.087043e-02  8.270737e-02  -2.506713e-01  3.961992e-02  -6.272878e-02  -4.813160e-02  -4.726596e-02  -1.090716e-01  3.491187e-01  -7.218861e-02  -4.188427e-02  7.993008e-02  -1.710751e-01  -1.162247e-01  -2.204496e-01  -1.135070e-01  2.560743e-01  -1.094272e-01  -6.480667e-02  1.195451e-01  -1.446375e-02  1.970263e-01  1.123819e-01  -8.028646e-02  3.595128e-01  -1.297099e-01  -8.843574e-02  -1.770668e-01  -9.046353e-03  -2.229520e-01  -1.370352e-01  -1.662246e-01  1.289624e-01  -4.983395e-02  -5.310108e-02  4.597500e-03  -1.866249e-02  4.353090e-02  -1.723751e-01  -1.793472e-01  1.905947e-01  -2.081408e-01  1.150719e-01  3.016271e-02  2.529788e-01  -2.702983e-02  -1.969586e-01  -3.144000e-02  -8.064471e-02  -6.459054e-02  1.468845e-01  -1.998344e-01  -9.727996e-03  -8.109433e-02  -1.944723e-01  -2.502689e-01  -1.834872e-01  -2.819334e-02  -3.645272e-01  -5.595146e-02  -2.357157e-01  -9.536442e-02  -4.194941e-02  1.975428e-02  1.386442e-01  2.269267e-02  3.128207e-02  2.106849e-02  1.211981e-01  -9.993291e-02  -5.231614e-04  1.598744e-01  -9.606864e-02  -4.561352e-02  5.404867e-02  1.757979e-01  1.079652e-01  -6.406393e-02  -8.968116e-02  8.836760e-02  -1.177581e-01  -9.034920e-02  -3.439958e-02  3.430637e-02  2.338798e-02  1.372843e-02  -1.644639e-02  -4.362860e-02  -1.126158e-01  -7.019497e-02  7.514189e-02  -9.438793e-02  -1.438877e-01  -1.944308e-01  -1.009277e-01  1.732034e-01  4.710573e-02  3.347565e-01  8.649562e-02  -1.055385e-01  -1.615885e-01  5.491968e-02  -8.636943e-02  2.215401e-02  -6.575022e-02  -1.169112e-01  -4.775219e-02  -4.140593e-02  -1.557200e-01  1.426207e-01  7.325179e-03  2.088088e-01  -1.801742e-01  8.610561e-02  -1.209073e-01  5.563824e-03  1.522397e-01  -6.645260e-02  -1.075632e-01  1.837382e-01  2.099432e-02  8.124285e-02  -1.042926e-01  1.600595e-01  7.192395e-02  3.827023e-03  1.769552e-01  6.803572e-02  -9.079944e-02  4.174376e-03  8.718659e-04  -1.154401e-01  -1.187928e-02  -1.067484e-01  4.816829e-02  -3.767894e-02  1.191778e-01  -4.473034e-02  -1.370517e-01  1.032226e-01  -8.929028e-02  -7.730353e-02  1.247241e-01  -7.028417e-03  2.804212e-01  9.113291e-03  -2.671949e-02  4.575618e-02  -1.338944e-01  -2.198119e-01  1.087316e-01  -1.905574e-03  -1.259652e-01  -2.208807e-02  9.507667e-02  6.111622e-03  -5.684385e-02  1.178064e-01  -1.268262e-01  6.428780e-03  -8.643219e-02  -1.106376e-01  -1.580361e-01  -1.919583e-02  -1.185759e-01  1.527514e-01  1.406594e-01  -6.373921e-02  -9.325910e-03  