<?xml version="1.0"?>
<MethodSetup Method="MLP::MLPBNN">
  <GeneralInfo>
    <Info name="TMVA Release" value="4.2.1 [262657]"/>
    <Info name="ROOT Release" value="6.24/04 [399364]"/>
    <Info name="Creator" value="danchepkwony"/>
    <Info name="Date" value="Thu Nov 11 23:33:10 2021"/>
    <Info name="Host" value="Darwin BigSur 20.4.0 Darwin Kernel Version 20.4.0: Thu Apr 22 21:46:47 PDT 2021; root:xnu-7195.101.2~1/RELEASE_X86_64 x86_64"/>
    <Info name="Dir" value="/Users/danchepkwony/Documents/Skoby/basicRoot"/>
    <Info name="Training events" value="197"/>
    <Info name="TrainingTime" value="2.82371998e-01"/>
    <Info name="AnalysisType" value="Classification"/>
  </GeneralInfo>
  <Options>
    <Option name="NCycles" modified="Yes">60</Option>
    <Option name="HiddenLayers" modified="Yes">N+5</Option>
    <Option name="NeuronType" modified="Yes">tanh</Option>
    <Option name="RandomSeed" modified="No">1</Option>
    <Option name="EstimatorType" modified="No">CE</Option>
    <Option name="NeuronInputType" modified="No">sum</Option>
    <Option name="V" modified="Yes">False</Option>
    <Option name="VerbosityLevel" modified="No">Default</Option>
    <Option name="VarTransform" modified="Yes">N</Option>
    <Option name="H" modified="Yes">True</Option>
    <Option name="CreateMVAPdfs" modified="No">False</Option>
    <Option name="IgnoreNegWeightsInTraining" modified="No">False</Option>
    <Option name="TrainingMethod" modified="Yes">BFGS</Option>
    <Option name="LearningRate" modified="No">2.000000e-02</Option>
    <Option name="DecayRate" modified="No">1.000000e-02</Option>
    <Option name="TestRate" modified="Yes">5</Option>
    <Option name="EpochMonitoring" modified="No">False</Option>
    <Option name="Sampling" modified="No">1.000000e+00</Option>
    <Option name="SamplingEpoch" modified="No">1.000000e+00</Option>
    <Option name="SamplingImportance" modified="No">1.000000e+00</Option>
    <Option name="SamplingTraining" modified="No">True</Option>
    <Option name="SamplingTesting" modified="No">False</Option>
    <Option name="ResetStep" modified="No">50</Option>
    <Option name="Tau" modified="No">3.000000e+00</Option>
    <Option name="BPMode" modified="No">sequential</Option>
    <Option name="BatchSize" modified="No">-1</Option>
    <Option name="ConvergenceImprove" modified="No">1.000000e-30</Option>
    <Option name="ConvergenceTests" modified="No">-1</Option>
    <Option name="UseRegulator" modified="Yes">True</Option>
    <Option name="UpdateLimit" modified="No">10000</Option>
    <Option name="CalculateErrors" modified="No">False</Option>
    <Option name="WeightRange" modified="No">1.000000e+00</Option>
  </Options>
  <Variables NVar="6">
    <Variable VarIndex="0" Expression="studytime" Label="studytime" Title="Study Time" Unit="units" Internal="studytime" Type="F" Min="1.00000000e+00" Max="4.00000000e+00"/>
    <Variable VarIndex="1" Expression="failures" Label="failures" Title="Past Failures" Unit="units" Internal="failures" Type="F" Min="0.00000000e+00" Max="3.00000000e+00"/>
    <Variable VarIndex="2" Expression="health" Label="health" Title="Health" Unit="units" Internal="health" Type="F" Min="1.00000000e+00" Max="5.00000000e+00"/>
    <Variable VarIndex="3" Expression="absences" Label="absences" Title="Absences" Unit="counts" Internal="absences" Type="F" Min="0.00000000e+00" Max="4.00000000e+01"/>
    <Variable VarIndex="4" Expression="school" Label="school" Title="School" Unit="school" Internal="school" Type="F" Min="0.00000000e+00" Max="1.00000000e+00"/>
    <Variable VarIndex="5" Expression="G1" Label="G1" Title="First Period Grade" Unit="score" Internal="G1" Type="F" Min="3.00000000e+00" Max="1.80000000e+01"/>
  </Variables>
  <Spectators NSpec="0"/>
  <Classes NClass="2">
    <Class Name="Signal" Index="0"/>
    <Class Name="Background" Index="1"/>
  </Classes>
  <Transformations NTransformations="1">
    <Transform Name="Normalize">
      <Selection>
        <Input NInputs="6">
          <Input Type="Variable" Label="studytime" Expression="studytime"/>
          <Input Type="Variable" Label="failures" Expression="failures"/>
          <Input Type="Variable" Label="health" Expression="health"/>
          <Input Type="Variable" Label="absences" Expression="absences"/>
          <Input Type="Variable" Label="school" Expression="school"/>
          <Input Type="Variable" Label="G1" Expression="G1"/>
        </Input>
        <Output NOutputs="6">
          <Output Type="Variable" Label="studytime" Expression="studytime"/>
          <Output Type="Variable" Label="failures" Expression="failures"/>
          <Output Type="Variable" Label="health" Expression="health"/>
          <Output Type="Variable" Label="absences" Expression="absences"/>
          <Output Type="Variable" Label="school" Expression="school"/>
          <Output Type="Variable" Label="G1" Expression="G1"/>
        </Output>
      </Selection>
      <Class ClassIndex="0">
        <Ranges>
          <Range Index="0" Min="1.0000000000000000e+00" Max="4.0000000000000000e+00"/>
          <Range Index="1" Min="0.0000000000000000e+00" Max="2.0000000000000000e+00"/>
          <Range Index="2" Min="1.0000000000000000e+00" Max="5.0000000000000000e+00"/>
          <Range Index="3" Min="0.0000000000000000e+00" Max="4.0000000000000000e+01"/>
          <Range Index="4" Min="0.0000000000000000e+00" Max="1.0000000000000000e+00"/>
          <Range Index="5" Min="7.0000000000000000e+00" Max="1.8000000000000000e+01"/>
        </Ranges>
      </Class>
      <Class ClassIndex="1">
        <Ranges>
          <Range Index="0" Min="1.0000000000000000e+00" Max="4.0000000000000000e+00"/>
          <Range Index="1" Min="0.0000000000000000e+00" Max="3.0000000000000000e+00"/>
          <Range Index="2" Min="1.0000000000000000e+00" Max="5.0000000000000000e+00"/>
          <Range Index="3" Min="0.0000000000000000e+00" Max="3.8000000000000000e+01"/>
          <Range Index="4" Min="0.0000000000000000e+00" Max="1.0000000000000000e+00"/>
          <Range Index="5" Min="3.0000000000000000e+00" Max="1.2000000000000000e+01"/>
        </Ranges>
      </Class>
      <Class ClassIndex="2">
        <Ranges>
          <Range Index="0" Min="1.0000000000000000e+00" Max="4.0000000000000000e+00"/>
          <Range Index="1" Min="0.0000000000000000e+00" Max="3.0000000000000000e+00"/>
          <Range Index="2" Min="1.0000000000000000e+00" Max="5.0000000000000000e+00"/>
          <Range Index="3" Min="0.0000000000000000e+00" Max="4.0000000000000000e+01"/>
          <Range Index="4" Min="0.0000000000000000e+00" Max="1.0000000000000000e+00"/>
          <Range Index="5" Min="3.0000000000000000e+00" Max="1.8000000000000000e+01"/>
        </Ranges>
      </Class>
    </Transform>
  </Transformations>
  <MVAPdfs/>
  <Weights>
    <Layout NLayers="3">
      <Layer Index="0" NNeurons="7">
        <Neuron NSynapses="11">
          1.8147143868743933e+00 1.4989146543023690e+00 2.0319318213281901e-01 1.1795554089252402e+00 -2.4032635931829209e+00 -3.5231917779415572e-01 -1.8441367258761876e+00 2.2367671327710203e+00 -1.1021303781644169e+00 8.1035659661309645e-01 -2.0478419327201518e+00 
        </Neuron>
        <Neuron NSynapses="11">
          1.0957733535259624e+00 -8.0343903918936876e-01 -1.8191050982326418e-01 1.6957632219640231e-01 -1.3707200038741771e-01 -3.8623879651070381e-01 1.3086669225727061e+00 2.4163608603229916e-01 1.1626167851697771e+00 1.1081800694619730e+00 -6.6082417138326832e-01 
        </Neuron>
        <Neuron NSynapses="11">
          2.3991057955748327e+00 -7.8358419462131054e-02 -1.6721768166792941e+00 -2.4064419243904880e-01 4.9451142157871369e-01 -1.3993347970887642e+00 -1.5367169553376299e+00 1.3202894326994161e+00 5.0555325412308405e-01 5.6561696274603952e-02 5.1197385121468653e-01 
        </Neuron>
        <Neuron NSynapses="11">
          -2.2768615471184224e+00 3.0402851674708870e-01 5.2841345752512692e-01 -4.9333484933226481e+00 1.7029181750726718e+00 -2.4013226250086896e+00 2.6756758644749734e+00 3.4749237405483391e-01 5.9717432856916119e-01 2.7078870296338904e+00 1.1125769046331033e+00 
        </Neuron>
        <Neuron NSynapses="11">
          -8.0645311529901853e-01 -1.6638470196037793e+00 8.4122325210598936e-01 5.2963703092872338e-01 1.3022119265201320e+00 4.2262927781992954e-01 1.6661119261505892e+00 1.5712301503782644e+00 -1.4686318588056047e+00 1.7654033819851795e+00 -1.2397962203109985e+00 
        </Neuron>
        <Neuron NSynapses="11">
          -3.5613157553779429e+00 -1.0769770969654378e+00 -1.7913769389420242e+00 2.5850422722065942e+00 5.6541078675614609e-01 -5.0778584686834671e-01 -4.5269381296264444e-01 -1.5476199448540024e+00 7.7872080208910088e-01 3.2435844965978347e+00 -1.3205836657374079e+00 
        </Neuron>
        <Neuron NSynapses="11">
          -7.9197942907284657e-01 -1.1524747669352819e+00 8.7041848560131585e-01 -2.3729538901572944e+00 -5.0651688440443110e-01 -1.0063902825043476e+00 9.7174642154060920e-01 1.2705281474940104e+00 1.1012809213308719e+00 9.5898794961281608e-01 -1.9096293546375975e+00 
        </Neuron>
      </Layer>
      <Layer Index="1" NNeurons="12">
        <Neuron NSynapses="1">
          -3.2304957800670384e+00 
        </Neuron>
        <Neuron NSynapses="1">
          -2.8301851387549887e-01 
        </Neuron>
        <Neuron NSynapses="1">
          -1.8943226317157891e+00 
        </Neuron>
        <Neuron NSynapses="1">
          3.7758719200537660e+00 
        </Neuron>
        <Neuron NSynapses="1">
          1.9327077948708900e+00 
        </Neuron>
        <Neuron NSynapses="1">
          -1.5051213708042179e+00 
        </Neuron>
        <Neuron NSynapses="1">
          -2.7074227945065461e+00 
        </Neuron>
        <Neuron NSynapses="1">
          -2.5482005787904249e+00 
        </Neuron>
        <Neuron NSynapses="1">
          -4.2994345863186206e-01 
        </Neuron>
        <Neuron NSynapses="1">
          3.5330986831612683e+00 
        </Neuron>
        <Neuron NSynapses="1">
          -2.0369644627537564e+00 
        </Neuron>
        <Neuron NSynapses="1">
          -6.6199977827339096e-01 
        </Neuron>
      </Layer>
      <Layer Index="2" NNeurons="1">
        <Neuron NSynapses="0"/>
      </Layer>
    </Layout>
    <InverseHessian NElements="7921" NRows="89" NCols="89">
      <Row Index="0">
        2.2446511612969157e+01 -2.7377139298920912e+02 2.0474972101302424e-01 -1.0461206767834415e+01 -1.1575363562762305e+01 -1.9524960336917996e+01 1.2283088339616519e+01 -1.6700938933590798e+01 3.0606660768699509e+01 1.2035489108668185e+00 1.4673826369495648e+01 2.2332203875672121e+01 4.9360245425461756e+01 3.8201104361591671e+00 1.4240535111894220e-01 8.6987421618938328e+00 -6.5013619669113676e-01 -1.9348397684529111e+01 -5.4608877852781390e+00 6.8900604055486298e+01 2.9119239847248152e-01 9.0748197888162370e+00 2.8931577082695540e+01 1.6478552702089135e+02 4.8657769958453603e+00 -2.1223975124479619e-01 -7.9158195339548802e+00 -8.9439843802727399e+00 1.8396647230348801e+01 -1.2182207230537815e+01 -3.8006497599425543e+01 1.6717011705335028e+00 -1.0627129890781244e+01 -2.9198625475830891e+01 -1.8850505010299074e+02 6.1136367127051274e+00 9.7036981693921209e+00 2.9275378644994571e+01 -2.9775494729633326e+01 -2.4469652690703878e+01 -5.1908124596889826e-01 -8.9668202141357014e+01 2.0707697730767327e-01 -3.2371304791309790e+01 -1.7150920668971139e+01 3.7967837057060200e+02 -3.1190444784402654e+01 -5.4898772453226625e+00 8.6161992660713889e+00 4.8351476537741924e+01 -5.1208445483677821e+01 -5.5474875640030653e+01 2.9531623211374938e+02 -6.2342002562457033e+00 4.0823145644883304e+01 -4.6118113317397672e+01 2.9211218929621401e+02 2.0459284385733589e-01 -7.0272734484199226e+00 8.5284290404160750e+00 1.1458217061403161e+01 -1.0287872388202453e+01 3.3185348890880825e+01 -8.4471694092321584e+01 3.9062604145580146e+00 3.3570951139369583e+01 2.5110474581131141e+00 -3.5003102266639081e+02 4.1225970876934838e+01 6.0247490985337997e+00 2.6646718915109719e+01 -7.0290103270212228e+01 1.6566026849032212e+01 3.0793595731667352e+01 -2.9141478981327668e+02 5.5773386792806336e+00 -2.6013253515150637e+01 3.4392966156500208e+01 -1.2561608344688783e+02 1.1088345018720538e+01 -3.4080866449373715e-01 9.8497478344501346e+00 1.8451776992631423e+01 -1.4638815156276324e+01 -1.6966583900229629e+01 1.1347037409177974e+01 4.0901199152420773e+00 -2.2307170143177572e+01 -1.4214480777370156e+02 
      </Row>
      <Row Index="1">
        -2.7377139298773318e+02 1.1836800824776762e+05 -2.4059290783742707e+01 4.9337427681009279e+02 -7.3059085095662078e+02 4.4338467062972205e+02 -4.4902060673210786e+02 -1.1688700582392576e+03 -3.8447136790531467e+03 2.1974105193720825e+02 1.2820411331199800e+03 -6.2676387901037526e+02 -2.3497232683113700e+04 6.1174064332036528e+02 -2.1221246050924555e+02 -3.6186968513704483e+02 -1.3421041456377336e+03 1.3380708400989056e+02 4.3073666310402479e+02 4.7409168858627099e+03 -1.9141437837842350e+00 -8.0609919832828575e+02 -3.1825829309693859e+02 -7.7173375481820858e+03 3.4963470903352061e+02 7.5839653529198728e+01 3.3599700028336702e+02 -2.6836167753526837e+02 -2.5929021830708587e+02 -3.8581025868178079e+02 4.5572725448918000e+03 -9.4282892092800097e+01 -3.3898561514397699e+02 6.5166430386525576e+02 1.3966989803814571e+04 -1.7949978201773214e+02 -3.2449974416497662e+02 -1.7824756474767491e+03 1.5895441180150874e+03 8.2685877657762447e+01 -2.4788289434198202e+02 4.0284992531947873e+03 -1.2733817321835389e+02 9.5763675687528360e+02 3.1020241108097548e+02 -1.0919736530643588e+05 2.6779625127139461e+03 1.1521110511626969e+03 5.0728941742874949e+03 4.6045644547890100e+02 1.1088802904256486e+03 9.1166060736198958e+01 -3.8732197289726333e+04 -9.2335195753149037e+02 -7.8702223876332960e+02 3.1082434483903040e+02 -3.0386504318782798e+04 -3.7084011878136209e+00 2.1594578473078016e+02 3.9526013862118765e+02 -1.7621242017416480e+03 4.2203486603787496e+02 2.4113828424415257e+02 1.1770412751101461e+04 -5.5896817760904732e+01 -1.3001541848469669e+03 -3.0238439478547650e+02 -5.1925753534595424e+03 -2.6132415161693207e+03 -1.2717311405579094e+03 -6.9792335233871399e+03 -2.4815536521820195e+02 -1.1566509522758261e+03 -8.1479886923417098e+02 3.8135141654863808e+04 9.4393527889437655e+02 1.9324676120737249e+03 -5.4654527782576849e+02 1.4670765492709324e+04 -3.9943213420704251e+02 -4.9487902088499777e+02 3.9439218759177447e+02 -4.9086467637421902e+02 3.7832861876216509e+02 -8.7267805020162393e+02 1.2197860362699332e+03 -2.0937565749890169e+02 -1.1401932657121837e+02 1.4954582189203722e+04 
      </Row>
      <Row Index="2">
        2.0474972093778376e-01 -2.4059290779299172e+01 2.6614517148309879e+01 -1.1288876196164011e-01 3.1498640855639120e+00 -7.0596044694216316e+00 -8.2314458053894128e+00 1.7620510549177776e+01 2.8064573736663242e+01 -3.4751055036245626e-01 -5.4196980826132062e+01 -6.5341157849133111e+00 3.1058070372824579e+02 -2.0524924903775172e+01 1.2531290979811682e+00 8.2335653338983921e+00 9.2347502374040609e+00 1.6896343002029155e+01 -2.1777190965465000e+01 -2.1885381280442473e+02 -7.1389238269785049e-01 -2.1333091507259226e+01 -1.8472119319232960e+00 -1.1976659241784350e+02 -5.8003331474129141e+00 -2.6476228606918397e+00 1.1361440911534499e+00 -3.2886833624044431e+00 -8.3788037924423087e+00 3.8613632124454806e+00 -7.7325396115951534e+01 -5.2429455911806178e-01 1.9365982967141399e+01 5.2652154454992131e+00 -1.2972897196037670e+02 3.5850258682000899e+00 -9.3926123425746795e+00 1.2303232705190638e+01 -2.0441233536804987e+01 1.0365207394554028e+01 1.7657982152787351e+01 -3.5347541737871737e+01 -5.8742662536321744e+00 1.6390156931536627e+01 -1.1651570243917120e+00 1.0850998881207241e+02 -3.7604784559702509e+00 -3.6018457497005145e+00 3.2008580197303132e+01 -2.0030368479251299e+00 9.7487912555353393e+00 6.0162464102472466e+00 5.0960992405322156e+02 -2.4512294529630029e+01 -6.7099331555116262e+00 -3.9240530467724142e+00 -1.3685054502002959e+02 -1.0917058739263622e+01 1.5538466877330006e+01 -1.3819261194883570e+00 1.1054372055221240e+01 3.9659983479318495e+00 -2.3009522472375714e+01 -1.9503647493131976e+02 -1.7789559987961545e+00 -3.6227154757545868e+01 5.4569326262243800e-01 -1.7604522811791739e+02 -7.4398745194212115e+00 -1.2827887233887798e+00 -1.5445421488774512e+01 -7.6828015235711309e+00 1.0826218250570649e+01 -2.3929623144374723e+00 -5.3772050817391607e+02 1.9504873145405323e+01 -7.2520247550407248e+01 -1.7730574068523461e+00 -1.1307211970080994e+02 -5.8820326347996001e+00 -9.4355401978884927e+00 -2.8164181140911992e+00 6.0076545742958700e+00 1.0533505188597859e+01 1.5430242251380406e+01 -7.6269848726196713e+01 -2.7753663910258743e+00 7.2642774991338868e+01 -1.0643045207570596e+02 
      </Row>
      <Row Index="3">
        -1.0461206767831289e+01 4.9337427681041981e+02 -1.1288876204056919e-01 3.6896022741058481e+01 2.0612147170088506e+00 2.0362296283123840e+01 1.1437227776102290e+00 9.0884809000093849e+00 -6.6818153664090389e+01 -4.3934556295330847e+00 -8.1990711941658404e+01 -2.4349483102768218e+01 -1.1948940516343342e+02 -2.2747216900144949e+01 8.4601784790491390e+00 -1.5674675144765063e+01 1.5032843750782920e+01 7.7368279879196855e+00 2.1530108175160876e+01 -4.0167633643807541e+01 4.2421815616785619e+00 -2.9326949073744164e+01 -1.7639154800731024e+01 -1.9846164954215604e+02 -9.2074132729033984e+00 -1.0425801036346334e+00 1.3370481826979910e+01 -9.5265237768024225e+00 3.3081976527359286e-01 1.3345664219788146e+01 1.1203744825630694e+02 -2.3030523305520214e+00 9.9889424988272228e+00 2.3715549237631549e+01 9.2778728026749278e+01 2.9240680175965954e+00 -7.4457837110490260e+01 -2.4431582288567547e+01 3.2597567026406338e+01 -7.0669909533011954e-01 -8.0965217431417891e+00 2.2744246893384866e+02 -1.0522417083880862e+01 1.0239801698243210e+02 1.0259586916373474e+01 -6.6107273820983812e+02 8.8273325935484408e+00 4.3524422349695824e+00 3.7163291128650968e+01 -3.7075607432716140e+01 1.9908288619978606e+01 2.6283793353836206e+01 -3.4506269617108188e+02 -1.6439278264492820e+01 -6.6576544400875775e+01 2.6949333580249547e+01 -7.3580108075834232e+02 -2.5978646447288195e+01 5.8515883261473768e+01 7.6668373770963498e+00 -1.8460952620870124e+01 5.7196430924220643e+00 -1.3657212204993742e+01 4.7786870620678691e+01 -5.1847612018990530e-01 -9.2336881104620431e+01 -6.1706599125293735e+00 6.1389420617391181e+01 -2.4168234421167544e+01 -2.4227461004230086e+01 -6.8470149886871951e+01 8.1764024389908656e+01 -1.0808494111156566e+01 9.8627829003879324e+00 3.2879772497701458e+02 1.4013363486346966e+01 -9.1321302561121538e+00 -2.9243225131105344e+01 1.0406030525564324e+02 1.3749521695053545e+01 -6.0007297700757974e+01 -2.5566751196920620e+01 -1.4920502144517435e+01 -5.7758962357480348e-03 -2.5161972907608536e+00 -1.9082992452604451e+01 -1.3837656820959234e+01 1.0176018994684523e+02 2.0471265190945246e+02 
      </Row>
      <Row Index="4">
        -1.1575363563179355e+01 -7.3059085090515293e+02 3.1498640849650599e+00 2.0612147176050315e+00 4.2143255209439121e+02 -1.6669849679302480e+01 -2.9982539742038110e+01 6.9865259781517949e+01 7.3533570105395563e+02 -1.1631406972889780e+01 -3.5151172914764743e+01 -4.5590344962260069e+01 -6.3812336572811184e+01 -3.8670009705499695e+01 -1.5545988522431440e+01 1.3068374559466488e+02 -9.6062448585810785e+01 9.7910783674764858e+01 -1.6174302675551509e+01 -1.2336083290434324e+03 -1.8585260756991882e+01 -1.9288773921559738e+02 2.4726142219829166e+00 -2.7390070052035742e+02 3.8891799322132286e+01 6.9955969208982891e+00 -1.0824734745138636e+02 -1.3688473875656189e+02 -2.4968945115671637e+01 5.7292107956333830e+01 -4.6024801801980198e+02 2.7831163868378157e+00 1.1921042440602803e+02 -1.8783370123446524e+01 2.9345085590372713e+02 -7.7742662223161787e+00 5.1632046722078464e+01 -2.8562318657384014e+02 -1.8387773788071075e+02 2.0372108756947981e+01 -3.6222939395646714e+00 -8.3615716723024627e+02 3.3566958267863384e+01 -9.5313569789094629e+01 1.3805910249554337e+01 1.2547290534639876e+03 -1.6114003229520677e+01 -2.8648953311086366e+01 -3.4208983005509327e+02 -1.1501426114593353e+02 8.9062520787140770e+01 2.1190214473523633e+02 1.4323389656032407e+03 3.3189745563987039e+01 -6.0805167986827897e+01 1.0402584047817172e+01 -9.3670361846377091e+02 6.9769341753319154e+01 -6.5990492147524208e+01 -6.0076943698704348e+01 -4.8803180130020628e+01 -2.1322560387916731e+01 -5.0558085963388642e+01 -1.1428224219010208e+03 -1.0613625625782655e+01 -1.3599345831125231e+02 -7.1170887469658567e+01 -7.8882400038671585e+02 -8.7241134344988708e+01 3.9253660522908426e+01 2.8697251703786628e+02 2.0968782154682714e+01 7.8815165687807678e+00 -1.4437376099113345e+02 -1.8098913738902422e+03 -3.2215914318682358e+01 -3.1310959088046053e+02 2.7737778966417387e+01 2.2757552556370388e+02 -8.5783802512454599e+01 1.0858400706539886e+02 3.1721267891333412e+02 2.2408409124655950e+02 3.0571812522377996e+01 1.3876414486366966e+02 -4.3054323307310807e+02 4.1664829731681628e+01 1.1090466523759927e+02 -2.1392801101161379e+02 
      </Row>
      <Row Index="5">
        -1.9524960336865043e+01 4.4338467062443050e+02 -7.0596044694249258e+00 2.0362296283021351e+01 -1.6669849679947468e+01 1.4957991395149497e+02 -3.7767886601923344e+01 -1.4126266970477786e+01 1.1287715163759108e+02 -2.6770365509759886e+00 9.3660396122582029e+01 -9.6505701325592330e+00 -7.9214144293848562e+01 -2.5957836781657728e+00 -3.1917288873868865e-01 -6.3555274548343654e+01 2.2284970098093581e+01 1.1263965672120161e+01 1.5379239756360477e+00 -1.1622016957190097e+02 2.6199284702860663e+00 9.1448787349941739e+01 -2.8801962514002675e+01 -4.0916188664174922e+02 8.7904959674557457e+00 -2.9549456066086930e+00 3.0250001296289700e+01 1.2926826976360971e+02 -3.3683163126237979e+01 -1.7289113568947190e+01 2.6798277594113074e+02 -6.7737419120157591e+00 -1.2818722722773467e+01 4.8125205137829887e+01 6.5822842957557543e+02 -2.0533131204763688e+01 4.2214636276499184e-01 -7.8350687934198504e+00 2.7220580669914466e+02 5.4560678647284739e+01 -1.4500023446172072e-01 4.6435642026011396e+02 -7.7362276326259991e+00 6.0248389843946171e+01 1.6986164032054695e+01 -7.1477289894357716e+02 7.0488476229257728e+01 9.1807573092754318e+00 -2.4020742875007937e+00 -1.2814914792152263e+02 1.0914423753536644e+02 2.2073094180982867e+01 -9.6170434198958219e+02 -7.7554086697922244e+00 -2.1349055499415044e+01 3.9753924884670298e+01 -4.9300189992273226e+02 -1.6912347406812586e+01 -6.2554837722994581e+00 -1.4470331947116620e+01 -4.3823985770131220e+00 1.8401676119793233e+01 -2.6649655373773900e+01 4.6034273804631016e+02 -1.6530920671759418e+01 5.2671211711873084e+01 2.6559175315840438e+01 1.0215477288935177e+03 -9.5989531985185295e+01 8.7049926446802317e-01 -6.3452784201226947e+01 2.7554010110782156e+02 -6.8515811353387505e+01 -4.3237735287081513e+01 1.1401562947565703e+03 5.1748208472938870e+00 2.3768906204116098e+02 -4.3443218741419301e+01 2.9568961549041546e+02 -1.3796404844238602e+01 8.3076918035169047e+00 -6.0783969112536546e+01 -2.4243175278430138e+02 3.6467692800066061e+01 -2.9197873914267959e+01 -4.8689125477094663e+01 -4.7646789110106260e+00 -4.2813468973265927e+01 4.0091987018597928e+02 
      </Row>
      <Row Index="6">
        1.2283088339745547e+01 -4.4902060674925798e+02 -8.2314458051935162e+00 1.1437227774303180e+00 -2.9982539741279066e+01 -3.7767886602337114e+01 7.3033849486465897e+01 3.0007886286611040e+01 -1.6828569914650751e+02 -7.3418056350148231e-01 -1.7470763015296047e+01 1.2628789708474599e+00 9.1452651079835512e+00 -5.2752125148306259e+00 2.7314395348658689e+00 -1.4190660812795636e-01 -1.5946568256975948e+00 -3.6161084313657753e+01 3.9282421806227603e+01 3.4822128317805493e+02 5.9682250656541704e+00 4.5681357862755273e-01 7.1509781059826700e+00 2.0163644783961885e+02 -2.7211518246025324e+01 3.7021679389842523e+00 -4.5601787893445813e+00 -4.9333888109170012e+01 4.9735634836560116e+01 2.3005616120977916e+01 3.6973372358483445e+01 -3.8772377158136473e-01 -4.6565945802402375e+01 -2.3470916290788875e+01 -4.6547201561642800e+02 3.2806112181268951e+01 -4.6842333610434252e+01 9.8199515236804604e+00 -4.5271366350789521e+01 -6.1951402637550075e+01 -4.0220586590193648e+01 1.1917936450108743e+02 -1.1703449678278023e+01 -2.0106936521982195e+01 -9.3079016160470864e+00 5.0785609302936177e+02 -3.2869683726608358e+01 3.7116625527363141e+00 4.1505978066946774e+01 1.0844386665345235e+02 -9.2432225107297171e+01 -4.3214189527945841e+01 2.9412427809473644e+02 -1.0918245433206506e+01 6.0514463293231287e+01 -2.1661719400366186e+00 5.3273942652113965e+02 -1.2677321398391513e+01 1.9019494687193756e+01 1.5073331735127226e+01 -2.9763737066462806e+01 -1.9849451241177348e+01 4.1263728116117825e+01 4.8961937579069762e+01 -1.0280324045185305e+01 -3.2098552270095574e+01 -1.3548007919700211e+01 -7.1684813490403405e+02 7.6937939602935330e+01 -2.8419565808274012e+01 -3.0275446337376490e+01 -1.1594656115280439e+02 3.8848216130532805e+01 9.6763986990183213e+01 -3.0592376978785842e+02 9.2179059316677225e+00 -3.1970141328405568e+01 -3.6676057665967274e+00 -2.5425321789246669e+02 6.2451175881116690e+01 -4.4644951141194497e+01 -1.7575805011965386e+01 5.3265429744515160e+01 -5.4149701090755748e+01 -1.1085223677035097e+01 7.0264562642057442e+01 2.0168076511702946e+01 1.4372063826424162e+00 -2.3841685751571822e+02 
      </Row>
      <Row Index="7">
        -1.6700938933594067e+01 -1.1688700582416179e+03 1.7620510549133087e+01 9.0884809000182099e+00 6.9865259783011382e+01 -1.4126266970932107e+01 3.0007886286333854e+01 2.7225424791853033e+02 2.1207055913426935e+01 -2.1036303211373635e+01 -2.0981178583234703e+02 -2.7433850795923060e+01 5.2810580556871912e+01 -7.5452741262798909e+01 1.0018707501208645e+01 2.0294617260563836e+01 6.2363806561208207e+01 3.3517181511180311e+01 3.3183639832692663e+01 -4.6605310014707453e+02 2.6081440796770350e+00 -5.9974569939455201e+01 -4.2204725273942245e+01 -1.6638547108958116e+02 -7.3517019377100837e+01 -4.5245835948888615e+00 -1.5147056692995834e+01 -3.5614917205149204e+01 2.3484286993488483e+00 1.3648118388920932e+02 -1.1248580451292568e+02 7.5013443685440784e-01 -9.7316220110383682e+00 2.3832112335012734e+01 -4.3873523255180379e+02 7.2597174078108075e+00 -1.2933091597717282e+02 -6.9002402264261036e+01 -1.2559358766143782e+02 4.1713248195326116e+01 9.7752040898542489e+00 1.7762151277082725e+02 -1.8442353012482972e+01 3.2446364547374635e+01 6.6412186419950512e+00 1.2853234390248786e+03 2.4937634999507640e+01 1.3470383582601087e+01 -3.3483299524880046e+00 2.0424880902633763e+01 2.4075009889476334e+01 1.3027375196221152e+02 9.5810086738852021e+02 -5.3276072820981341e+01 1.9565296595107299e+01 5.5446063347959260e+01 -3.5761580962878725e+02 -1.7020765975894630e+01 7.2869840216437311e+01 2.9326596101800760e+01 1.5895607437619898e+01 -3.5163142446260530e+01 -1.1736765056115632e+02 -7.3406656776767932e+02 -2.1471987527959303e+01 -1.4336703360362151e+02 3.8140619197419299e+00 -1.5335779072309597e+03 -4.2484823528642721e+01 -6.9299841631560014e+01 -7.1274933718412576e+00 -1.3330547276608812e+01 5.1162672713119584e+01 1.6136552273837228e+02 -1.0464069034068409e+03 3.8983513874081886e+01 -2.2939227784937037e+02 -3.8755715810185769e+01 -3.4491769458614283e+02 8.0977371519647363e+00 -7.5509809648926520e+01 -1.1136287911075886e+01 1.0515472839071006e+02 1.5945898720722379e+01 1.7209081866371605e+02 -1.6763454714262912e+02 3.2935622452099757e+01 2.1947646658051821e+02 -3.9592251153239187e+02 
      </Row>
      <Row Index="8">
        3.0606660767508885e+01 -3.8447136789312235e+03 2.8064573736196621e+01 -6.6818153662524480e+01 7.3533570105983904e+02 1.1287715163762687e+02 -1.6828569914929636e+02 2.1207055911774205e+01 6.1900404033407067e+03 -5.2503094557158079e+01 4.0654500111348841e+02 6.6202274471457301e+00 3.2021747677296416e+03 -3.3164341261669620e+01 -5.3809987772987384e+01 2.6746814433790627e+02 -3.9006515278096691e+02 2.0349004121543925e+02 -1.5116104529967572e+02 -4.2824861498149839e+03 6.1616585464871587e+00 -3.6835818825073864e+02 1.0145846885279768e+02 7.3460620292475517e+02 2.0296848810975028e+01 1.6225404429062522e+01 -2.2640311331125667e+02 2.2845132544243225e+02 -5.2709030737550236e+01 5.2031003891317908e+01 -7.4513209880810757e+02 6.8351662340038315e+00 2.7096320510828878e+02 -1.6877445948074100e+02 -6.4665534427851992e+02 3.4376810899865930e+01 3.9513293970051006e+02 -2.9768539823247130e+02 6.8943062961780515e+02 6.9284896866887678e+01 4.8217254660859723e+01 -2.1957829224119737e+03 -1.3901315048550536e+01 -1.7952342060180055e+02 -3.4553362436474089e+01 8.4072050510821282e+03 -2.5817155426007304e+02 -1.7054890533766741e+02 -1.0322605575400887e+03 -2.7515051574611061e+02 3.9782797292390683e+01 1.5191065052932137e+02 7.1180014916940563e+03 1.7852917488692370e+01 2.6233473718027079e+02 -1.8451574057041569e+02 -5.6063664854788658e+02 -9.0549483067463612e+01 -2.2753619110306741e+02 -2.8694388978124152e+01 2.4780253683423152e+02 -3.5879718334305835e+01 7.6576300650251142e+01 -4.3399166155053726e+03 9.4145268022383632e+01 9.3321229045839573e+01 -1.3827179659481675e+02 -3.4149398179375503e+03 2.0492571177808219e+02 3.0671240275183652e+02 1.1749931686214713e+03 3.2946261491984524e+02 1.0546461522713810e+02 -2.1149475098557593e+02 -6.5793095349983842e+03 -5.9356560301254930e+01 -5.7557964676406186e+02 3.4334230139086134e+02 -3.5365853951971715e+01 7.7424140801244093e+01 3.9728045869509998e+02 7.9816630038384847e+02 -5.0814693729780345e+02 1.5747113987458039e+02 3.2917612783784000e+02 -1.8209942039684845e+03 4.2186159587903830e+01 -1.6479580655838873e+02 -1.6156934766079671e+03 
      </Row>
      <Row Index="9">
        1.2035489109072692e+00 2.1974105193697895e+02 -3.4751055038385914e-01 -4.3934556295385443e+00 -1.1631406973504397e+01 -2.6770365509511365e+00 -7.3418056330542236e-01 -2.1036303211327265e+01 -5.2503094558366634e+01 1.9847289232871063e+01 2.7270138639379812e+01 7.1095857782635399e+00 -4.4652775460939964e+01 1.5067772176909047e+01 -7.3071715799712045e-01 -5.7010369242391139e+00 -1.0793224042120787e+01 -7.4493694139440958e+00 -1.0660643774242889e+01 5.8722738135797869e+01 9.4099282828017650e+00 6.7770438667063635e+00 4.9694916581182849e+00 1.5862856375655415e+01 2.1292063434746250e+01 1.5075100991739925e+00 -3.5339002562096957e+00 -1.2310017929760560e+01 -1.3249328363357193e+00 -2.1227707500310906e+00 3.4519074540280450e+01 -1.1394459400744659e+00 2.8190985578887528e+01 -1.2252615661435781e+01 1.1495406677173165e+02 -1.5366192192662568e+01 2.3659304535024024e+01 2.7327509295450256e+00 2.6915960202050247e+01 3.7975518280232339e+00 -2.2970141962886148e-01 1.3050901831852023e+01 2.6146136800782646e+01 -1.1492676426502625e+01 8.0856884807750209e+00 -1.9389762156774705e+02 2.3752495665042037e+01 7.4290442174068980e+00 1.0897962419151712e+00 -1.3231404638797541e+01 1.7967197224419618e+01 3.9325816091391502e+01 -4.7836005406285074e+02 4.1668571079648032e+01 -3.2481322255078574e+01 -8.0777273395497033e+00 1.5348354778346902e+02 5.6817330832566437e-01 -1.2319751771905347e+01 -1.6216986835910916e+00 -1.0252619272602175e+01 -4.3171413694304421e+00 -3.2190162201969642e+01 6.3845438425630419e+01 1.8483915246264889e+01 1.1118445346814951e+01 -1.3719863107067560e+01 5.0801807501956063e+02 -3.8475300263721159e+01 3.5751456907642924e+00 -1.2399553550140553e+01 2.5099440375207276e+01 -1.8006892896077126e+01 -5.8493742392584089e+01 4.2722932693810259e+02 -1.3171608402048390e+01 3.1749174082790137e+01 -2.0615076289184655e+00 1.1849751933649169e+02 -6.5412002723654865e+00 1.1954184438955991e+01 3.1846109444629040e+00 -1.9707118423950516e+00 9.9527969742882618e+00 1.1535566271659215e+01 2.6203367397503261e+01 -3.0265817551007284e+01 -2.4818740879045386e+01 9.9106010702521701e+01 
      </Row>
      <Row Index="10">
        1.4673826370892940e+01 1.2820411329950477e+03 -5.4196980825289643e+01 -8.1990711943465044e+01 -3.5151172918215416e+01 9.3660396120520545e+01 -1.7470763012406969e+01 -2.0981178583010933e+02 4.0654500112350826e+02 2.7270138638682525e+01 2.7655774960398639e+03 3.9730187455334544e+01 -1.9292287499541642e+03 3.8843730003486149e+02 -7.9522001076102839e+01 1.2968736378519976e+00 -3.7963778327967975e+02 -3.6377740109484485e+01 -1.4650069423927629e+01 2.1681500223847411e+03 -4.6492101931551716e+01 8.7252826370054504e+02 4.4063267297788755e+01 6.3540877362767628e+02 2.4317899116606731e+02 3.1251142038523252e+01 -2.4057489387713780e+01 6.3062723606388481e+01 1.0061974807096213e+01 -1.7787928109480501e+02 -9.6261691021203589e+01 1.0858012105087932e+01 -3.4647322213104053e+02 -2.4291451717207554e+01 2.2401169294651017e+03 4.2787492906978501e+00 2.2247707716523988e+02 -8.4457884481733316e+01 3.1669079007454332e+02 -5.4324196092645110e+01 -1.1709739855193919e+02 -3.3498124958336308e+02 7.0280547184216957e+01 -1.3298136612343874e+03 7.1811615366184924e+01 -4.1278117936094372e+02 3.2302829794036512e+02 1.0892811160753095e+02 -2.5129612871922245e+02 1.6744243983167596e+02 1.3080020046442021e+02 -2.6476912729960958e+01 -8.6139071092798749e+03 6.4691613462652572e+02 9.5302905554876975e+02 -6.7572715249637525e+01 1.4557917606522278e+03 3.5163182584003494e+02 -2.7054112112262339e+02 -1.2250417702915638e+02 -1.3522614731080904e+02 2.8139300573141252e+01 1.0733950950251175e+02 2.7768563650628666e+03 -6.8234442069292442e+01 1.8902226736970188e+03 -8.2317893042346327e+01 3.9291072616497904e+03 -1.1279541822094215e+02 -8.8596359384816154e+01 1.5041267948382716e+02 -2.3674143904505956e+02 -2.2286824172635482e+02 -3.2962741557705039e+02 9.8932431646192854e+03 -6.3291507028827129e+02 2.3498366118861441e+03 7.9806201317855297e+01 1.8540962483573915e+03 -1.3299841372728491e+02 1.9587173241174943e+02 9.0816355639158076e+01 -3.2919956435670048e+02 4.3802857723603069e+01 -2.6148450070246224e+02 4.5825885653651790e+02 8.3248516274357542e+01 -2.0367187418886303e+03 7.9273348491749312e+02 
      </Row>
      <Row Index="11">
        2.2332203875666639e+01 -6.2676387900705060e+02 -6.5341157848764500e+00 -2.4349483102718828e+01 -4.5590344962570263e+01 -9.6505701324190198e+00 1.2628789708477191e+00 -2.7433850795959017e+01 6.6202274468639546e+00 7.1095857782595697e+00 3.9730187455112166e+01 6.6619717544837243e+01 -3.8406481975906877e+02 3.2992952191769106e+01 1.2010283292399253e+01 -2.3055679360518223e+01 3.4427308079028158e+01 -7.1950231745146127e+01 -1.3217650002818338e+01 1.7261132748762270e+02 1.1430856244993215e+01 5.1742999244335536e+01 3.3553490358771185e+01 2.4398370706441611e+02 1.5460175200615470e+01 -2.8177216360926267e+00 -7.8551365092847591e+00 3.2722642502345728e+01 1.6199500666630009e+01 -2.3255517479795301e+01 7.2899767690276036e+01 1.4424435829753164e+00 -8.0869323451073782e-03 -4.4887328365449626e+01 -7.5198095433120073e+01 -2.6199936357510111e+01 5.9750080651595873e+01 6.7214478182778137e+01 -3.4446638808265271e+00 -7.7049188076237520e+00 9.9119650512025785e+00 -6.3108460955126205e+01 6.9323528263163219e+00 -3.7659353451679515e+01 -1.5452114477475455e+01 5.4829510697402486e+02 -1.9339621310989770e+01 -2.3092619200729025e-01 -4.2081993450028314e+01 -8.2992354418001177e+00 -4.5691676802309004e+01 -2.8624716651845503e+01 2.6065695177128163e+01 2.5980380177885756e+01 1.3501995548312747e+01 -4.4907184850532623e+01 5.4758006866332187e+02 1.4483904412452405e+01 -3.9727745318488765e+01 6.0310400696353206e+00 3.9271075394930790e+01 -1.6069569119687440e+01 1.8041860959192611e+01 5.2462795210944392e+01 2.1552694394668819e+01 9.5288585508935611e+01 2.7847681985872587e+01 -2.9174266245425144e+01 2.5452713042043378e+01 3.7028693910407547e+01 7.0666808903535426e+01 1.0652065598463750e+01 -2.6339647646089588e+01 -1.1017414908137518e+01 5.9826119267485147e+00 -1.2604071384372531e+01 4.6913759764026530e+01 3.6862298417581172e+01 -8.2979306532085495e+00 -1.2167901770117695e+01 3.3935677923491625e+01 -9.6605220629228530e+00 -2.2380325856351753e+01 -7.4099925314711710e+00 -6.4142116230762269e+00 7.2102414744593361e+01 -1.1089569473960372e+01 -7.3633528701100900e+01 -6.1237468268121216e+00 
      </Row>
      <Row Index="12">
        4.9360245428145390e+01 -2.3497232683832561e+04 3.1058070374330782e+02 -1.1948940517065080e+02 -6.3812336469998776e+01 -7.9214144321913409e+01 9.1452650926960359e+00 5.2810580581612157e+01 3.2021747680051658e+03 -4.4652775470127281e+01 -1.9292287502393015e+03 -3.8406481976021314e+02 7.6133262183224419e+04 -4.9017759621870692e+02 -3.4617673064273106e+02 6.0294496595259250e+02 -1.0505442791486166e+03 9.9711238189193568e+02 -8.6595233626472691e+02 6.7000084871161152e+02 -1.5420807216554485e+02 6.8891904620693850e+01 9.3553440247520740e+01 2.0190672640425785e+03 -6.0358613982052066e+02 6.9870482359481031e+01 -8.0893289170033498e+01 4.0886056537373815e+02 -8.1958085805941096e+01 -5.7314873570906997e+01 -2.6310487108904126e+03 1.7948870668440705e+01 5.5179792444277655e+02 1.1881256940018265e+02 -2.0013719479486917e+04 1.1449119686238291e+03 4.6855405989200051e+02 1.6196802130407459e+03 1.2868016136124686e+03 9.8503926785052144e+01 3.4758396308905998e+02 -1.4787461591501587e+03 -2.3320779285504787e+02 -4.8980646680091093e+02 -7.3324121185379227e+02 4.2282009329588247e+04 -3.2535571849013222e+03 -1.3887650279107856e+03 2.8080948335204480e+03 4.4052412878733921e+03 -1.7828070530035386e+03 -3.8642250685083727e+03 4.4505016720407657e+04 -3.3628117038499927e+03 2.5325727072252021e+03 -3.7991740507642515e+02 2.9745837094885646e+04 -2.5299653393385546e+02 8.9119748024362238e+01 7.5178468662394152e+01 -5.8444793582652346e+02 -6.4675486457154619e+01 4.4177973601023797e+02 -1.7709125106173306e+03 2.6607566304894499e+02 -1.0150310016000876e+03 3.8989037888668469e+02 -4.7023887135399445e+03 4.0895769138450119e+03 1.2585260520627760e+03 -7.5712635879734853e+02 -4.6516515052277518e+03 2.6513562908168242e+03 3.3828341907524191e+03 -4.2845163623304208e+04 2.9876170738066080e+03 -5.0792946868112140e+03 4.7537048321499179e+02 -2.2197536433254849e+04 1.0965188759286380e+03 5.9080160565727525e+01 -2.2408519968119012e+02 -9.4465184677536035e+02 2.9270018833171182e+01 -3.9353583721057521e+02 -1.2428005735770450e+03 7.2235825114646815e+01 -1.7381815822357692e+02 -2.3075879371891169e+04 
      </Row>
      <Row Index="13">
        3.8201104364136782e+00 6.1174064330177168e+02 -2.0524924903705880e+01 -2.2747216900411594e+01 -3.8670009707343759e+01 -2.5957836782556001e+00 -5.2752125140860535e+00 -7.5452741262609266e+01 -3.3164341262560846e+01 1.5067772176829806e+01 3.8843730003681969e+02 3.2992952191843415e+01 -4.9017759616134771e+02 1.3463318404869716e+02 -5.0396356641766094e+00 -9.4423347018505037e+00 -6.6743939678446111e+01 -5.6147761500657218e+01 1.4593574525316155e+01 6.2519520871776399e+02 5.2974879360170766e+00 1.3732704435199997e+02 1.4495404807765002e+01 2.0196898219767129e+02 4.1426373587924530e+01 6.7025250890371728e+00 -1.5537323962592091e+00 3.7390613258860746e+01 6.2887618029720995e+00 -4.7383791313522352e+01 1.5078245129024264e+01 2.8086015402976741e+00 -4.2209813910818646e+01 -1.6555971528216130e+01 3.9052549081082998e+02 -2.3297071076664452e+01 9.3967801652083438e+01 3.4504061518593616e+01 5.7837852268259581e+01 -7.2217098180686614e+00 -3.1626512058795967e+01 -1.2956734974557580e+02 2.3607586957627074e+01 -2.0118257698229988e+02 1.4614205019458534e+01 -7.5969005978429914e+02 6.9275325136823454e+01 2.4204518677297216e+01 -8.7034502005219863e+01 -6.9409145499573327e+01 2.4357939691144527e+01 5.7172865174029127e+01 -1.9400500872628240e+03 1.2609309113440256e+02 8.5310609419477160e+01 -1.2898914854214340e+01 3.6322200725915900e+02 7.5884511165098317e+01 -7.9910693879458265e+01 -9.0876549560058493e+00 -4.7483953390292072e+01 5.4539229696687279e+00 3.4520864826755535e+01 7.3184658447849313e+02 2.5942956002854487e+01 3.2617531732824409e+02 -4.3694332148049719e+00 1.3585719061192012e+03 8.2534541975695390e+00 1.6051196913226093e+01 9.2318374144100986e+01 3.8848639308329297e+01 -8.5908369489367814e+01 -1.4333974189697449e+02 2.2012282055892365e+03 -1.0219106673258128e+02 3.8197632539296052e+02 1.5020777946391986e+01 4.9730730753964684e+02 -1.9429115056829509e+01 6.2477946192880651e+01 5.5121592981785703e+00 -5.4243972036412195e+01 3.4923737434839153e-01 -6.6128784866213351e+01 2.3178010489190481e+02 -2.0745287906911866e+01 -4.0952873772312620e+02 3.5569885271537885e+02 
      </Row>
      <Row Index="14">
        1.4240535104780605e-01 -2.1221246049960561e+02 1.2531290978644805e+00 8.4601784791747239e+00 -1.5545988523042688e+01 -3.1917288845251335e-01 2.7314395348627238e+00 1.0018707500970010e+01 -5.3809987775328054e+01 -7.3071715792324632e-01 -7.9522001074336075e+01 1.2010283292388804e+01 -3.4617673065280508e+02 -5.0396356637694515e+00 1.9853489477492939e+01 -1.3392420407726402e+01 3.9000525310183356e+01 -2.8165379829764269e+01 1.3874239533930337e+00 -4.3179285356409792e+01 5.1658529402582758e+00 -2.5746789518685492e+01 -7.6449031773171416e-01 -4.3715335522796479e+01 -1.1520932663120220e-01 -3.3311483217391240e+00 4.6648949456969477e+00 -4.3343244829192731e+00 6.0962191080232051e+00 5.9592533669268235e+00 4.9254437164487442e+01 -8.4840242739342786e-01 1.3208113735914957e+01 -1.2487938179396565e+00 -1.0409778393445958e+02 -1.2007397048020071e+01 -2.4673647630660099e+01 2.0492043633892393e+01 -2.4093858307332354e+01 -3.4778010646420774e+00 7.0198334024084783e+00 5.5013874927406832e+01 -5.4676143726584385e+00 6.0045764197374119e+01 -1.7967889356569493e+00 6.4827810458304214e+01 -1.8948338297432180e+01 -4.0121615312224712e-01 -1.4590230689084251e+01 -5.7735067793066357e+01 -1.9637666864232749e+01 1.9902297872023432e+01 1.9809262209942614e+02 -1.2782675533331513e+01 -5.0162662251595663e+01 4.2478006936125814e+00 -2.3523578877738237e+02 -5.9608021396926745e+00 2.5433465479702722e+01 5.7588699824483456e+00 1.5569825959247964e+01 -1.3680642277988113e+00 -1.0784704410124187e+01 -7.3476964146531458e+01 4.7110943604827469e+00 -4.6132103648937118e+01 1.3007014422410476e+01 -1.7403200683089440e+02 7.5121960428398022e+00 8.3500493494723766e+00 1.8050434232891330e+01 7.4481191002784456e+01 -6.8770371262571963e+00 -1.9832988073963511e+00 -2.3359617431435294e+02 1.3388348944203806e+01 -4.5494176863780055e+01 -7.6515184498182816e+00 4.3916991767806067e+01 -8.3305142918233095e+00 -2.5478830191895156e+01 -2.0257489895561442e+01 1.1621693863993343e+01 -5.4552895361827831e+00 1.0974722694091508e+01 -7.3913576271010903e+00 -1.1521403620163206e+01 7.8247128481900432e+01 1.1286396051035480e+02 
      </Row>
      <Row Index="15">
        8.6987421617269618e+00 -3.6186968511967029e+02 8.2335653337261476e+00 -1.5674675144551408e+01 1.3068374559544387e+02 -6.3555274548242778e+01 -1.4190660869302363e-01 2.0294617259762958e+01 2.6746814433707448e+02 -5.7010369240306353e+00 1.2968736373540470e+00 -2.3055679360319335e+01 6.0294496590026517e+02 -9.4423347013253149e+00 -1.3392420407331812e+01 1.1972723469703016e+02 -7.1500107147475433e+01 5.5717026816977167e+01 -2.8763871178543766e+01 -2.8703485970711415e+02 -2.6657163487653850e+01 -1.2230493781636575e+02 1.9917161739361774e+01 7.0896647299854621e+01 3.3587039453628051e+00 3.9940797485276822e+00 -4.6962198281671725e+01 -1.0519356040844731e+02 3.5452839549590518e+00 1.1772484727708058e+01 -4.2468486347747984e+02 6.5981055928465215e+00 4.1630021206684695e+01 -1.8146215959266513e+01 -2.7193230546540963e+02 3.7722156421611260e+01 1.1804471698529243e+01 -5.8127075816810667e+01 -1.9367860426363825e+02 -2.2924942386158836e+01 1.1221982257494094e+01 -6.3309327508147442e+02 1.6572272518573577e+01 -1.0301274866204555e+02 -1.3602740447157318e+01 8.5448690329151225e+02 -5.9438513570286595e+01 -2.2025345490949064e+01 -1.0054229293588374e+02 4.2780978125747477e+00 -3.8943968582188219e+01 3.8863486734943251e+01 1.3805961137062945e+03 -3.0595931540156450e+01 3.3117682655284320e+01 -2.7873030316482939e+01 1.8294550042089213e+02 3.9644991647319074e+01 -1.8831968858065288e+01 7.3271455075964695e+00 -3.4231720672722076e+01 -7.5070107862353757e+00 2.1540645188491624e+01 -5.9507943641678810e+02 -8.6929756469492077e+00 -3.1021453855354594e+01 -3.1742911647817401e+01 -5.3472549708252177e+02 6.7323926618610855e+01 7.2190749894980977e+00 1.8802135498666655e+02 -1.3295426726089846e+02 6.6618599133450260e+01 -4.1338893608111150e+01 -1.4699050676951153e+03 1.3081868857012431e+01 -2.2511439941100073e+02 4.5996560693145902e+01 -1.3757010476493303e+02 -1.3115098301523020e+01 2.9130882738598665e+01 1.2298584295067886e+02 1.8400053837855174e+02 -9.5609027930425636e+00 2.8942990951796595e+01 -1.2501038630193331e+02 3.4110027452848207e+01 -6.3972481621083599e+00 -3.7327312377494701e+02 
      </Row>
      <Row Index="16">
        -6.5013619680597046e-01 -1.3421041456270650e+03 9.2347502373047945e+00 1.5032843750919671e+01 -9.6062448586012366e+01 2.2284970098575045e+01 -1.5946568258818496e+00 6.2363806561102564e+01 -3.9006515278211333e+02 -1.0793224042096639e+01 -3.7963778327782529e+02 3.4427308078949579e+01 -1.0505442791624387e+03 -6.6743939678132364e+01 3.9000525310168150e+01 -7.1500107147748068e+01 2.1928084707546154e+02 -4.1264149933412227e+01 2.4888810032127182e+01 -2.6475156894204929e+02 2.4313325628852922e+01 3.7180752800194252e+00 -1.3962526346852286e+01 -1.0776978856833244e+02 -3.4386600762764132e+01 -1.6153552685432963e+01 3.7582001814227439e+01 5.5036447859577862e+01 -8.6233011340225794e+00 2.2662670551904583e+01 2.2526630521949735e+02 -3.4749465681653775e+00 1.6798539167513770e+01 9.0293859603362971e+00 -3.0944132360187268e+01 -5.0084780238187030e+01 -7.3665101247529307e+01 6.0062267760401056e+01 -5.6495280297428167e+01 3.2951187618374441e+01 2.5296927374419390e+01 4.3192122590401209e+02 -2.1106031229340967e+01 2.2520421059667825e+02 -3.9468322611133448e+00 4.3650964160195110e+02 4.1326983360887617e+00 6.3570012632362420e+00 7.2503446747513806e+01 -1.5698445447138338e+00 1.7190020815689029e+00 -2.9900667698866890e+01 2.4526327040149096e+02 -2.8569136277924997e+01 -1.4650862453039062e+02 2.0133131686241896e+01 -4.3769647265035655e+02 -4.9708591787567975e+01 5.5395559037243714e+01 2.9455967168541804e+01 1.1077828947377520e+02 -9.6560783262551730e-01 -5.7728743413707470e+01 -2.3017055300635548e+02 -1.8439380112202457e+00 -1.6533764242319648e+02 5.3042468761429994e+01 -6.0047474869731138e+02 -6.8065322970846807e+01 -3.4587059320439160e+00 -1.0250635301521535e+02 9.8253519485046581e+01 -7.5190873776238618e+00 1.2050412535453478e+02 -4.5173086765447050e+02 3.4983837929665214e+01 -1.3626858358189557e+02 -3.8400795303407456e+01 -2.3056091689035333e+02 -2.0720057554970950e+01 -5.1945086000994337e+01 -1.3433008962114815e+02 -6.0691933874028834e+00 1.0227615702710803e+01 4.6534806367781364e+01 3.7959195965460239e+01 -1.5292956963612241e+01 3.2358698633975621e+02 1.2470126659091957e+02 
      </Row>
      <Row Index="17">
        -1.9348397684595206e+01 1.3380708401106008e+02 1.6896343002033490e+01 7.7368279879136042e+00 9.7910783676496067e+01 1.1263965671808137e+01 -3.6161084314055813e+01 3.3517181511249817e+01 2.0349004121839164e+02 -7.4493694138975410e+00 -3.6377740111768261e+01 -7.1950231745103707e+01 9.9711238186682215e+02 -5.6147761500834562e+01 -2.8165379829525413e+01 5.5717026817691661e+01 -4.1264149933384523e+01 1.5885781822377999e+02 -1.1144354140949094e+01 -5.3641440351255176e+02 -1.7762026128384129e+01 -7.1736982959764106e+01 -2.4523828971813685e+01 -2.2824527244955243e+02 -3.5883052686494068e+00 5.3286301754375911e+00 -1.8064015783404892e+00 -2.5159874593678254e+01 -4.8117303711384835e+01 2.0544148737628721e+01 -2.2979354027479471e+02 -1.0510454507062430e+00 2.6307263823133027e+01 4.3211801092495961e+01 1.6934864454250283e+02 2.9512486621754444e+01 -9.3576303695049834e+00 -9.1721043372999063e+01 -4.0600639191672752e+00 5.0221927622666406e+01 -1.7398876445483964e+00 -1.0793647479954500e+02 2.6790348215921176e+00 -1.2054897460682771e+01 7.6295022764006415e+00 2.1780397545808728e+02 2.5924451093143038e+01 -1.4321023186148405e+01 2.1879098285001795e+01 5.1390469495659751e+01 9.5916568542360253e+01 1.9971909406683530e+01 5.7706639466678200e+02 -3.8423129144260741e+01 1.8538640604173022e+01 1.2440156837811481e+01 -1.8055839727571583e+02 5.3195517608422467e+00 3.4454157086380963e+00 -1.3869501457937872e+01 -1.6445838699664364e+01 9.2391321096891392e+00 -2.6758111528820002e+01 -3.7243615898108715e+02 -3.2584240041944213e+01 -9.0020799071820875e+01 -3.1842058838406690e+01 -1.4994672434609690e+01 -6.2347341223078509e+01 -1.6373725147366422e+01 -3.5065313962513059e+01 -6.2936342475101554e+01 7.0981865949767680e+01 6.4373160657665984e-01 -7.1867357636091333e+02 2.4964523690508337e+01 -1.3175310191166528e+02 -8.8525712934667489e-01 -1.9971982734420311e+02 -1.6471983619386677e+01 2.3058064690138774e+01 4.5844053494365255e+01 2.2469577095391504e+01 6.4256411640656012e+01 2.3381990713362132e+01 -1.9498004291597999e+02 2.7166645238998086e+01 8.2508616488328585e+01 -2.9572421769026636e+02 
      </Row>
      <Row Index="18">
        -5.4608877850842212e+00 4.3073666308364409e+02 -2.1777190965381621e+01 2.1530108174881889e+01 -1.6174302675985132e+01 1.5379239753778364e+00 3.9282421806585639e+01 3.3183639832908710e+01 -1.5116104529855608e+02 -1.0660643774396293e+01 -1.4650069423404318e+01 -1.3217650002792716e+01 -8.6595233622875185e+02 1.4593574525096237e+01 1.3874239531378025e+00 -2.8763871178411673e+01 2.4888810031937179e+01 -1.1144354140604715e+01 1.2138855737919167e+02 3.0434597760571296e+02 1.6386039634187597e+01 2.0926194617109307e+01 -1.9186573608419238e+01 -5.9901771472166274e+01 -5.0958002409417944e+01 6.7771665903435938e+00 2.2166807474622654e+01 1.8881337128117330e+01 2.4655017239223621e+01 2.3034160091840924e+01 1.8881822556823730e+02 -5.1234423526911499e+00 -9.8626501907116108e+01 8.6353682392575362e+00 1.2257088368649761e+02 8.5223727693387001e+00 -5.3579653347329320e+01 -6.1324040774042373e+01 3.4352655473855606e+01 -2.9118686523097033e+01 -9.0622235453588559e+01 2.9715823338848094e+02 -1.9484348980772701e+01 3.1348287440947434e+01 3.2679808114203279e+00 -7.2254114419212931e+02 2.6216604008092990e+01 1.3793973802578449e+01 1.5894532339697992e+01 4.3500940972221514e+01 -1.2966371251535554e+01 -3.1090150159962057e+01 -7.6965077080763672e+02 4.8645528975817953e-01 4.0840406233269931e+01 3.7343346074519197e+01 -4.1315870602825999e+02 -3.1697795226155637e+01 1.0249270312125715e+01 2.9547631269008605e+01 -4.5849526074855248e+01 -5.7574631670816903e+00 7.0778160055643696e+01 4.0241483098827985e+02 -6.4692427652718720e+00 -9.5425550338827634e+00 -2.6526255344550433e+00 -4.7564682561910854e+02 3.1871026847712066e+01 -3.3545940481794517e+01 -9.2844623113973711e+01 -5.9560096536271701e+00 -5.8383041152800352e+00 1.2075045803582216e+02 7.6812450750033372e+02 5.5066162611231064e+00 9.1091006174096847e+01 -3.1170841079856878e+01 6.6760255177432882e+01 6.5901981575748124e+01 -3.3429069828670748e+01 -3.6977530052311295e+01 -1.5076070814112519e+01 -2.6576092327244243e+01 -2.9262373164142602e+01 1.4204843163858430e+02 6.7431023825668746e+00 -4.1878836311830568e+01 1.3354387999580896e+02 
      </Row>
      <Row Index="19">
        6.8900604059293101e+01 4.7409168854822537e+03 -2.1885381280124409e+02 -4.0167633648963822e+01 -1.2336083290489480e+03 -1.1622016957785479e+02 3.4822128318488217e+02 -4.6605310014102770e+02 -4.2824861497819275e+03 5.8722738132377408e+01 2.1681500223702651e+03 1.7261132748755296e+02 6.7000084947248524e+02 6.2519520870862880e+02 -4.3179285360843984e+01 -2.8703485970348873e+02 -2.6475156894476402e+02 -5.3641440350408186e+02 3.0434597760345667e+02 1.1585263079990989e+04 -2.8083404336330872e+01 1.3038876915498961e+03 1.3176856110966241e+01 1.9297206393191900e+03 -2.8805308899854401e+02 8.0035169017088620e+01 2.4825986636333468e+02 2.0731320815183108e+02 2.7390027258748722e+02 -3.2816480238235221e+02 1.9948687327916452e+03 2.0177797922470551e+00 -8.6968537856501018e+02 -2.9553853446888354e+01 1.2831633872366001e+03 3.3214466734590582e+02 1.7811200372095959e+02 8.8183594343301058e+02 5.4155751945438760e+02 -3.8449570723132990e+02 -3.6297956278142397e+02 2.3350340052376919e+03 -8.5095060951228788e+01 -1.1570755098771206e+03 5.5710894876731736e+00 -7.0492573215239663e+03 3.2533995222015278e+02 1.5397035641108792e+02 5.7481403609205745e+02 3.3952201750995812e+02 -3.7163001568260813e+02 -3.8745987359777951e+02 -1.5983356834321550e+04 3.1022165029976259e+02 9.1297352683429767e+02 2.9531562388460735e+01 6.8508295591493661e+03 9.8913542901402195e+01 -1.9401448014424872e+02 1.3344321564743450e+02 -6.2842747737889385e+02 8.3238908263191661e+01 7.8446828515288962e+02 9.8097261404231376e+03 -2.5281921327132295e+00 1.8607602455630549e+03 1.0456526178134934e+02 1.0253483106437694e+04 7.6692345297208556e+02 -8.1041573321646013e+01 -2.1396967161255202e+02 -2.6552072468857102e+02 -2.9866673189908329e+02 -7.4181156844860539e+00 1.8489601554174009e+04 -3.7307629211192096e+02 2.8005185303361891e+03 -9.5906795650497145e+01 9.6556274315622250e+02 6.9760621252208716e+02 -8.6045392987959929e+01 -9.5381703555619094e+02 -4.6626042305038709e+02 -4.1015469434787775e+02 -1.0391126002133858e+03 3.3460832117094915e+03 1.0717726756251670e+02 -2.9911767972970679e+03 1.2065012078514887e+03 
      </Row>
      <Row Index="20">
        2.9119239847315725e-01 -1.9141437818678320e+00 -7.1389238271557076e-01 4.2421815617113410e+00 -1.8585260757588124e+01 2.6199284703961894e+00 5.9682250657977276e+00 2.6081440797492519e+00 6.1616585452220658e+00 9.4099282828077691e+00 -4.6492101930811124e+01 1.1430856244956932e+01 -1.5420807215913206e+02 5.2974879360940221e+00 5.1658529401943802e+00 -2.6657163487892674e+01 2.4313325628841689e+01 -1.7762026128404219e+01 1.6386039634345575e+01 -2.8083404333029279e+01 2.8587698816939767e+01 -6.4132485895638354e+00 -3.3743721402749003e+00 4.5277916033312295e+01 -1.2672878525939097e+00 -5.7753974799185655e-02 2.6073146506926288e+00 2.5798529214909852e+01 4.7834068613640204e+00 6.4326736442965604e+00 1.2331207907648812e+02 -2.5517328883531705e+00 1.2291266977248309e+01 -1.0766518787284157e+01 9.2239158640805726e+01 -1.7972492425557704e+01 1.2355757660992678e+01 8.2921625311609741e+00 5.2989243954866716e+01 3.4497030421456496e+00 -1.3625548139748993e+01 1.5087996360513512e+02 1.0527489518806831e+01 4.7172373607031815e+01 6.7313748257627832e+00 -7.0379083159183153e+01 1.4257316110992537e+01 4.5992775167409361e+00 5.0140834056092061e+00 -1.3090445781756021e+01 1.0766572449602236e+01 2.1714759134052979e+01 -4.8597307260878176e+02 3.1235324728791383e+01 -4.0400963605644066e+01 5.2302776026213147e+00 -1.8180516586966860e+02 -1.8524680042344674e+01 -3.9040280203751379e+00 9.7247773592334283e+00 1.1503219729722105e+01 -5.8066776059801040e+00 -2.2957925437578524e+01 -2.8584671791536380e+01 3.0305304249818704e+01 -3.3318600986825913e+01 -3.7552840763848865e+00 2.3916569464384804e+02 -2.3308881154199021e+01 9.9543065382028821e+00 -2.7107483479297159e+01 5.2089998651299602e+01 -1.6990640195878427e+01 -2.6026054871083311e+00 4.2501145135003208e+02 3.0376830463892821e+00 -2.8571739191128813e+00 -9.5811248693007514e+00 8.7347526566349799e+01 1.1758084316327515e+01 1.2829776623978670e+00 -1.6056050324391904e+01 -4.7597562834286663e+01 5.7408247401320285e+00 1.6616213906805758e+01 -4.3252140969777377e+00 -3.6840460437199454e+01 4.5337442256083783e+01 1.2730888197545717e+02 
      </Row>
      <Row Index="21">
        9.0748197901410386e+00 -8.0609919848262882e+02 -2.1333091505712545e+01 -2.9326949075672097e+01 -1.9288773921256436e+02 9.1448787347069754e+01 4.5681358037009723e-01 -5.9974569935402428e+01 -3.6835818822541296e+02 6.7770438653410290e+00 8.7252826368578792e+02 5.1742999244121194e+01 6.8891904882851307e+01 1.3732704434669506e+02 -2.5746789519904432e+01 -1.2230493781290437e+02 3.7180752791457019e+00 -7.1736982955578682e+01 2.0926194615044807e+01 1.3038876915216367e+03 -6.4132485908148915e+00 8.3803729162146385e+02 1.2873753089457608e+01 2.9881051931103411e+02 3.5468778757197157e+01 4.8509585558771189e+00 5.0246488236901548e+01 1.8932248754421209e+02 -5.5848455329912445e+00 -6.7431265464230592e+01 3.2252019659770497e+02 -2.3148648643225767e-01 -1.6788431258692367e+02 7.3744478563164133e+00 5.0171048969724757e+02 -1.3513022396075813e+01 4.1369525073718933e+01 1.2340048641464080e+02 2.9845232858811266e+02 3.8733428659159891e+01 -3.4093712603139643e+01 7.0481835562712740e+02 6.5504889854944883e+00 -5.0388284156742930e+02 5.5744503239270131e+01 -5.3372081655125044e+01 3.4705230554769878e+02 9.5051002608719017e+01 2.4212204893770277e+02 4.2628113153802985e+02 1.8919765952353103e+02 -1.2253547481822319e+02 -6.0509292562050177e+03 3.5030995705043154e+02 3.8624974653752849e+02 -2.5836994876043512e+01 1.7784282241985693e+03 5.1002160552351839e+01 -6.5028249410962758e+01 -3.9576102787336708e+01 4.5899648654269640e+00 -4.1056477648875092e+00 2.2498883475531102e+01 1.7943023990579482e+03 -1.0069358199003432e+01 9.4270312162848313e+02 -6.1576611059325810e+00 1.5429501305578046e+03 -2.2909218631337995e+02 -1.0286741286058343e+02 -2.9261728343186212e+02 -3.1261197682644627e+02 -2.2756031279972788e+02 2.4284730823929841e+01 6.8408698983658978e+03 -3.4887281444974394e+02 1.2283020067367879e+03 -5.7665816089349438e+00 -1.9907893480575063e+02 -1.6579601885288753e+00 2.6876215103168697e+01 -1.6556827440002166e+02 -3.1408074858686410e+02 1.6246968913326064e+01 -1.2738053033664428e+02 5.3886956765568993e+02 7.1465850656210250e+00 -8.6609105415982162e+02 -2.4500779865789110e+02 
      </Row>
      <Row Index="22">
        2.8931577082676316e+01 -3.1825829309580416e+02 -1.8472119318483777e+00 -1.7639154800691479e+01 2.4726142224224255e+00 -2.8801962514005169e+01 7.1509781057977246e+00 -4.2204725273992835e+01 1.0145846885390752e+02 4.9694916580996153e+00 4.4063267296113871e+01 3.3553490358793375e+01 9.3553440240117368e+01 1.4495404807505246e+01 -7.6449031761173358e-01 1.9917161739474096e+01 -1.3962526346661935e+01 -2.4523828971821583e+01 -1.9186573608638085e+01 1.3176856106457286e+01 -3.3743721402315106e+00 1.2873753087784650e+01 4.7985422654942965e+01 2.3748898505718626e+02 2.9957784851020818e+01 -3.6522986136040281e-01 -1.8789432556902895e+01 -2.1426218431311565e+01 2.0759979567378032e+01 -2.0604974636746910e+01 -8.6381903604973175e+01 3.7319495503752003e+00 8.7061408164519136e+00 -4.5623218999315824e+01 -2.6418791323497885e+02 1.4110602856195595e+00 2.7304196714488622e+01 3.2611857294726164e+01 -4.7674410427442126e+01 -2.9091847178706445e+01 7.0935023385642220e+00 -2.0339405007512903e+02 1.0656092655313307e+01 -5.4385057236641508e+01 -2.1366203840193357e+01 5.0498691049727563e+02 -4.2076526016995579e+01 -7.8666058860576475e+00 -3.4122396279247433e+00 6.4416668889298109e+01 -6.1778474881088783e+01 -6.2979862814048332e+01 4.1881617676845161e+02 6.9976108203469281e+00 4.1556319427457737e+01 -6.9576370691461534e+01 4.6936781787273594e+02 1.6972175343167770e+01 -1.8797002963455839e+01 6.0951110722223234e+00 1.6463720928760836e+01 -1.5323109192711799e+01 3.8504138567247878e+01 -1.6844714104770543e+02 9.0114081381289850e+00 5.6992492591637529e+01 -3.4846302517389862e+00 -4.0284856636932062e+02 4.1326607599061354e+01 1.3366375620030995e+01 5.1692623692408688e+01 -1.0307166819240402e+02 1.5143807227887670e+01 8.1092052178941874e+00 -4.1812732882501399e+02 -4.4140081363797989e+00 -2.5555477013439344e+01 5.6080408794153982e+01 -1.3579431118910293e+02 -9.0965424769891428e+00 1.1890331362093431e+01 3.9852547004445903e+01 3.5063863306380313e+01 -1.3472244152555044e+01 -1.6383346632690603e+01 3.0660033734547092e+00 -7.5090724623422034e-02 -4.3513573945162605e+01 -1.7925259137259195e+02 
      </Row>
      <Row Index="23">
        1.6478552702154343e+02 -7.7173375482638994e+03 -1.1976659241607899e+02 -1.9846164954300767e+02 -2.7390070051372396e+02 -4.0916188664411948e+02 2.0163644783856509e+02 -1.6638547108793364e+02 7.3460620295001263e+02 1.5862856374662091e+01 6.3540877359940202e+02 2.4398370706469956e+02 2.0190672641084147e+03 2.0196898219156972e+02 -4.3715335522061366e+01 7.0896647303436794e+01 -1.0776978856644450e+02 -2.2824527244737976e+02 -5.9901771476095092e+01 1.9297206392509402e+03 4.5277916032939359e+01 2.9881051929105081e+02 2.3748898505834768e+02 4.5478110331718708e+03 8.5654238893579532e+01 1.0214129233985519e+01 -1.4286742068056637e+02 -1.9996581092828700e+00 2.1347317556663961e+02 -8.3302364448934256e+01 -2.9892504316303388e+02 4.1381612281179223e+01 -1.0566413093305647e+02 -3.3746667501303392e+02 -2.1644329351996748e+03 7.4854303713905466e+01 3.1620915446335545e+02 3.9142268938941834e+02 -1.5810589979595701e+02 -2.1701535444547972e+02 -4.1898232795872644e+01 -9.1236826833414671e+02 4.3669597871865236e+01 -6.0483385298695339e+02 -1.0793400120082762e+02 9.0004296751042730e+03 -3.5747792483686237e+02 -5.9261143787813893e+01 -1.5025176631705000e+02 9.9224146188537134e+02 -6.1129286227205068e+02 -5.4482232097302813e+02 1.5428929114240329e+03 3.6825819784534565e+02 5.8503232413813066e+02 -3.5666601454439819e+02 7.6244403539852938e+03 1.5228782501384757e+02 -2.2289202953061249e+02 3.8161735501132171e+01 2.6553766175289456e+02 -1.4675810737500510e+02 2.9287221945396959e+02 -6.5557819087831376e+02 1.3700260413427213e+02 6.2950221491928824e+02 -4.4329591770420137e+01 -1.7351252779967610e+03 5.7015411973664447e+02 1.1425548166008279e+02 5.2924579892702207e+02 -1.2563392771687563e+03 2.8907412314223086e+02 3.2327315555783048e+02 -9.6000109321014634e+02 -3.1182147361728391e+02 1.4609665376895305e+02 3.7891097134852743e+02 -1.8230958689946096e+03 1.8549458079027352e+02 1.6434302106646439e+02 1.2385223545875138e+02 5.6893687074272094e+01 -1.5969393480829106e+02 -6.8925027391911328e+01 4.7105761824808292e+02 3.5640119719037330e+01 -8.1370385718896239e+02 -2.3222302378390004e+03 
      </Row>
      <Row Index="24">
        4.8657769957569315e+00 3.4963470905115508e+02 -5.8003331476350866e+00 -9.2074132726473117e+00 3.8891799320211277e+01 8.7904959681280559e+00 -2.7211518245812830e+01 -7.3517019377419331e+01 2.0296848806025004e+01 2.1292063434949306e+01 2.4317899117012280e+02 1.5460175200631021e+01 -6.0358613982427028e+02 4.1426373588784500e+01 -1.1520932672339018e-01 3.3587039442368223e+00 -3.4386600762791531e+01 -3.5883052691906521e+00 -5.0958002408833721e+01 -2.8805308898659803e+02 -1.2672878523625926e+00 3.5468778761480024e+01 2.9957784850822435e+01 8.5654238893585443e+01 1.8100248130757512e+02 -1.6205058230415224e+00 -2.1767579869353742e+01 -5.7519314062391892e+01 -5.1832675377704351e+00 -2.7418293043312978e+01 -8.7315547510984615e+01 3.6964215676117025e+00 4.9420265589421405e+01 -1.4519940180450789e+01 2.4126700742447565e+02 -5.8424597070850119e+01 2.6149887706760090e+01 -1.9101313962880447e+01 -4.7160296922137967e+01 1.0622285401817182e+01 1.4165107152027440e+01 -1.4210141994729807e+02 4.7904902803855876e+01 -9.5522708977065008e+01 7.1226817908341697e+00 -2.8046623388379203e+02 -2.0295174419763686e+01 1.1046932403331123e+01 -2.8978602602122589e+01 -2.0647312578171391e+01 1.4801948554778136e+01 5.7318088802509717e+00 -8.7710148072538129e+02 9.2337985285728706e+01 1.5642672570171612e+01 -3.8024623293540849e+01 -1.8601223811990531e+02 1.2747227367305695e+02 -1.8513261499770351e+01 -3.7864312603709550e+01 3.6960650017535954e+01 -1.0203848182091470e+01 -4.9405174230038256e+01 -1.7265402836010304e+02 3.8709540242701905e+00 1.7043361207952694e+02 -1.5994747156515389e+01 4.1974388199167049e+02 -1.0822636277352615e+02 -4.9837258545249448e+00 7.1328918349982446e+00 5.3507825709714893e+00 -2.1301102966998172e+01 -1.0729553980532228e+02 8.1066089123047004e+02 -5.8271486905832880e+01 1.6359960189886567e+02 2.9058500900518823e+01 4.0406546405474711e+02 -1.8081433270880558e+02 1.3632790977184294e+01 6.4985851855931202e+01 2.0586030626148464e+01 4.5050672437211723e+01 -1.4460851473192839e+00 -8.6348342440104787e+01 -3.5307609942901138e+01 -6.0032954499036705e+01 3.9441045434319244e+02 
      </Row>
      <Row Index="25">
        -2.1223975120935590e-01 7.5839653526008149e+01 -2.6476228606689767e+00 -1.0425801036813236e+00 6.9955969208794659e+00 -2.9549456066918509e+00 3.7021679390432145e+00 -4.5245835948459110e+00 1.6225404429377203e+01 1.5075100991534842e+00 3.1251142038297427e+01 -2.8177216360789297e+00 6.9870482365001664e+01 6.7025250889624584e+00 -3.3311483217626043e+00 3.9940797485751345e+00 -1.6153552685451132e+01 5.3286301754792778e+00 6.7771665903164306e+00 8.0035169016909251e+01 -5.7753974818578552e-02 4.8509585559404744e+00 -3.6522986131368540e-01 1.0214129234612251e+01 -1.6205058231135203e+00 4.3649226035680790e+00 -1.4386382574345691e+00 -3.8076006165994256e+00 1.8237126378963424e+00 -3.4707160865332443e-01 1.0104396662401250e+01 -3.8088944851683548e-01 -5.2891215291566951e+00 -2.3826280410768437e+00 4.8008283314285009e+01 7.1913200592799829e+00 1.0989220944614077e+01 -4.8922422027686290e+00 9.9757578447400945e+00 -2.5238806027699323e+00 -1.1812165923003381e+01 2.1978393654319408e+00 2.5312738671373309e+00 -2.3051436092634109e+01 1.1196622922863462e+00 -2.7514624405332004e+01 5.6310222563404499e+00 -1.4456157762348476e-01 -8.6740203443196968e+00 2.4664370462543186e+00 4.2552326792591399e+00 7.5445565227758111e+00 -1.5758729821219316e+02 5.2245100389851107e+00 1.3075797127882954e+01 8.2379477107534083e-01 9.8821744033803142e+01 3.7773733225996429e+00 -8.2948978637250779e+00 -6.1149472850942033e-01 -1.6670052421087362e+01 1.7908242020138856e-01 1.1430113965048346e+01 6.3204435023302004e+01 -7.9168638724528595e-01 1.4847415430627947e+01 -6.2024387788908113e+00 1.3764992437618932e+02 6.0520092912001262e+00 3.0369805206739517e+00 9.7373538970622207e+00 8.9036854255782671e-02 5.4562568663361244e-01 -9.0921850432020008e+00 1.6924319145429800e+02 -3.0921866016204511e+00 2.0299527607208468e+01 2.8407069957975928e-01 2.2831533329953420e+01 7.4431281336865407e+00 9.0794431800468960e+00 5.4718230315112972e+00 -4.8854730471172978e+00 -1.2683640692297643e-01 -9.1334064832660466e+00 1.2652208597222467e+01 2.6734134955686639e+00 -3.8758752716083734e+01 -1.2199467679892648e+00 
      </Row>
      <Row Index="26">
        -7.9158195338584569e+00 3.3599700027056781e+02 1.1361440912624658e+00 1.3370481826818647e+01 -1.0824734745158699e+02 3.0250001296200651e+01 -4.5601787891074377e+00 -1.5147056692639126e+01 -2.2640311331016846e+02 -3.5339002563456043e+00 -2.4057489387514021e+01 -7.8551365093756367e+00 -8.0893289141846054e+01 -1.5537323965435830e+00 4.6648949454805306e+00 -4.6962198281567495e+01 3.7582001814062004e+01 -1.8064015779012379e+00 2.2166807474617102e+01 2.4825986636416764e+02 2.6073146505342759e+00 5.0246488238580383e+01 -1.8789432556812400e+01 -1.4286742067850787e+02 -2.1767579869899407e+01 -1.4386382574136962e+00 5.3537252061521670e+01 5.3202661379218000e+01 -1.0302879767083734e+01 -1.2135169841659808e+01 1.5915845034031344e+02 -3.3976504734413702e+00 -5.5053565201615029e+01 3.3123757083028316e+01 5.0490681708802867e+01 -8.6976266883017228e-01 -3.6087218392382397e+01 6.5516635230196655e+01 7.2671686676902141e+01 1.3028164608394308e+01 -4.3805083086610637e+00 3.2453050548203441e+02 -1.6586719364104269e+01 6.2890716802617916e+01 -1.8649095222448075e-01 -6.4209047528270753e+02 9.3040926826307384e+00 4.9371930126453147e+00 9.1897804425045095e+01 -1.3699644682614911e+01 7.9057589037903249e+00 -6.2693877804110805e+01 -5.0075901618525450e+02 -3.2283849156784704e+01 9.2979793362543575e+00 2.0814539603565876e+01 -1.9720871468422683e+02 -3.6974027402502728e+01 3.3872273526261438e+01 1.2252332423296195e+01 9.1965929482651063e+00 1.5551247077554422e+01 1.5049629642754212e+01 3.8783385684547773e+02 -6.5318609190149175e+00 2.5911314585549917e+01 2.7342857289888649e+01 2.8395237307039270e+02 1.3207152569922917e+01 -1.4759027997020919e+01 -9.9316929138645889e+01 5.9393590399304202e+01 -3.1057971851602248e+00 5.8095600597146991e+01 6.0412831433613735e+02 2.5863894536206548e+01 9.5064239734310036e+01 -3.0900325134545046e+01 -6.1273414495920093e+00 2.0704659691541924e+01 -4.1441655699050550e+01 -1.1294947500431218e+02 -8.3816855846254597e+01 8.2301983122337585e+00 -5.0368185961521149e+01 1.0837613276151744e+02 -1.3351957480957935e+01 2.1833271899943326e-02 1.6681736629642995e+02 
      </Row>
      <Row Index="27">
        -8.9439843801009786e+00 -2.6836167755960105e+02 -3.2886833620705715e+00 -9.5265237771399320e+00 -1.3688473875639556e+02 1.2926826976324531e+02 -4.9333888108682856e+01 -3.5614917204042911e+01 2.2845132544717265e+02 -1.2310017929988685e+01 6.3062723604904818e+01 3.2722642502115207e+01 4.0886056543447410e+02 3.7390613257910729e+01 -4.3343244833005707e+00 -1.0519356040797817e+02 5.5036447859054725e+01 -2.5159874592653352e+01 1.8881337127842748e+01 2.0731320814937797e+02 2.5798529214621478e+01 1.8932248754569457e+02 -2.1426218431141251e+01 -1.9996581055011120e+00 -5.7519314063609329e+01 -3.8076006165653649e+00 5.3202661378989802e+01 3.4091469586208882e+02 -3.3807109880322422e+01 -4.8633869019209598e+01 3.7258736806039803e+02 -7.7661607001114437e+00 -7.6657653040732470e+01 3.7809355633733531e+01 7.2281835322690540e+02 -1.8689873366548671e+01 8.4823683523664641e+01 1.1468110153632270e+02 4.5910692514096093e+02 8.1905842976704832e+01 -6.0123395485229274e+00 6.7558583721414414e+02 -3.3372260157812249e+01 6.3014218819806374e+01 4.9346391666914409e+00 -1.7483886382009538e+02 8.0715770396331891e+01 3.2233404317007897e+00 9.6401207603505590e-01 -1.3159215588298500e+02 1.0955705932701471e+02 -4.9833432906224481e+01 -1.4179463083531436e+03 7.7865291971731665e+00 3.3958783565866014e+01 2.5609079545175963e+01 5.7222169518374358e+01 -5.5664456276859681e+01 -4.6564507602508456e+01 1.4416476901792521e+00 6.2657798599511352e+01 2.5626291650567371e+01 5.1705125599577059e+01 7.6646011714280223e+02 3.0778338169573829e+01 1.4798428729220268e+02 6.7331503345242950e+01 1.7029483390511887e+03 -1.1971834083626398e+01 4.5258826460699311e+01 -2.0034968155934287e+01 2.9810163660928765e+02 -8.7742952866652047e+01 -6.3069660471931641e+00 1.9068524460601759e+03 -5.9011552449633626e+00 3.1722703812485747e+02 -2.5575930181072632e+01 1.3792687593633778e+02 5.8735318966903648e+01 4.9961416182955375e+01 -1.3629083573897634e+02 -4.6065824832329719e+02 1.7946275237654749e+01 -7.8185735515656205e+01 8.9403621181192491e+01 -2.8966213032370973e+01 -1.8216614146694178e+02 3.1875907335006747e+02 
      </Row>
      <Row Index="28">
        1.8396647230409918e+01 -2.5929021831515786e+02 -8.3788037923382177e+00 3.3081976520230472e-01 -2.4968945115544130e+01 -3.3683163126364938e+01 4.9735634836584161e+01 2.3484286994072789e+00 -5.2709030736597377e+01 -1.3249328364414392e+00 1.0061974805869649e+01 1.6199500666616014e+01 -8.1958085795903358e+01 6.2887618026191152e+00 6.0962191080025603e+00 3.5452839551143853e+00 -8.6233011339111769e+00 -4.8117303711194012e+01 2.4655017239082333e+01 2.7390027258503841e+02 4.7834068613032281e+00 -5.5848455333970364e+00 2.0759979567451786e+01 2.1347317556722601e+02 -5.1832675379404876e+00 1.8237126378691633e+00 -1.0302879767123581e+01 -3.3807109880371144e+01 5.2017743173098246e+01 5.0502079731656835e+00 2.0720305594991871e+01 1.7592870874098216e+00 -3.2584559467057183e+01 -2.8921943655721268e+01 -3.8305731070250738e+02 2.8938029935684000e+01 -3.4963812212744898e+01 2.7357457117806916e+01 -3.5431062305530240e+01 -6.6097599856173574e+01 -2.9540863901512672e+01 5.0166641467917501e+01 -1.0742977372713076e+01 -5.9460895529581279e+00 -1.3833559955059712e+01 3.5288462232836287e+02 -4.1525329384396066e+01 8.6515802755677873e-01 2.5071943095661407e+01 6.0457184885155840e+01 -9.2811764961435230e+01 -4.7597881183740057e+01 1.3461610210775265e+02 -9.7913851489804031e+00 4.4238555479569243e+01 -2.2220178944871343e+01 2.9282976551189040e+02 -5.0853436063576467e+00 1.9046942205086793e+01 1.7409947754516224e+01 -1.4314588993810389e+01 -1.5980447942774772e+01 5.3680108359597739e+01 8.8521642733161627e+00 1.6185121788875279e-01 -1.0425804129301014e+01 -4.7539992793093822e+00 -5.5000690502201928e+02 7.9463579119013161e+01 -1.6144438651773328e+01 7.3777565291927543e+00 -7.4042524915046997e+01 1.4277727067078217e+01 6.1111958140595355e+01 -9.9434184184534473e+01 6.4690901113922301e+00 -1.0433145027413900e+01 1.8162429365530681e+01 -1.1275025998047522e+02 4.3703651023835675e+01 -4.2745243197024436e+01 1.6417952261150743e+00 2.6638102741065229e+01 -5.2483245151783649e+01 -2.1455774155203539e+01 4.7837111996530538e+01 7.8755146452203988e+00 -7.0079423874689510e+00 -9.2768242633424094e+01 
      </Row>
      <Row Index="29">
        -1.2182207230534804e+01 -3.8581025867901252e+02 3.8613632123446564e+00 1.3345664219841908e+01 5.7292107956511273e+01 -1.7289113569120403e+01 2.3005616120973770e+01 1.3648118388914341e+02 5.2031003890214805e+01 -2.1227707500219388e+00 -1.7787928109498790e+02 -2.3255517479771793e+01 -5.7314873583214620e+01 -4.7383791313419479e+01 5.9592533670217378e+00 1.1772484727875963e+01 2.2662670551988828e+01 2.0544148737440882e+01 2.3034160091960338e+01 -3.2816480238154986e+02 6.4326736442809995e+00 -6.7431265465218146e+01 -2.0604974636748352e+01 -8.3302364449447509e+01 -2.7418293043237362e+01 -3.4707160865535891e-01 -1.2135169841682352e+01 -4.8633869019611275e+01 5.0502079732266401e+00 1.0074026072628602e+02 3.7194775965301687e+00 9.0198145732104440e-01 4.9663454096361548e+01 2.7465850521218442e+00 -2.1050019139726055e+02 -5.8161717990006405e+00 -7.8784361368771499e+01 -5.9911408918155800e+01 -5.2080955146994683e+01 2.1908001602649104e+01 6.7196695230308734e+00 1.6812324955867936e+02 7.7676751976760112e+00 7.9373585173120645e+01 1.5986865361663588e+01 4.4129185427459322e+02 3.4240287147329632e+01 1.1510884205823530e+01 -2.8811708677980077e+00 1.3699012436552835e+01 3.2221458677289220e+01 1.3723073744039868e+02 2.1868947312893690e+02 7.0983353415231960e+00 -7.8776626927459247e+01 3.0959011913275386e+01 -3.0371561066588674e+02 -2.4776830748896995e+01 5.1316071410725328e+01 1.4500951042629652e+01 -2.3641809609071061e+00 -2.3710814206089516e+01 -9.2410575719914959e+01 -5.1872346499907724e+02 3.1021714352166896e-01 -1.8256568780777343e+02 -2.6218408796728369e+01 -6.2841352941389027e+02 -6.8726128649992305e+01 -4.3993842955801448e+01 -2.5224066896496943e+01 1.3970480644565193e+01 1.6562944267997914e+01 4.3426517683661622e+01 -3.3320268107378433e+02 2.9514919784627764e+00 -1.6001959702354844e+02 -2.7262560455061045e+01 -8.7544334971402350e+01 9.3984287070635304e+00 -4.7697642558700487e+01 1.9043300531644533e+01 7.1918883381019185e+01 8.8283534255149370e+00 1.3334959695398112e+02 -1.0472405966707163e+02 -4.0395575934887802e+00 1.8671012042188971e+02 -1.0135218472619279e+02 
      </Row>
      <Row Index="30">
        -3.8006497598624151e+01 4.5572725448314577e+03 -7.7325396115554554e+01 1.1203744825542422e+02 -4.6024801802598449e+02 2.6798277594076626e+02 3.6973372361536889e+01 -1.1248580451036059e+02 -7.4513209881241767e+02 3.4519074539544896e+01 -9.6261691013926068e+01 7.2899767689600424e+01 -2.6310487106612300e+03 1.5078245128015446e+01 4.9254437162648742e+01 -4.2468486347848534e+02 2.2526630521809000e+02 -2.2979354027264515e+02 1.8881822556967592e+02 1.9948687328254200e+03 1.2331207907553858e+02 3.2252019661709210e+02 -8.6381903604465606e+01 -2.9892504314425423e+02 -8.7315547515960361e+01 1.0104396662704898e+01 1.5915845034145786e+02 3.7258736806320786e+02 2.0720305596114144e+01 3.7194775967340963e+00 2.4927500398920361e+03 -3.0747259208192148e+01 -8.0188251405870005e+01 2.3367755188906926e+01 2.2297910741715932e+03 -1.2640238053925903e+02 1.8781520998632654e+01 1.2033585596573100e+02 9.4976303576431292e+02 5.8651316958895734e+01 -1.0739663110977148e+02 2.9176069236692201e+03 -4.8220415733763787e+01 5.4385833454390911e+02 6.4975330143172002e+01 -5.9632169991499577e+03 2.5739996422760555e+02 8.2056563511000803e+01 3.5105841565835749e+02 -5.8710285885619072e+01 1.4467716895315755e+02 -1.8788317791072075e+01 -6.9102044972639096e+03 8.9107514917051091e+01 -3.1836669407273848e+02 1.4122178474776439e+02 -1.4028894258796208e+03 -2.1707622884572470e+02 4.1793668846722539e+01 3.9672200465135575e+01 1.4687732199352467e+01 3.3332078662837873e+01 -4.2550411423017067e+00 2.6856853484719018e+03 7.5685207212094156e+01 -1.4962903430590086e+02 5.8458074328325274e+01 3.2810418482640271e+03 -2.6145081541610506e+02 4.3631865382029140e+01 -7.0535450069406386e+02 7.4828767301283449e+02 -2.5616863651958380e+02 1.1571152644750178e+02 7.1516647723025544e+03 5.3435925737561831e+00 7.9883649391794984e+02 -1.9921993267637743e+02 1.1762156627679110e+03 1.8208873214005510e+02 -6.0404760870638782e+01 -4.3210732841243441e+02 -8.1489038828564867e+02 -3.3012817221344903e+00 -9.7854576310341002e+01 5.7954558115360896e+02 -1.3683080742049356e+02 3.7596680573488648e+00 2.0161024361842155e+03 
      </Row>
      <Row Index="31">
        1.6717011705325864e+00 -9.4282892092318832e+01 -5.2429455912778078e-01 -2.3030523305453494e+00 2.7831163868008755e+00 -6.7737419119997959e+00 -3.8772377159031046e-01 7.5013443680038705e-01 6.8351662338917407e+00 -1.1394459400659471e+00 1.0858012105145303e+01 1.4424435829895437e+00 1.7948870667569771e+01 2.8086015403317623e+00 -8.4840242738670613e-01 6.5981055928147683e+00 -3.4749465681573586e+00 -1.0510454507421074e+00 -5.1234423526872863e+00 2.0177797924829148e+00 -2.5517328883409780e+00 -2.3148648639420255e-01 3.7319495503764930e+00 4.1381612281171627e+01 3.6964215676396952e+00 -3.8088944851628059e-01 -3.3976504734308959e+00 -7.7661607000797250e+00 1.7592870874134934e+00 9.0198145729931312e-01 -3.0747259208039175e+01 2.4727943447700587e+00 6.7111457375013517e+00 -2.5255808838469234e+00 -1.5484535664985685e+01 9.4443971334080312e-01 -5.7695747317991108e-01 6.3108699611646326e+00 -2.2618913506552239e+01 -2.1431818332091539e+00 6.5708903336411542e+00 -4.3273322245773478e+01 2.3303438157361080e+00 -1.1875916271522803e+01 7.4592792702252164e-04 8.0344733618119321e+01 9.6360447387464099e-01 7.8485928106869862e-01 -5.2701474694611354e+00 3.1860376456529820e+00 -2.1103941598669538e+00 8.8193901789704352e+00 -2.7922052837027270e+01 7.7789077752056119e+00 -1.2950512333486994e+00 -4.4343197323068955e+00 3.7593842271368828e+01 9.9980173718112333e+00 -7.4469278132184158e-01 2.8985345836494822e+00 1.8579979802311186e+00 -9.0024227495395603e-01 -1.8080286182422682e+00 -4.3658253530785871e+01 -2.0945086053968964e-01 8.9087478787171790e+00 -2.0393463543556676e+00 2.8251865173785713e+01 -4.6985036146212555e-01 -2.7220490171120084e+00 1.8315057002215077e+01 -1.4132015734178630e+01 -8.3589857345070895e-01 -8.9886665644199368e+00 3.5979710576287246e+01 -9.5441171545138861e+00 -3.0445140730016895e-01 5.2950610691412177e+00 2.6183911750857822e+00 -5.7047019273015493e+00 1.0983930900612793e-01 4.8581047735005809e+00 1.6231379077302101e+01 -1.9890588081836469e+00 3.4081555756483990e+00 4.0722066725631221e+00 3.2282260368083779e+00 -9.7300438052259164e+00 -9.2655986547152622e+00 
      </Row>
      <Row Index="32">
        -1.0627129891071583e+01 -3.3898561510065383e+02 1.9365982966664632e+01 9.9889424993652067e+00 1.1921042440469388e+02 -1.2818722722050637e+01 -4.6565945802494689e+01 -9.7316220116972545e+00 2.7096320510038538e+02 2.8190985579275964e+01 -3.4647322212712237e+02 -8.0869323117873648e-03 5.5179792438796994e+02 -4.2209813909514324e+01 1.3208113736153557e+01 4.1630021205589969e+01 1.6798539167722328e+01 2.6307263822061902e+01 -9.8626501906256550e+01 -8.6968537855309137e+02 1.2291266977577020e+01 -1.6788431258562875e+02 8.7061408160174381e+00 -1.0566413093732240e+02 4.9420265590044693e+01 -5.2891215290908189e+00 -5.5053565201093761e+01 -7.6657653040334878e+01 -3.2584559466985986e+01 4.9663454096371211e+01 -8.0188251399344381e+01 6.7111457374860795e+00 3.7629951650503830e+02 -2.6251945403078167e+01 3.3558910150277120e+02 -6.1023671778838505e+01 3.8357895903340946e+01 -2.5382303846015361e+01 -6.5624233483481234e+01 4.9739164482073861e+01 1.0082880238657899e+02 -2.4934456320798799e+02 6.5360299368276159e+01 2.0878894558564616e+02 4.8096399622489564e+01 1.1937552541955961e+02 1.1709984768700923e+02 5.8656546294765075e+00 -6.0124854789580944e+01 -1.3301338321974558e+02 1.4823686879076547e+02 3.8590236012298737e+02 -9.2948965321191153e+01 1.2164968438426500e+02 -4.5876359891176162e+02 -1.4060207060902172e+01 -2.9858919902900561e+02 3.0705417039271993e+01 3.8970241828276357e+00 4.7960608676634138e+00 1.4706982167459273e+01 9.5567490643221191e+00 -1.9793499922767455e+02 -1.0224897216750584e+03 4.0601028468493212e+01 -3.7936398593118702e+02 -6.6727992960204659e+01 1.5775520362917582e+03 -2.5837504109639758e+02 3.2178809471748835e+01 8.7132497151800990e+01 1.6641953530325063e+02 -8.5069834300099103e+01 -3.6349983229230168e+02 -2.5091265763547489e+02 -7.1973972412577169e+01 -3.1436837307481733e+02 -1.7200226004528281e+00 2.2476294732913988e+02 -8.5853801980515982e+01 4.7612323683293482e+01 1.0212352769185239e+02 1.0052906874811117e+02 3.9656076621971650e+01 1.8427304888542955e+02 -2.3392700132696888e+02 -5.4158237187937289e+01 3.5038929789219287e+02 2.1402159333243299e+02 
      </Row>
      <Row Index="33">
        -2.9198625475798213e+01 6.5166430385898911e+02 5.2652154454639088e+00 2.3715549237543534e+01 -1.8783370123624341e+01 4.8125205137797877e+01 -2.3470916290589781e+01 2.3832112335197792e+01 -1.6877445948068933e+02 -1.2252615661458984e+01 -2.4291451715737427e+01 -4.4887328365514882e+01 1.1881256941439695e+02 -1.6555971528081010e+01 -1.2487938181111633e+00 -1.8146215959240180e+01 9.0293859600569455e+00 4.3211801092693307e+01 8.6353682394260716e+00 -2.9553853443499996e+01 -1.0766518787371240e+01 7.3744478580481427e+00 -4.5623218999295148e+01 -3.3746667501153320e+02 -1.4519940180767804e+01 -2.3826280410228540e+00 3.3123757083038647e+01 3.7809355633895770e+01 -2.8921943655669942e+01 2.7465850521644555e+00 2.3367755188726733e+01 -2.5255808838461093e+00 -2.6251945403488719e+01 7.4478197961171816e+01 1.9391505671905225e+02 1.4658693225068324e+00 -5.9891776460111984e+01 -8.1555730112621561e+00 5.5496103641434701e+01 3.3511709992308596e+01 3.6149432690855630e+00 2.3899664247791998e+02 -2.0806194733636818e+01 5.1751453596371064e+01 1.6643035348285977e+01 -9.0569188997828621e+02 4.4298256750749516e+01 9.5163534007928803e+00 4.8476432688165865e+01 -8.4110909259561836e+01 7.2660787789434892e+01 3.3226527733377253e+01 -4.3414279156061963e+02 -4.0474499387366023e+01 -1.9160642690418570e+01 5.9629758194606339e+01 -6.1961856426955546e+02 -8.5614418789793945e-01 4.2873710756225933e+01 -5.0904552725102121e+00 -2.2573159906281035e+01 2.3976803551314404e+01 -2.1399353323422474e+01 2.8694293181736214e+02 -2.5287008500658544e+01 -1.7081152453760296e+01 2.0280434629861734e+01 3.9953416036482190e+02 -5.0815718352015054e+01 -3.4832683084811194e+01 -7.5203823432841403e+01 1.1448223511306279e+02 -1.7537271622892849e+01 -1.2181539788337915e+01 5.2229525974896978e+02 1.7957770075004067e+01 5.6101755085247348e+01 -5.2356141289328292e+01 1.1039880547029807e+02 -1.3509868145777745e+01 -4.0206113938540817e+01 -6.1835615235567303e+01 -5.5901098614645313e+01 2.1474041739636153e+01 -2.1010458875078200e+01 -1.2330608364183036e+00 5.9829497944851369e+00 2.8853144973415088e+01 2.0770909344945241e+02 
      </Row>
      <Row Index="34">
        -1.8850505010257939e+02 1.3966989804010689e+04 -1.2972897196618669e+02 9.2778728027199691e+01 2.9345085585386278e+02 6.5822842958491219e+02 -4.6547201560566543e+02 -4.3873523256001863e+02 -6.4665534438564907e+02 1.1495406677528618e+02 2.2401169295933510e+03 -7.5198095432194123e+01 -2.0013719479117659e+04 3.9052549083524173e+02 -1.0409778394125505e+02 -2.7193230548720385e+02 -3.0944132370982828e+01 1.6934864453373919e+02 1.2257088370203168e+02 1.2831633876045435e+03 9.2239158642407446e+01 5.0171048982843968e+02 -2.6418791323635196e+02 -2.1644329351348570e+03 2.4126700741639343e+02 4.8008283317302954e+01 5.0490681720729526e+01 7.2281835325497150e+02 -3.8305731069658634e+02 -2.1050019140236097e+02 2.2297910742654021e+03 -1.5484535665502982e+01 3.3558910147313259e+02 1.9391505672311769e+02 2.2690374497115816e+04 -4.9743563734966585e+02 7.3434162953211592e+02 -8.1735372184962102e+02 1.4704606863559923e+03 5.9703216708972707e+02 -3.7678632310992839e+01 1.6861757686795729e+03 4.1620571188830900e+02 -3.4533221421165047e+02 4.6281090734908247e+02 -2.0309967587646541e+04 2.0314221439549328e+03 4.8229980298949204e+02 -1.3932537055806895e+03 -2.2639803629085782e+03 1.9358185026204465e+03 2.0650248360247197e+03 -3.7588705529919629e+04 1.8232070022234134e+03 -1.3572913113228133e+03 4.1972769065104785e+02 -1.1073873979133496e+04 2.6337854235217856e+02 -7.3106687586945191e+02 -2.3006135221682052e+02 -3.6715388290323608e+02 2.8310172646940021e+02 -5.8808067582754302e+02 5.2425506339838576e+03 -8.8669109009315434e+00 1.1811543181663728e+03 -2.4170164142987264e+02 2.9710160717842904e+04 -2.4105652832811220e+03 -4.9504559681294040e+01 4.3367650199513378e+02 3.1283915212040733e+03 -1.3446586474942544e+03 -2.3668390611571981e+03 3.7594161442469893e+04 -1.4249338561589921e+03 3.5150262874167661e+03 -4.7965075454207306e+02 1.2446238330513541e+04 -4.2119157901699629e+02 8.3345553868051763e+02 3.9879991512800927e+00 -1.1805825829767643e+03 3.3129131493752448e+02 -1.1651790705807608e+02 7.6221752914139188e+02 -1.0798567048141467e+02 -1.8165621984662746e+03 1.1855195433539742e+04 
      </Row>
      <Row Index="35">
        6.1136367127659597e+00 -1.7949978203555690e+02 3.5850258684786240e+00 2.9240680173808160e+00 -7.7742662204532706e+00 -2.0533131205303249e+01 3.2806112181008444e+01 7.2597174081303137e+00 3.4376810905182445e+01 -1.5366192192860524e+01 4.2787492863420198e+00 -2.6199936357571801e+01 1.1449119686312906e+03 -2.3297071077618785e+01 -1.2007397047944556e+01 3.7722156422617559e+01 -5.0084780238103271e+01 2.9512486622383669e+01 8.5223727686996469e+00 3.3214466733310172e+02 -1.7972492425732781e+01 -1.3513022400068991e+01 1.4110602857759602e+00 7.4854303713537320e+01 -5.8424597070879940e+01 7.1913200592032496e+00 -8.6976266934080115e-01 -1.8689873367521521e+01 2.8938029935466194e+01 -5.8161717989072175e+00 -1.2640238054389602e+02 9.4443971335741972e-01 -6.1023671778035315e+01 1.4658693222498442e+00 -4.9743563735820453e+02 1.2889420721380486e+02 -4.6347517657264724e+01 4.1171998441207727e+01 -2.2896473243628939e+00 -5.6011788141957602e+01 -2.8435484953836177e+01 2.2783688166616095e+01 -3.5107711944098945e+01 -5.6226112643675492e+00 -1.7343099984624335e+01 4.8489505121557374e+02 -4.7292492659924818e+01 -1.8482021833254400e+01 9.1555854193599288e+01 9.8311300913724963e+01 -6.4582363117052978e+01 -9.6739407971490309e+01 6.9680746163070398e+02 -8.8456139550141245e+01 9.8850824683945575e+01 -1.8913312919069512e+00 4.6536538914583070e+02 -4.2814669042068374e+01 3.1355004093207071e+01 1.7047684874231663e+01 -5.4443171842040101e+01 -5.4198134236600737e-01 1.0127592137212355e+02 1.2076381787024928e+02 -2.2999340464090551e+01 -9.1906627410462534e+01 -1.0658303840485631e+01 -4.1930415613488344e+02 1.6683786148063763e+02 -1.9889365239750269e+01 -1.2015294519164712e+00 -1.2992331800160281e+02 5.0166458202146615e+01 8.9450434057596738e+01 -5.2036628705734233e+02 4.5021177764211160e+01 -2.9565891482275418e+01 1.9177816493855541e+01 -3.7135329986985101e+02 1.1035385565637358e+02 -4.8372301534767296e+01 -1.0511014913258617e+01 -1.7118262602911816e+01 -4.2940120293672827e+01 -6.8554274157998293e+01 1.0674147014917004e+01 4.4261793997390868e+01 -3.3822428989241859e+00 -3.5740343724052212e+02 
      </Row>
      <Row Index="36">
        9.7036981693095932e+00 -3.2449974414574814e+02 -9.3926123426115407e+00 -7.4457837110344272e+01 5.1632046721436055e+01 4.2214636300341013e-01 -4.6842333610522353e+01 -1.2933091597750786e+02 3.9513293969912934e+02 2.3659304535263356e+01 2.2247707716509973e+02 5.9750080651777935e+01 4.6855405987418635e+02 9.3967801652377972e+01 -2.4673647630470388e+01 1.1804471697948273e+01 -7.3665101247418320e+01 -9.3576303701145314e+00 -5.3579653347390682e+01 1.7811200372131276e+02 1.2355757661260476e+01 4.1369525073046702e+01 2.7304196714425082e+01 3.1620915446219357e+02 2.6149887707356307e+01 1.0989220944592821e+01 -3.6087218392251330e+01 8.4823683523794728e+01 -3.4963812212725841e+01 -7.8784361368706072e+01 1.8781521001584629e+01 -5.7695747320607782e-01 3.8357895903857226e+01 -5.9891776460132320e+01 7.3434162953705959e+02 -4.6347517657833741e+01 3.8017757802265925e+02 3.5080126007226781e+01 1.0667681359787028e+02 3.7402578066872707e+01 -4.6649364096792461e+00 -6.3664420218050896e+02 4.2804134728316910e+01 -2.1681442661879154e+02 -2.2809989164248643e+00 6.1645618186472507e+02 1.8528459160035716e+01 -3.1628500651797417e+01 -2.6321982712820500e+02 -1.1499254771193270e+02 6.1430611219952993e+01 5.4625626166467391e+01 -4.0354328593083352e+02 8.9276554980786983e+01 1.7221335834827670e+01 -3.8459945000024739e+01 1.2256078628052817e+03 6.5219638527623715e+01 -2.5844921979847800e+02 -6.5491306613707408e+01 -1.8584757016144238e+00 1.1590256462162159e+01 4.0190059427334489e+01 3.4149430011217100e+02 4.8220409597312859e+01 2.3515725715512986e+02 -3.0056217349852949e+00 2.0212005330237857e+03 6.4371133003869119e-01 1.9636325994256117e+02 2.8817521913741302e+02 8.1269229747865040e+01 -5.4130736973409313e+01 -2.3730338585082404e+02 2.9973931147655969e+02 -4.7494076954408072e+01 6.8371080250582082e+01 4.7785137439924931e+01 3.1798503390898230e+02 -2.2612482511003606e+01 2.9415484871519675e+02 1.0481719616659223e+02 -9.7318168973882877e+01 2.9751707628577822e+01 -4.1853461835045437e+01 5.8333221491236188e+01 -1.2549485286773859e+01 -3.6680376416269883e+02 -3.2382383872061375e+01 
      </Row>
      <Row Index="37">
        2.9275378645143732e+01 -1.7824756474994517e+03 1.2303232705612835e+01 -2.4431582288784295e+01 -2.8562318657352870e+02 -7.8350687936102439e+00 9.8199515238605635e+00 -6.9002402263631325e+01 -2.9768539822812539e+02 2.7327509292088092e+00 -8.4457884485810013e+01 6.7214478182600558e+01 1.6196802130886942e+03 3.4504061517278167e+01 2.0492043633705020e+01 -5.8127075816448865e+01 6.0062267760497470e+01 -9.1721043372065552e+01 -6.1324040774510181e+01 8.8183594342556955e+02 8.2921625308984677e+00 1.2340048641442657e+02 3.2611857294884317e+01 3.9142268939105776e+02 -1.9101313963841449e+01 -4.8922422028188670e+00 6.5516635230055115e+01 1.1468110153644307e+02 2.7357457117751085e+01 -5.9911408918060545e+01 1.2033585596286630e+02 6.3108699611201793e+00 -2.5382303846068719e+01 -8.1555730113134324e+00 -8.1735372187481903e+02 4.1171998442065529e+01 3.5080126007052996e+01 4.1219004157902702e+02 6.7860398343333870e+01 -1.8346117001468567e+01 5.2241687229066073e+01 2.9310426045118953e+02 -1.3983391378008569e+01 3.3843890319376740e+01 -2.8968188936614194e+01 1.2884304386738318e+03 -6.6823294583307856e+01 -2.0130920805857262e+01 1.2681886685056564e+02 -8.5350909724639592e+01 -8.9306261974456334e+01 -9.5607207645550915e+01 -5.8895471516409179e+02 -5.4701887849671820e+01 9.9540503213996843e+00 -5.6729942119600153e+01 1.2011159971189452e+03 -2.4743161385032849e+01 2.8925199485940766e+01 4.5221690423791699e+01 5.4966239980796189e+01 8.5409493651575303e+00 6.5584460158830780e+01 4.0729452346722883e+02 4.2469250880171700e+01 1.3734673606871240e+02 7.2448532947584468e+01 1.4937410524599909e+03 1.6773325683303125e+02 4.7914517707505922e+01 1.3472051196305389e+02 1.0542780422845706e+02 -1.6117873734810026e+01 -8.2517214304710933e+00 1.0083782390059450e+03 4.6400413834684208e+01 4.9724386991001296e+01 3.2727061326133999e+01 -3.6063911025642511e+02 5.5988502251930569e+01 -4.9130654780412662e+01 -2.3375075968752716e+02 -1.7089577313508920e+02 -2.9698218770478473e+01 -1.2915525074653306e+02 2.6821768012291312e+02 -5.1143719657024810e+01 -9.2318555573266735e+01 -4.2975114980271833e+01 
      </Row>
      <Row Index="38">
        -2.9775494729041952e+01 1.5895441179517129e+03 -2.0441233536112406e+01 3.2597567025531276e+01 -1.8387773788114680e+02 2.7220580669773625e+02 -4.5271366349102294e+01 -1.2559358765872946e+02 6.8943062962553074e+02 2.6915960201449288e+01 3.1669079007120791e+02 -3.4446638813216950e+00 1.2868016137702639e+03 5.7837852266038205e+01 -2.4093858308293562e+01 -1.9367860426246341e+02 -5.6495280298553915e+01 -4.0600639169422159e+00 3.4352655473615414e+01 5.4155751945433349e+02 5.2989243954097880e+01 2.9845232859265889e+02 -4.7674410426858401e+01 -1.5810589978428015e+02 -4.7160296925343914e+01 9.9757578448425690e+00 7.2671686676516984e+01 4.5910692514048515e+02 -3.5431062305060621e+01 -5.2080955146099178e+01 9.4976303575726274e+02 -2.2618913506612856e+01 -6.5624233485448045e+01 5.5496103640874139e+01 1.4704606862808359e+03 -2.2896473216618460e+00 1.0667681359699216e+02 6.7860398343512131e+01 1.1069543873037208e+03 9.8009656901994447e+01 -7.2649339529433476e+01 1.5834630594149985e+03 -1.6973417861737545e+01 1.3972188535399715e+02 5.1138641336758951e+01 -1.4937108323113696e+03 2.0757160356466576e+02 2.2455410503678625e+01 3.9582686578483028e+01 -1.7270066937195114e+02 2.3803640156967208e+02 2.3094070383190239e+01 -3.7731628776182215e+03 8.7005665019181109e+01 9.5173846260075834e+00 5.1359668073492998e+01 1.7377863680196970e+02 -1.7003239679453975e+02 -4.7039240735098701e+01 -3.4115994096920076e+01 -4.4568242642975747e+01 2.9623862711213405e+01 8.1091644311113669e+00 1.7199422645417433e+03 5.2997658872222928e+01 1.4414079693758140e+02 9.6523600720536358e+00 3.8502938490344795e+03 -1.2320071528411087e+02 3.4034182562135364e+01 -1.9502891933569984e+02 6.2131204709530641e+02 -1.7078847836103230e+02 -1.3401988102982318e+02 4.5699457768362008e+03 -4.2522912576348332e+01 7.0831956427603245e+02 -7.3925263422318253e+01 6.0870625247596911e+02 2.0740406358005868e+02 4.1852429031902595e+01 -1.5300105552860657e+02 -8.8358025472893507e+02 4.7715019177364340e+01 -1.0874098144586087e+02 4.0438715678596040e+01 -9.4380539038277334e+01 -3.8157176047378897e+02 7.3910179485516994e+02 
      </Row>
      <Row Index="39">
        -2.4469652690724640e+01 8.2685877664195232e+01 1.0365207394438428e+01 -7.0669909527551800e-01 2.0372108756601623e+01 5.4560678647343209e+01 -6.1951402637409302e+01 4.1713248195434431e+01 6.9284896865790415e+01 3.7975518281072329e+00 -5.4324196091233304e+01 -7.7049188076307606e+00 9.8503926783227968e+01 -7.2217098177403383e+00 -3.4778010646769442e+00 -2.2924942386310889e+01 3.2951187618163033e+01 5.0221927622502967e+01 -2.9118686522865701e+01 -3.8449570722693062e+02 3.4497030421681698e+00 3.8733428660128169e+01 -2.9091847178756439e+01 -2.1701535444525780e+02 1.0622285401730977e+01 -2.5238806027228584e+00 1.3028164608458251e+01 8.1905842976774522e+01 -6.6097599856081587e+01 2.1908001602782690e+01 5.8651316960110677e+01 -2.1431818332064516e+00 4.9739164481907252e+01 3.3511709992337444e+01 5.9703216709232993e+02 -5.6011788141968935e+01 3.7402578066738393e+01 -1.8346117001386261e+01 9.8009656902687354e+01 1.2567087446225349e+02 4.4295750835580158e+01 1.4956476405646399e+02 2.2053050765429294e+01 1.5773570866891438e+01 2.1290772962197369e+01 -2.6201061912007162e+02 7.8505878289478758e+01 9.9440223403285497e+00 -3.8221814704250427e+01 -9.7057195814784464e+01 1.4724395143078578e+02 1.0799418460803930e+02 -6.1974153702253648e+02 2.8101830558921382e+01 -6.9134642604062805e+01 3.2461842242618971e+01 -2.9466930786361809e+02 1.2058693493498339e+01 -1.5850701033620908e+01 -2.3049525228421032e+01 2.7313007951992063e+01 -1.9350631114505745e+00 -1.0444885684644589e+02 -8.9454992160126096e+01 1.2100346966575529e+01 2.2680194925777869e+01 1.2409655440861423e+01 8.8410218171190388e+02 -1.4732517021670978e+02 1.1687453313495825e+01 -7.9366555785387582e+00 1.6099639815543873e+02 -2.3869339238221926e+01 -7.0276229249002014e+01 6.2319769468280981e+02 -8.8130896217233285e+00 1.6411360186706588e+01 -2.7513455059175019e+01 1.6391883379105613e+02 -6.9203551758741682e+01 4.3977567103563345e+01 -2.2279287245595796e+01 -8.6126516897453428e+01 8.4778870903279810e+01 6.2271951143663657e+01 -6.9318972839226646e+01 -2.4304321819197469e+01 1.8440015064082235e+01 1.6990783996377132e+02 
      </Row>
      <Row Index="40">
        -5.1908124616041462e-01 -2.4788289432148315e+02 1.7657982152637665e+01 -8.0965217428588048e+00 -3.6222939393705289e+00 -1.4500023413878438e-01 -4.0220586590516795e+01 9.7752040895416457e+00 4.8217254658804350e+01 -2.2970141948005840e-01 -1.1709739855138940e+02 9.9119650511799904e+00 3.4758396305231054e+02 -3.1626512058370839e+01 7.0198334026225062e+00 1.1221982257277226e+01 2.5296927374572004e+01 -1.7398876449446927e+00 -9.0622235453453243e+01 -3.6297956278104527e+02 -1.3625548139615798e+01 -3.4093712604332985e+01 7.0935023383337850e+00 -4.1898232799520201e+01 1.4165107152566279e+01 -1.1812165923012927e+01 -4.3805083085879382e+00 -6.0123395486258158e+00 -2.9540863901624490e+01 6.7196695230578811e+00 -1.0739663110801688e+02 6.5708903336504800e+00 1.0082880238716457e+02 3.6149432693089878e+00 -3.7678632293656392e+01 -2.8435484954409546e+01 -4.6649364097772548e+00 5.2241687228737824e+01 -7.2649339529387376e+01 4.4295750835775515e+01 1.1431937286586198e+02 -1.8298653535973031e+02 1.2189894833184413e+01 4.4550672196845753e+01 -6.3800023277838580e-01 2.2736973935923200e+02 -5.8861742024611727e+00 -2.5068731513795277e+00 1.5695091452964396e+01 -3.8064737566188128e+01 1.8345018923679106e+01 4.8256854720135436e+01 7.9170443248333709e+02 -1.2314914630352646e+01 -9.7011743550525225e+01 -1.5119030818950488e+01 -1.5438033716006885e+01 7.7682235165543574e+00 2.5302836471077626e+01 -5.7564975060514882e+00 5.7441196680464145e+01 1.0622235997978095e+01 -9.5004402031342579e+01 -4.9211899447946809e+02 3.2568774215071699e+00 -5.5543515414763760e+01 1.4062302465892383e+01 8.0954809415353139e+01 -5.7135957713993307e+01 6.2158019656613046e+00 3.7385914190816024e+01 1.1758141356664193e+01 1.9178422068517957e+00 -5.5355714962704688e+01 -8.2417606353725012e+02 2.5854780682800467e+00 -1.4677706623636038e+02 8.1193580898150248e+00 -8.9320069319094401e+01 -6.4772923620882381e+01 -5.4706613845809802e+00 -6.1598197966560253e-01 5.3260747353737351e+01 1.7767892836750843e+01 6.3786648737901075e+01 -9.7011103096380396e+01 -2.0826924634900763e+00 1.3269348622214625e+02 -7.3034139988896470e+01 
      </Row>
      <Row Index="41">
